69 128
6 -0.111502 -0.139934 -0.024845 -0.073386 0.083702 -0.036166 0.212007 0.009657 0.150846 -0.059871 0.000640 0.188492 -0.046783 -0.052369 0.028819 -0.095076 -0.100626 -0.044334 -0.112007 0.126465 0.111316 -0.128193 0.131034 0.077356 0.099261 0.033074 -0.154445 0.013833 -0.065222 -0.053664 0.063009 0.067638 -0.184265 -0.041720 0.058725 -0.016865 0.074330 0.043008 -0.059830 -0.202618 -0.123302 0.153453 0.100103 -0.003588 -0.073227 0.201020 0.163005 0.027431 0.036559 0.072904 -0.182625 0.037260 0.060016 -0.160836 -0.082250 -0.122627 0.086233 0.017856 -0.070858 -0.241866 0.045472 -0.061239 -0.002528 0.127130 -0.133509 0.007104 -0.010669 0.011046 0.121732 0.023300 -0.012501 0.031983 0.111162 0.008715 0.116986 -0.047659 0.091328 -0.055174 0.020842 0.053717 0.096478 -0.096132 -0.112147 -0.060601 -0.081289 0.019556 0.196333 0.050180 -0.097784 0.081140 0.057198 0.164065 0.035924 -0.080566 -0.253186 0.164842 -0.057205 -0.078032 0.084696 0.160907 -0.069052 0.062989 -0.054886 0.033248 0.089614 -0.038177 0.296559 0.193663 -0.043752 0.127796 -0.136179 0.063924 -0.057123 0.070919 -0.259690 0.040744 -0.080398 0.030010 -0.108443 -0.020415 -0.064676 -0.056115 -0.020510 -0.128858 -0.003268 0.079275 0.030559 -0.022877
0 -0.105735 -0.131551 -0.021283 -0.078318 0.080273 -0.035086 0.198058 0.007636 0.145360 -0.062418 0.005549 0.178089 -0.044693 -0.047797 0.033170 -0.089616 -0.091532 -0.040913 -0.110170 0.122190 0.102156 -0.122219 0.119969 0.074476 0.085520 0.032919 -0.144856 0.014404 -0.061957 -0.061244 0.059729 0.065719 -0.170943 -0.039676 0.052034 -0.017025 0.070816 0.039272 -0.044719 -0.184207 -0.110277 0.136572 0.090513 -0.000906 -0.066911 0.189113 0.146957 0.026125 0.025348 0.069750 -0.168727 0.031537 0.054447 -0.150055 -0.083096 -0.110987 0.077189 0.021676 -0.073727 -0.220237 0.036879 -0.064602 -0.001366 0.123373 -0.125111 0.008804 -0.006772 0.002746 0.114609 0.024841 -0.016371 0.033430 0.111731 0.006471 0.109657 -0.047670 0.085610 -0.056221 0.020263 0.049942 0.097086 -0.090558 -0.105976 -0.053093 -0.083551 0.021645 0.180316 0.044000 -0.082348 0.074099 0.052235 0.157643 0.031106 -0.080197 -0.232492 0.156613 -0.053926 -0.070206 0.079332 0.147296 -0.065101 0.054725 -0.045074 0.035912 0.086238 -0.034466 0.276477 0.177176 -0.035692 0.119773 -0.131664 0.059416 -0.050257 0.062029 -0.245580 0.032532 -0.074911 0.028783 -0.101326 -0.017595 -0.068825 -0.047867 -0.026381 -0.114027 -0.003240 0.075305 0.025834 -0.017495
41 -0.107691 -0.133178 -0.021211 -0.083165 0.099424 -0.035896 0.209154 0.012853 0.153255 -0.079594 0.007000 0.183960 -0.051451 -0.041295 0.037054 -0.087043 -0.096619 -0.038424 -0.114870 0.140682 0.099230 -0.127035 0.114804 0.080039 0.094153 0.033705 -0.160476 0.023301 -0.058641 -0.068439 0.063177 0.058562 -0.176871 -0.033878 0.042842 -0.011142 0.066964 0.035896 -0.041154 -0.175798 -0.097387 0.142389 0.097792 -0.018602 -0.069142 0.195888 0.150254 0.031600 0.021829 0.073429 -0.166432 0.028882 0.057386 -0.149581 -0.087124 -0.112903 0.083346 0.017556 -0.073584 -0.234500 0.023833 -0.068099 0.000609 0.127406 -0.132611 0.020408 -0.010533 -0.001940 0.129142 0.036764 -0.025114 0.029682 0.119898 0.002262 0.102938 -0.051786 0.088565 -0.062240 0.022314 0.054680 0.105436 -0.085822 -0.120544 -0.059187 -0.077219 0.018176 0.189395 0.042472 -0.078416 0.073200 0.051324 0.159780 0.026320 -0.084538 -0.233902 0.165104 -0.053631 -0.069632 0.078433 0.158482 -0.075091 0.051754 -0.041964 0.036834 0.093685 -0.030377 0.273540 0.169853 -0.039144 0.123090 -0.135645 0.054430 -0.052474 0.062082 -0.258005 0.029321 -0.076941 0.028687 -0.097701 -0.016922 -0.076393 -0.043373 -0.026659 -0.098499 0.001872 0.076531 0.024371 -0.029781
52 -0.108008 -0.136180 -0.025223 -0.086419 0.080362 -0.037599 0.216720 0.006649 0.151871 -0.061354 -0.006681 0.195453 -0.045916 -0.049097 0.018553 -0.103353 -0.102464 -0.038193 -0.121329 0.132470 0.124588 -0.131176 0.130511 0.073345 0.097865 0.037042 -0.165817 0.015931 -0.060751 -0.058295 0.064924 0.074009 -0.183664 -0.046639 0.056372 -0.013645 0.070694 0.037910 -0.057590 -0.208702 -0.120833 0.163160 0.084928 -0.003612 -0.064286 0.209033 0.163284 0.037406 0.032626 0.070139 -0.182345 0.030198 0.067754 -0.160654 -0.079132 -0.116789 0.090537 0.011799 -0.074737 -0.250103 0.044433 -0.057965 0.001898 0.127547 -0.131077 0.017421 -0.008193 0.013637 0.123156 0.025027 -0.009330 0.032976 0.117436 -0.001194 0.119764 -0.045837 0.092917 -0.069166 0.025287 0.051602 0.101646 -0.100254 -0.115610 -0.061897 -0.088851 0.019995 0.198118 0.055420 -0.101824 0.085134 0.057128 0.164723 0.039960 -0.083918 -0.257796 0.157927 -0.057182 -0.067993 0.080061 0.164023 -0.068655 0.078213 -0.053266 0.042322 0.096970 -0.039871 0.305248 0.188335 -0.048099 0.135468 -0.144842 0.064737 -0.058292 0.071300 -0.261149 0.039300 -0.087458 0.037107 -0.108471 -0.017126 -0.068458 -0.056663 -0.033960 -0.132172 0.007958 0.074347 0.032672 -0.027312
43 -0.099175 -0.115087 -0.020070 -0.070795 0.083803 -0.038291 0.185973 0.010087 0.144070 -0.072172 0.011802 0.172262 -0.049873 -0.042325 0.034989 -0.089786 -0.097847 -0.038531 -0.113158 0.122291 0.099153 -0.116485 0.116998 0.071593 0.080165 0.036952 -0.141935 0.018889 -0.057146 -0.060237 0.062855 0.055673 -0.169532 -0.029029 0.051811 -0.012998 0.067374 0.040394 -0.037798 -0.174795 -0.096470 0.139369 0.099681 -0.005021 -0.072693 0.185826 0.149769 0.024112 0.022188 0.066132 -0.164588 0.033229 0.055994 -0.145020 -0.087355 -0.109715 0.085985 0.016935 -0.075136 -0.230504 0.030569 -0.061466 -0.004660 0.127666 -0.138219 0.014891 -0.005088 0.002686 0.126145 0.034034 -0.021720 0.037954 0.115889 0.001582 0.107720 -0.052066 0.089816 -0.062111 0.015649 0.054561 0.105577 -0.084212 -0.113854 -0.057447 -0.082319 0.018868 0.194146 0.048693 -0.080836 0.075980 0.057823 0.157486 0.028754 -0.078898 -0.229770 0.161318 -0.053915 -0.074648 0.076434 0.158238 -0.064243 0.057465 -0.045453 0.036117 0.088071 -0.034110 0.276448 0.173049 -0.036322 0.117751 -0.133102 0.058374 -0.051895 0.065009 -0.254389 0.028966 -0.078133 0.028156 -0.098442 -0.019778 -0.067636 -0.050312 -0.024648 -0.109170 0.000886 0.083090 0.024855 -0.024193
8 -0.111759 -0.147827 -0.025996 -0.086839 0.092237 -0.032566 0.223203 0.011401 0.154259 -0.059677 -0.009433 0.199316 -0.050992 -0.050115 0.023335 -0.099026 -0.093917 -0.039220 -0.115584 0.142336 0.116362 -0.131821 0.132994 0.074585 0.103676 0.034691 -0.166211 0.019670 -0.065993 -0.058614 0.064959 0.072672 -0.189022 -0.045156 0.049690 -0.012788 0.073589 0.036166 -0.051318 -0.198314 -0.122011 0.159814 0.090101 -0.004046 -0.067524 0.203601 0.160658 0.032434 0.034915 0.076134 -0.181926 0.026548 0.067949 -0.150917 -0.087799 -0.120187 0.085727 0.014043 -0.075947 -0.239770 0.031661 -0.063089 0.003273 0.127527 -0.124613 0.012940 -0.003867 0.005773 0.119040 0.019833 -0.014450 0.029703 0.109173 0.002887 0.109225 -0.041479 0.083552 -0.061973 0.024943 0.051946 0.098482 -0.098405 -0.115460 -0.051604 -0.085886 0.026077 0.192491 0.049020 -0.091684 0.075800 0.053356 0.153374 0.032833 -0.082049 -0.246735 0.152073 -0.056452 -0.073806 0.076847 0.153503 -0.067503 0.063348 -0.056928 0.038389 0.093210 -0.040264 0.292315 0.175434 -0.044019 0.127458 -0.140285 0.062973 -0.052075 0.071464 -0.255539 0.040418 -0.075564 0.026579 -0.102663 -0.015760 -0.068708 -0.055569 -0.023516 -0.117716 0.006528 0.066121 0.033025 -0.027977
15 -0.104997 -0.142347 -0.023415 -0.089579 0.081004 -0.031572 0.216470 0.004275 0.148263 -0.051853 -0.009548 0.194386 -0.038060 -0.048437 0.022349 -0.098836 -0.109688 -0.047049 -0.117943 0.126675 0.133587 -0.127616 0.137062 0.082881 0.101548 0.036271 -0.171945 0.010442 -0.063069 -0.053498 0.055175 0.080714 -0.179859 -0.053469 0.051726 -0.023061 0.064202 0.033482 -0.059548 -0.210349 -0.134497 0.156401 0.080684 0.000285 -0.055160 0.215239 0.152008 0.037158 0.031046 0.069631 -0.179978 0.035232 0.061059 -0.155229 -0.079282 -0.123643 0.078707 0.007403 -0.069270 -0.241452 0.056030 -0.056051 0.010146 0.119396 -0.108571 0.019217 -0.011903 0.012542 0.123672 0.027612 0.000286 0.030428 0.117120 -0.013371 0.117613 -0.043766 0.099402 -0.067092 0.021100 0.052372 0.092976 -0.097888 -0.109094 -0.064470 -0.101853 0.020759 0.185236 0.040678 -0.103846 0.084324 0.056400 0.166249 0.047048 -0.083250 -0.263747 0.164303 -0.050593 -0.060021 0.090275 0.153867 -0.069602 0.074618 -0.059225 0.040382 0.093093 -0.040879 0.298493 0.184506 -0.041128 0.126485 -0.138259 0.061327 -0.065234 0.067314 -0.251549 0.043707 -0.080755 0.042971 -0.112819 -0.010914 -0.059877 -0.055360 -0.026724 -0.132305 0.000919 0.070577 0.033332 -0.019871
2 -0.094591 -0.125196 -0.018347 -0.076581 0.086666 -0.033892 0.195443 0.015262 0.141162 -0.068941 0.004460 0.173480 -0.043485 -0.046173 0.033344 -0.092544 -0.101512 -0.041553 -0.112925 0.123604 0.102062 -0.115988 0.123818 0.077920 0.081381 0.032633 -0.147820 0.017851 -0.054955 -0.058298 0.064412 0.053526 -0.181914 -0.032133 0.046219 -0.015547 0.070058 0.037984 -0.040356 -0.185198 -0.104545 0.144479 0.101349 -0.007207 -0.073908 0.191974 0.144784 0.023652 0.027953 0.074564 -0.169042 0.031060 0.056573 -0.139795 -0.088536 -0.110438 0.084009 0.021058 -0.073145 -0.228393 0.029638 -0.065158 -0.004094 0.121887 -0.139854 0.020061 -0.006210 0.003628 0.126744 0.030097 -0.023126 0.035496 0.118441 0.001880 0.113995 -0.047159 0.095255 -0.063461 0.020357 0.052718 0.102809 -0.089429 -0.123605 -0.062787 -0.085265 0.025054 0.197926 0.047837 -0.081954 0.077648 0.060969 0.166095 0.028114 -0.087862 -0.244624 0.172824 -0.053110 -0.081884 0.083083 0.163955 -0.071254 0.057393 -0.047776 0.033731 0.090092 -0.039591 0.291268 0.186908 -0.041263 0.123089 -0.143625 0.063302 -0.053610 0.067782 -0.265270 0.033785 -0.076669 0.032985 -0.110885 -0.023024 -0.076273 -0.049499 -0.019622 -0.119924 0.001447 0.087004 0.032194 -0.024747
4 -0.106906 -0.132893 -0.022552 -0.078987 0.090242 -0.037109 0.200091 0.012083 0.150048 -0.064057 -0.001093 0.191630 -0.045438 -0.049159 0.021414 -0.095330 -0.095587 -0.043418 -0.112115 0.133796 0.115296 -0.127058 0.125816 0.070966 0.095043 0.031803 -0.158243 0.016643 -0.058344 -0.061110 0.058450 0.064742 -0.191611 -0.046919 0.050654 -0.016178 0.075061 0.041412 -0.051994 -0.200412 -0.118430 0.151354 0.098608 0.000697 -0.068272 0.200864 0.159854 0.028050 0.029894 0.071929 -0.177412 0.028985 0.062431 -0.152301 -0.090373 -0.116492 0.089731 0.020249 -0.074734 -0.243807 0.040316 -0.063436 0.005537 0.129094 -0.125382 0.017959 -0.008536 0.007097 0.123800 0.019730 -0.013842 0.033797 0.115349 -0.000310 0.118240 -0.043809 0.094647 -0.060965 0.023063 0.056399 0.102721 -0.098568 -0.117300 -0.054883 -0.088605 0.020516 0.200736 0.047613 -0.090202 0.081860 0.053340 0.158708 0.029716 -0.083075 -0.248358 0.159642 -0.058648 -0.077465 0.083802 0.159305 -0.073578 0.066044 -0.050658 0.042845 0.085634 -0.037377 0.291506 0.183533 -0.044867 0.125475 -0.140531 0.063395 -0.053561 0.074914 -0.257762 0.041212 -0.077427 0.030891 -0.105980 -0.020521 -0.068197 -0.053668 -0.029301 -0.127862 -0.000270 0.074333 0.031676 -0.024010
49 -0.088075 -0.119018 -0.013098 -0.077931 0.096745 -0.032460 0.183975 0.012768 0.141423 -0.076933 0.011283 0.163858 -0.045797 -0.037350 0.036026 -0.083206 -0.094160 -0.038066 -0.106208 0.132742 0.092155 -0.114634 0.110706 0.072832 0.084182 0.029648 -0.147719 0.016047 -0.049883 -0.065599 0.057723 0.042233 -0.171517 -0.032920 0.036410 -0.013639 0.063252 0.035637 -0.034065 -0.168467 -0.094522 0.140101 0.097596 -0.016001 -0.069457 0.193911 0.133297 0.022241 0.019008 0.081363 -0.162901 0.027679 0.057322 -0.131810 -0.094114 -0.102249 0.081624 0.017552 -0.072080 -0.224129 0.014208 -0.067662 0.004043 0.121223 -0.131339 0.023888 -0.006144 -0.007275 0.131317 0.034492 -0.027755 0.028190 0.119360 -0.004407 0.103255 -0.050001 0.088847 -0.069086 0.024084 0.050963 0.100261 -0.075284 -0.124481 -0.057967 -0.087112 0.016792 0.187044 0.037214 -0.074040 0.073608 0.053669 0.157862 0.017979 -0.082907 -0.222697 0.164249 -0.053121 -0.074505 0.085672 0.154689 -0.069900 0.052311 -0.040839 0.042578 0.086742 -0.025771 0.268964 0.172039 -0.034914 0.115223 -0.135950 0.054533 -0.046247 0.068916 -0.249903 0.029328 -0.065722 0.026679 -0.099413 -0.016606 -0.077104 -0.033567 -0.028690 -0.100585 0.005481 0.077788 0.028515 -0.033301
40 -0.098841 -0.127247 -0.024796 -0.080402 0.088234 -0.031331 0.192950 0.014101 0.142274 -0.065064 0.000134 0.175509 -0.042938 -0.045377 0.022939 -0.088748 -0.094255 -0.039956 -0.113124 0.123821 0.108376 -0.118166 0.123174 0.076219 0.087264 0.030316 -0.150676 0.013938 -0.060618 -0.061393 0.059365 0.060837 -0.175324 -0.038714 0.046084 -0.016265 0.063258 0.039111 -0.046506 -0.185890 -0.112644 0.147431 0.092753 -0.006075 -0.069481 0.190362 0.150558 0.025664 0.032319 0.075923 -0.172392 0.028551 0.056326 -0.145102 -0.080410 -0.114810 0.081129 0.012442 -0.068211 -0.227295 0.031152 -0.059485 -0.002387 0.119313 -0.127335 0.017428 -0.007889 0.004250 0.123195 0.028533 -0.018699 0.031336 0.112257 -0.003086 0.109999 -0.047731 0.089897 -0.063753 0.020457 0.050621 0.098297 -0.088082 -0.113323 -0.057979 -0.082417 0.024254 0.191135 0.042775 -0.088253 0.078958 0.049620 0.151377 0.029203 -0.079964 -0.232884 0.159167 -0.049086 -0.076521 0.081852 0.151668 -0.065354 0.059133 -0.044298 0.039856 0.088723 -0.035028 0.280102 0.171559 -0.039231 0.120851 -0.133540 0.054127 -0.053941 0.068000 -0.243107 0.033165 -0.069715 0.028527 -0.096967 -0.019247 -0.064000 -0.043582 -0.025791 -0.113693 0.002425 0.075549 0.026593 -0.027235
1 -0.106281 -0.134634 -0.021854 -0.080175 0.086164 -0.038370 0.197641 0.009546 0.147875 -0.058583 -0.005038 0.179341 -0.041306 -0.049746 0.020741 -0.093008 -0.091255 -0.037324 -0.105577 0.123514 0.108753 -0.120006 0.122852 0.071202 0.092853 0.031590 -0.146412 0.019229 -0.056195 -0.058122 0.055051 0.067924 -0.177395 -0.039848 0.048750 -0.014839 0.065189 0.036089 -0.049134 -0.191944 -0.113134 0.144985 0.089947 -0.004206 -0.068263 0.189032 0.149604 0.029913 0.036317 0.073400 -0.176946 0.035929 0.061493 -0.144145 -0.086092 -0.108099 0.083817 0.020535 -0.070872 -0.225011 0.035806 -0.063832 -0.002285 0.123605 -0.129328 0.012969 -0.003308 0.008317 0.116830 0.020954 -0.010445 0.026020 0.109306 0.002567 0.106797 -0.045075 0.089706 -0.064438 0.025968 0.045837 0.092036 -0.091922 -0.112813 -0.057833 -0.083910 0.016117 0.181627 0.051190 -0.087271 0.076374 0.053005 0.153175 0.032794 -0.076971 -0.235418 0.150178 -0.057602 -0.074527 0.083336 0.155617 -0.071159 0.068135 -0.050161 0.036384 0.088951 -0.034256 0.285725 0.180137 -0.045308 0.121755 -0.137416 0.058252 -0.053605 0.072955 -0.248726 0.033963 -0.072492 0.029540 -0.102539 -0.019535 -0.066867 -0.047597 -0.029049 -0.118826 0.004153 0.070898 0.027886 -0.025339
33 -0.104816 -0.135813 -0.023248 -0.074072 0.084782 -0.038558 0.202893 0.010204 0.149369 -0.060070 -0.000087 0.181771 -0.043792 -0.050022 0.029493 -0.091355 -0.097437 -0.037672 -0.115297 0.127640 0.112823 -0.124072 0.130482 0.074265 0.090781 0.033747 -0.154949 0.018684 -0.060192 -0.053018 0.062728 0.070347 -0.182041 -0.037330 0.049976 -0.018381 0.069148 0.042112 -0.055760 -0.191742 -0.118373 0.154386 0.097657 -0.007226 -0.071723 0.201175 0.158219 0.028274 0.029528 0.073022 -0.181864 0.037008 0.065081 -0.159250 -0.090213 -0.117485 0.083593 0.016954 -0.068375 -0.235970 0.041315 -0.068388 -0.003529 0.128971 -0.131131 0.008559 -0.002801 0.006140 0.126882 0.029688 -0.013097 0.033023 0.113830 0.005181 0.110452 -0.047019 0.089059 -0.060510 0.023026 0.051322 0.102478 -0.098137 -0.116488 -0.063066 -0.084118 0.027029 0.192392 0.049314 -0.095582 0.080028 0.056759 0.164377 0.033073 -0.085828 -0.244517 0.165555 -0.059306 -0.077379 0.084978 0.157067 -0.071363 0.062122 -0.054672 0.039869 0.092733 -0.043728 0.294797 0.186283 -0.041759 0.124164 -0.139237 0.059782 -0.054757 0.066014 -0.255419 0.037689 -0.078845 0.029871 -0.109898 -0.020910 -0.063640 -0.051351 -0.020224 -0.119448 0.002934 0.077756 0.023110 -0.023389
17 -0.100059 -0.135039 -0.024769 -0.084204 0.079807 -0.035946 0.208083 0.009787 0.148339 -0.052583 -0.006099 0.189926 -0.039753 -0.045381 0.018454 -0.090585 -0.097561 -0.043897 -0.113400 0.129583 0.117932 -0.126682 0.128595 0.071244 0.098512 0.035190 -0.159314 0.012152 -0.057051 -0.052425 0.057631 0.072163 -0.175088 -0.048346 0.045691 -0.018072 0.065296 0.033598 -0.055574 -0.194191 -0.120790 0.145272 0.076577 -0.001042 -0.059321 0.196571 0.150890 0.035458 0.031855 0.070056 -0.173551 0.030178 0.059228 -0.149305 -0.074529 -0.112117 0.078631 0.016934 -0.064943 -0.230150 0.043131 -0.055415 0.006930 0.115844 -0.113438 0.019512 -0.008058 0.009260 0.114327 0.023475 -0.007979 0.028829 0.109573 -0.005503 0.112630 -0.037117 0.086111 -0.065424 0.024896 0.046895 0.093580 -0.091605 -0.104839 -0.052501 -0.092938 0.018602 0.181931 0.044828 -0.090568 0.074721 0.050230 0.154621 0.037676 -0.075646 -0.243540 0.151484 -0.048052 -0.063534 0.084262 0.152271 -0.069037 0.070714 -0.054981 0.041558 0.087560 -0.038013 0.284378 0.173485 -0.040276 0.126670 -0.136608 0.063086 -0.054021 0.071759 -0.243429 0.037326 -0.077633 0.034228 -0.102515 -0.019112 -0.063019 -0.048368 -0.028442 -0.121589 0.000584 0.066660 0.032121 -0.024045
5 -0.095618 -0.128861 -0.026553 -0.074850 0.085441 -0.034269 0.191647 0.006749 0.143977 -0.062448 0.002326 0.176139 -0.044152 -0.046117 0.028239 -0.091376 -0.094257 -0.042528 -0.108717 0.123885 0.108067 -0.110708 0.116670 0.078609 0.086413 0.025306 -0.144033 0.010887 -0.057926 -0.056770 0.056522 0.059173 -0.172408 -0.036515 0.047442 -0.020581 0.065200 0.040023 -0.047021 -0.178214 -0.101457 0.138312 0.085077 -0.004972 -0.070170 0.184295 0.143427 0.024108 0.029566 0.065896 -0.164446 0.037161 0.059973 -0.143182 -0.078702 -0.106449 0.082180 0.013887 -0.064902 -0.221819 0.030870 -0.063103 0.002962 0.122817 -0.131551 0.012967 0.000620 0.004985 0.121798 0.019143 -0.016658 0.032745 0.103954 -0.001040 0.111545 -0.047154 0.083025 -0.064896 0.018223 0.044031 0.091857 -0.086198 -0.116593 -0.056156 -0.088538 0.016021 0.189182 0.053760 -0.084614 0.076558 0.057961 0.152574 0.035096 -0.077031 -0.234558 0.157433 -0.056302 -0.078994 0.085544 0.156334 -0.074539 0.061908 -0.053814 0.034852 0.081727 -0.039826 0.280825 0.174672 -0.043090 0.114862 -0.136531 0.058497 -0.050418 0.064620 -0.249563 0.039051 -0.069206 0.028887 -0.097037 -0.016804 -0.066579 -0.047147 -0.019549 -0.121606 -0.001418 0.075266 0.023604 -0.019529
44 -0.096723 -0.131166 -0.023173 -0.097080 0.107235 -0.032027 0.209581 0.019771 0.153296 -0.080006 0.005700 0.183229 -0.047185 -0.034946 0.039656 -0.084265 -0.105458 -0.046728 -0.119907 0.148182 0.102082 -0.121431 0.118341 0.089329 0.100698 0.031417 -0.165181 0.026559 -0.053428 -0.070169 0.069743 0.048432 -0.192391 -0.043676 0.039879 -0.017664 0.065164 0.040718 -0.036679 -0.192058 -0.109506 0.158532 0.101367 -0.025452 -0.074400 0.210734 0.145501 0.031479 0.018214 0.088190 -0.177366 0.028682 0.058700 -0.146874 -0.091867 -0.118333 0.088330 0.010309 -0.074799 -0.250898 0.014366 -0.078616 0.004336 0.124836 -0.135049 0.035261 -0.014526 -0.003109 0.143384 0.047848 -0.025485 0.032191 0.127659 -0.008302 0.110770 -0.048653 0.091356 -0.076763 0.027753 0.061936 0.108428 -0.085910 -0.132302 -0.065716 -0.091256 0.019889 0.208339 0.037049 -0.081912 0.078861 0.049590 0.170819 0.019889 -0.093713 -0.249334 0.184078 -0.047101 -0.075775 0.089136 0.165857 -0.078508 0.063574 -0.042518 0.050128 0.097198 -0.024233 0.293866 0.181287 -0.037842 0.131226 -0.143234 0.050791 -0.058981 0.076097 -0.271498 0.036102 -0.075282 0.028915 -0.103729 -0.018151 -0.078586 -0.038589 -0.029767 -0.097681 0.009311 0.078986 0.025393 -0.036724
32 -0.102258 -0.132030 -0.027849 -0.074866 0.082290 -0.034589 0.198833 0.007510 0.141751 -0.058285 -0.002102 0.180494 -0.043863 -0.044759 0.024221 -0.085869 -0.092829 -0.038098 -0.112208 0.125016 0.105671 -0.117784 0.120412 0.072117 0.090164 0.029695 -0.149411 0.018783 -0.057938 -0.059109 0.058126 0.063963 -0.175678 -0.040928 0.048959 -0.011949 0.072017 0.041228 -0.052386 -0.193213 -0.114266 0.150388 0.091520 -0.008290 -0.070877 0.191388 0.156686 0.030303 0.032457 0.067818 -0.175270 0.033953 0.059766 -0.149403 -0.085545 -0.116856 0.084179 0.016149 -0.070737 -0.230959 0.036113 -0.061548 -0.003890 0.127001 -0.136420 0.012157 -0.009795 0.009134 0.125750 0.023249 -0.015691 0.033911 0.116546 0.001193 0.109805 -0.045507 0.092236 -0.062795 0.023310 0.053685 0.097963 -0.095561 -0.114691 -0.058807 -0.085276 0.024280 0.194389 0.052029 -0.091385 0.075990 0.054728 0.162896 0.035487 -0.082672 -0.244038 0.159019 -0.054610 -0.075673 0.077826 0.154822 -0.067675 0.061826 -0.053933 0.035548 0.091629 -0.034217 0.291937 0.179172 -0.044889 0.129330 -0.137273 0.057995 -0.052118 0.073038 -0.249927 0.038743 -0.075524 0.033804 -0.098416 -0.019098 -0.068438 -0.053093 -0.025209 -0.117843 0.005484 0.072548 0.023520 -0.021754
34 -0.103948 -0.133680 -0.021763 -0.075714 0.090902 -0.035606 0.203563 0.009540 0.143691 -0.065231 -0.004264 0.182428 -0.044064 -0.045235 0.022838 -0.090193 -0.091291 -0.037296 -0.110393 0.132091 0.105613 -0.121265 0.127206 0.073399 0.089955 0.026962 -0.148248 0.016941 -0.059922 -0.057958 0.065937 0.063324 -0.183109 -0.037876 0.049735 -0.009654 0.072222 0.040547 -0.046435 -0.184897 -0.110252 0.150284 0.097918 -0.006888 -0.072587 0.185558 0.156118 0.025610 0.033511 0.074602 -0.170705 0.029941 0.061774 -0.144816 -0.086277 -0.117889 0.086000 0.015517 -0.070606 -0.231545 0.026989 -0.060804 -0.004938 0.125521 -0.137431 0.013886 -0.006113 0.003200 0.128877 0.028125 -0.020546 0.032958 0.111132 0.004147 0.109231 -0.048793 0.086589 -0.058201 0.024155 0.054151 0.098443 -0.095492 -0.117143 -0.059896 -0.080434 0.026783 0.196604 0.051517 -0.091507 0.079436 0.049563 0.158595 0.028299 -0.084603 -0.243476 0.163258 -0.056298 -0.075782 0.078913 0.160758 -0.072698 0.063418 -0.050127 0.035224 0.088168 -0.039128 0.292886 0.180166 -0.043043 0.128773 -0.138298 0.058941 -0.052385 0.072994 -0.259321 0.035102 -0.073073 0.034651 -0.105097 -0.014412 -0.070426 -0.050732 -0.021289 -0.115837 -0.000545 0.080283 0.027900 -0.023481
60 -0.097430 -0.131030 -0.023435 -0.092621 0.104217 -0.030470 0.212627 0.021297 0.155017 -0.081158 0.000104 0.183813 -0.045003 -0.039023 0.038203 -0.088434 -0.105289 -0.045655 -0.125873 0.144727 0.102966 -0.132729 0.124839 0.086158 0.095148 0.035037 -0.163206 0.027525 -0.053443 -0.065692 0.065995 0.055191 -0.185257 -0.038483 0.039923 -0.018708 0.067939 0.040566 -0.035198 -0.187462 -0.106404 0.152540 0.102354 -0.022904 -0.077122 0.212759 0.149807 0.028995 0.025152 0.089479 -0.174554 0.030060 0.061762 -0.151319 -0.096609 -0.114656 0.088170 0.010774 -0.076501 -0.246314 0.023064 -0.080513 0.001892 0.131591 -0.135933 0.027956 -0.003550 0.000612 0.135343 0.044848 -0.030952 0.035325 0.124814 -0.001745 0.116241 -0.051616 0.088984 -0.071015 0.026968 0.061483 0.114045 -0.083119 -0.128039 -0.064747 -0.086785 0.024150 0.200816 0.041802 -0.082887 0.077525 0.057604 0.170318 0.019938 -0.092319 -0.243945 0.181799 -0.049257 -0.080518 0.093097 0.163170 -0.081538 0.058340 -0.042241 0.051628 0.095736 -0.032888 0.283358 0.182528 -0.032599 0.123085 -0.141563 0.051226 -0.058608 0.071186 -0.268644 0.033012 -0.076531 0.029419 -0.107277 -0.018552 -0.081046 -0.035690 -0.025980 -0.105495 0.008425 0.083502 0.026052 -0.029191
66 -0.102681 -0.136898 -0.021079 -0.084376 0.086155 -0.040263 0.205496 0.013882 0.149231 -0.062928 -0.000635 0.181044 -0.040431 -0.043833 0.032175 -0.090620 -0.097482 -0.035598 -0.110932 0.135170 0.108105 -0.124432 0.125568 0.079145 0.098063 0.029213 -0.156414 0.018094 -0.059348 -0.063060 0.066122 0.063413 -0.179947 -0.038829 0.044931 -0.010559 0.071585 0.039946 -0.048377 -0.184361 -0.113163 0.148676 0.096882 -0.009652 -0.068941 0.200168 0.149677 0.027044 0.026800 0.076537 -0.175550 0.034249 0.064622 -0.151144 -0.086098 -0.116472 0.081573 0.017686 -0.074748 -0.229002 0.035858 -0.067244 0.001748 0.121746 -0.130968 0.011017 -0.010819 0.002609 0.132250 0.031370 -0.012300 0.028387 0.115863 0.002330 0.113194 -0.051140 0.091962 -0.064296 0.023268 0.055767 0.101664 -0.091538 -0.124053 -0.060351 -0.084235 0.021627 0.188948 0.048785 -0.086941 0.079289 0.056735 0.166794 0.026993 -0.078958 -0.242407 0.163794 -0.051738 -0.072719 0.086698 0.152058 -0.067133 0.064245 -0.051359 0.041199 0.089315 -0.036432 0.281740 0.177888 -0.034418 0.126691 -0.138793 0.059998 -0.053179 0.067281 -0.250280 0.038825 -0.071975 0.032557 -0.103107 -0.018974 -0.070140 -0.044978 -0.023651 -0.111937 0.000912 0.077131 0.032117 -0.026091
39 -0.100847 -0.121630 -0.022319 -0.071929 0.082560 -0.031122 0.187383 0.009752 0.139880 -0.060241 -0.000575 0.171819 -0.042610 -0.046578 0.024208 -0.088156 -0.094001 -0.035582 -0.109032 0.122319 0.105466 -0.113328 0.121571 0.072283 0.082551 0.033420 -0.144077 0.019229 -0.060288 -0.057341 0.058594 0.060654 -0.176392 -0.041426 0.052407 -0.015375 0.067782 0.038501 -0.049565 -0.186695 -0.109120 0.145265 0.090881 -0.005741 -0.066703 0.192965 0.151344 0.029775 0.032393 0.070107 -0.172756 0.034363 0.059557 -0.147427 -0.082090 -0.107978 0.079856 0.020067 -0.066295 -0.225677 0.031991 -0.056592 -0.003746 0.119917 -0.130408 0.012372 -0.001178 0.009380 0.122547 0.022214 -0.011893 0.032945 0.108388 0.003855 0.110124 -0.041938 0.088219 -0.059127 0.024320 0.047523 0.099818 -0.088921 -0.112949 -0.058361 -0.084188 0.020905 0.189578 0.051982 -0.087854 0.078694 0.052375 0.153922 0.035071 -0.078585 -0.234743 0.154797 -0.054358 -0.073182 0.078371 0.157412 -0.070828 0.064678 -0.053749 0.033964 0.089899 -0.040017 0.280517 0.179363 -0.043754 0.116462 -0.136693 0.061948 -0.051941 0.067440 -0.251241 0.033791 -0.078063 0.027637 -0.105622 -0.022170 -0.066554 -0.050448 -0.021431 -0.117835 0.005066 0.075447 0.026250 -0.024836
7 -0.097551 -0.128865 -0.029566 -0.077334 0.075139 -0.031064 0.198876 0.008239 0.145862 -0.054432 -0.008397 0.182210 -0.040484 -0.050259 0.019827 -0.089838 -0.091230 -0.034605 -0.112277 0.122072 0.110200 -0.123673 0.126093 0.073880 0.097830 0.029192 -0.152994 0.014232 -0.062026 -0.056239 0.061901 0.072481 -0.179356 -0.047348 0.049914 -0.010727 0.064541 0.031828 -0.056220 -0.194552 -0.120597 0.152678 0.087782 -0.002848 -0.064891 0.193082 0.158977 0.031959 0.040302 0.068070 -0.176690 0.034048 0.064050 -0.145106 -0.083841 -0.110558 0.085774 0.011195 -0.066099 -0.223481 0.040302 -0.055649 -0.000456 0.121217 -0.132107 0.014967 -0.004301 0.014882 0.120804 0.019656 -0.011503 0.033235 0.111377 0.004049 0.115365 -0.044420 0.091217 -0.063866 0.024751 0.050428 0.100652 -0.095660 -0.117467 -0.054210 -0.087745 0.019360 0.190904 0.055100 -0.100977 0.082977 0.056903 0.161535 0.039679 -0.082106 -0.253716 0.159429 -0.053725 -0.077383 0.077866 0.160416 -0.072302 0.071394 -0.057222 0.038069 0.089661 -0.043799 0.291597 0.184177 -0.041282 0.132019 -0.138552 0.067448 -0.058465 0.070321 -0.257601 0.037089 -0.077953 0.029666 -0.108709 -0.012747 -0.067795 -0.049196 -0.024445 -0.126507 0.002575 0.073084 0.033395 -0.021886
35 -0.106525 -0.137550 -0.026616 -0.080160 0.084652 -0.033643 0.207794 0.007243 0.146240 -0.062342 -0.001877 0.190912 -0.046874 -0.045581 0.026236 -0.091625 -0.095961 -0.037414 -0.111684 0.134142 0.113041 -0.123456 0.126437 0.081607 0.096808 0.034054 -0.153752 0.019796 -0.064704 -0.059167 0.063928 0.064716 -0.181659 -0.043226 0.053034 -0.014340 0.070340 0.034810 -0.046990 -0.192050 -0.116512 0.150035 0.098718 -0.007276 -0.069826 0.191478 0.152403 0.028721 0.027252 0.071078 -0.173878 0.028623 0.059209 -0.150642 -0.081028 -0.119849 0.084477 0.014427 -0.071796 -0.232992 0.030506 -0.066216 0.002061 0.123076 -0.132365 0.011871 -0.009132 0.008795 0.121545 0.026453 -0.018756 0.032494 0.109812 0.001838 0.107168 -0.048059 0.086752 -0.056179 0.019863 0.052298 0.093713 -0.093394 -0.110186 -0.059283 -0.079728 0.025392 0.189801 0.045264 -0.090068 0.078617 0.051889 0.150570 0.026967 -0.081888 -0.238534 0.152283 -0.052587 -0.070283 0.078799 0.154495 -0.063870 0.058166 -0.052776 0.030420 0.089574 -0.036287 0.277036 0.177043 -0.037826 0.124527 -0.130254 0.053699 -0.050098 0.064545 -0.244753 0.037041 -0.070309 0.032052 -0.102266 -0.015404 -0.063272 -0.048394 -0.020596 -0.112520 0.002812 0.073956 0.022450 -0.019679
61 -0.103482 -0.136785 -0.016277 -0.101227 0.114944 -0.036920 0.220898 0.021990 0.160821 -0.090049 0.006777 0.185618 -0.048846 -0.035790 0.042430 -0.092456 -0.109508 -0.045399 -0.127629 0.150762 0.104235 -0.134203 0.125144 0.089908 0.104364 0.029518 -0.175828 0.025197 -0.054195 -0.077760 0.067846 0.043427 -0.195972 -0.044513 0.036028 -0.019305 0.072875 0.033520 -0.030507 -0.195476 -0.104238 0.154606 0.113894 -0.025997 -0.076825 0.220576 0.144037 0.032970 0.019549 0.096604 -0.173620 0.028904 0.063108 -0.145895 -0.106620 -0.114492 0.084670 0.009275 -0.082231 -0.259677 0.012280 -0.086543 0.008695 0.136966 -0.133875 0.035215 -0.014163 -0.011290 0.151056 0.051271 -0.036655 0.037799 0.133510 -0.011759 0.113229 -0.049439 0.099239 -0.074569 0.025603 0.063534 0.116998 -0.081793 -0.137266 -0.067342 -0.094645 0.025411 0.210570 0.028506 -0.071828 0.083703 0.052167 0.176199 0.017377 -0.095518 -0.240721 0.190438 -0.043627 -0.080512 0.089617 0.156874 -0.079231 0.057341 -0.036133 0.052859 0.095136 -0.030071 0.279847 0.174933 -0.031499 0.127718 -0.144775 0.054600 -0.051383 0.072316 -0.271777 0.035742 -0.074774 0.034997 -0.107086 -0.014933 -0.081136 -0.026037 -0.029255 -0.097019 0.012339 0.090594 0.023966 -0.030866
42 -0.100491 -0.122842 -0.026995 -0.084535 0.087107 -0.034614 0.198310 0.014019 0.144100 -0.059822 -0.000416 0.178986 -0.045213 -0.038603 0.027136 -0.088036 -0.095984 -0.038201 -0.108384 0.128966 0.108018 -0.123074 0.120664 0.077100 0.096231 0.027312 -0.154606 0.020072 -0.058345 -0.055142 0.061598 0.063299 -0.172962 -0.041681 0.047453 -0.012630 0.065883 0.031554 -0.051254 -0.188161 -0.111537 0.148420 0.085299 -0.011606 -0.061904 0.195220 0.152253 0.032469 0.028279 0.070233 -0.166601 0.026961 0.062134 -0.144862 -0.081920 -0.111552 0.085903 0.011662 -0.072964 -0.229594 0.034552 -0.056903 -0.002234 0.119144 -0.126323 0.020738 -0.010037 0.005504 0.124015 0.030185 -0.014711 0.028317 0.119815 0.001134 0.112338 -0.046674 0.085836 -0.063282 0.021382 0.055584 0.099138 -0.090717 -0.120122 -0.056393 -0.082982 0.023318 0.195841 0.043736 -0.091664 0.079494 0.054577 0.162257 0.030083 -0.083373 -0.248245 0.159806 -0.053804 -0.074143 0.082766 0.154171 -0.070580 0.065499 -0.053114 0.038948 0.092725 -0.037500 0.288669 0.179403 -0.039275 0.129905 -0.133448 0.058129 -0.053324 0.070357 -0.256729 0.037505 -0.075992 0.029324 -0.099544 -0.016257 -0.067054 -0.044989 -0.031011 -0.113219 0.003893 0.070976 0.029615 -0.024991
64 -0.094916 -0.127169 -0.018486 -0.088355 0.101943 -0.034512 0.205169 0.022301 0.150502 -0.085567 0.009281 0.177258 -0.044552 -0.037456 0.044606 -0.084659 -0.103338 -0.042325 -0.118543 0.142882 0.102289 -0.122260 0.117648 0.083207 0.090974 0.029243 -0.156065 0.019948 -0.054333 -0.069842 0.063453 0.044473 -0.179390 -0.040575 0.033787 -0.020360 0.068244 0.037001 -0.034404 -0.181514 -0.100203 0.146718 0.102486 -0.024084 -0.075029 0.209380 0.146733 0.023975 0.014498 0.086721 -0.168512 0.030743 0.053756 -0.141711 -0.092259 -0.116470 0.079207 0.014487 -0.076339 -0.237868 0.017091 -0.077032 -0.000805 0.129970 -0.135831 0.029421 -0.012148 -0.009350 0.142298 0.043713 -0.027299 0.034233 0.129689 -0.006808 0.110418 -0.053409 0.094024 -0.067793 0.026867 0.055199 0.107806 -0.082788 -0.127867 -0.063012 -0.087107 0.027257 0.199902 0.034750 -0.072362 0.077199 0.053841 0.168138 0.021900 -0.082818 -0.234147 0.180203 -0.047176 -0.077486 0.086283 0.153821 -0.075723 0.056395 -0.041738 0.043085 0.091837 -0.025073 0.279924 0.175928 -0.029294 0.122985 -0.139191 0.052147 -0.047928 0.069648 -0.259506 0.029414 -0.072503 0.029883 -0.100009 -0.016033 -0.079945 -0.031056 -0.030547 -0.094418 0.004741 0.080770 0.025819 -0.028739
50 -0.102576 -0.131500 -0.031270 -0.073678 0.074709 -0.034511 0.202254 0.007394 0.139948 -0.048352 -0.011461 0.182027 -0.036160 -0.049300 0.013508 -0.088846 -0.086598 -0.030148 -0.105949 0.126101 0.110375 -0.121822 0.125131 0.069829 0.098699 0.029989 -0.152148 0.015433 -0.060708 -0.051688 0.057492 0.070092 -0.178855 -0.047598 0.053382 -0.007696 0.062410 0.036546 -0.059026 -0.190739 -0.114069 0.153477 0.078906 -0.009947 -0.058946 0.188494 0.155519 0.028400 0.037588 0.062930 -0.172440 0.030586 0.066631 -0.151570 -0.080637 -0.114524 0.084442 0.014831 -0.066793 -0.222625 0.042285 -0.055736 0.001789 0.113395 -0.116767 0.008196 -0.008315 0.006061 0.113909 0.022710 -0.005850 0.026518 0.107377 0.002878 0.103231 -0.040196 0.081624 -0.058279 0.027457 0.048571 0.086494 -0.089776 -0.109145 -0.053012 -0.080429 0.019309 0.176466 0.050073 -0.098068 0.078101 0.045784 0.151119 0.036272 -0.073795 -0.240352 0.144461 -0.053096 -0.068216 0.079736 0.151295 -0.069247 0.071463 -0.052169 0.039068 0.086234 -0.041238 0.283397 0.171669 -0.044195 0.125573 -0.129339 0.056400 -0.052913 0.071957 -0.239808 0.040057 -0.076063 0.032442 -0.096228 -0.009028 -0.055255 -0.048120 -0.028849 -0.123327 0.004017 0.063384 0.027775 -0.021477
10 -0.109138 -0.144689 -0.027810 -0.085359 0.093880 -0.034858 0.218309 0.009238 0.159800 -0.070209 -0.000701 0.198080 -0.047516 -0.046874 0.026530 -0.095090 -0.103273 -0.040257 -0.120282 0.139384 0.121198 -0.131722 0.135155 0.085891 0.096851 0.032743 -0.161608 0.014234 -0.064372 -0.064115 0.059981 0.065428 -0.184106 -0.041511 0.046511 -0.018254 0.074154 0.035445 -0.055538 -0.201855 -0.119882 0.150486 0.098015 -0.002226 -0.066223 0.209017 0.160371 0.030064 0.034813 0.071780 -0.181174 0.035265 0.066228 -0.158207 -0.090286 -0.116296 0.086999 0.012552 -0.076337 -0.236887 0.037030 -0.065115 -0.000480 0.129568 -0.127552 0.015389 -0.009251 0.003710 0.122858 0.024879 -0.013163 0.029263 0.117286 -0.001963 0.115456 -0.044756 0.091339 -0.065576 0.021275 0.052828 0.095256 -0.097050 -0.116237 -0.057745 -0.092049 0.023506 0.189790 0.043353 -0.092430 0.077410 0.058652 0.162246 0.036851 -0.080585 -0.247021 0.166036 -0.056269 -0.077146 0.084613 0.159665 -0.073613 0.062186 -0.052240 0.039598 0.086847 -0.038352 0.291253 0.184658 -0.044895 0.126992 -0.135433 0.056474 -0.052811 0.067042 -0.253659 0.035938 -0.074770 0.035288 -0.106797 -0.020140 -0.068222 -0.049207 -0.025009 -0.120169 0.006715 0.076060 0.023884 -0.022187
63 -0.091791 -0.120664 -0.015475 -0.091327 0.100975 -0.029012 0.201271 0.018631 0.143718 -0.073923 0.008149 0.170204 -0.042279 -0.032835 0.038053 -0.086560 -0.094288 -0.041492 -0.116551 0.135853 0.092418 -0.113849 0.110848 0.083946 0.085928 0.033115 -0.153532 0.021430 -0.054185 -0.068733 0.069264 0.044209 -0.174762 -0.039481 0.036758 -0.014696 0.069043 0.036515 -0.032191 -0.177574 -0.100048 0.148386 0.101546 -0.021227 -0.067764 0.196866 0.143946 0.021497 0.021684 0.084266 -0.167534 0.027213 0.055435 -0.140289 -0.085582 -0.112221 0.083681 0.008800 -0.076935 -0.232658 0.016760 -0.075573 -0.003460 0.120271 -0.135753 0.031445 -0.013545 -0.003376 0.133077 0.045780 -0.028877 0.037073 0.129698 -0.006428 0.113675 -0.055295 0.095288 -0.065320 0.019286 0.063042 0.109605 -0.086680 -0.125528 -0.062806 -0.089117 0.026429 0.208331 0.037453 -0.075464 0.078882 0.057474 0.170059 0.022558 -0.089978 -0.245426 0.174993 -0.048366 -0.080703 0.084635 0.163356 -0.075873 0.056304 -0.041904 0.047376 0.092427 -0.025295 0.281666 0.172636 -0.028725 0.133201 -0.141228 0.057110 -0.052553 0.068538 -0.265465 0.033740 -0.072649 0.030467 -0.098404 -0.019549 -0.082191 -0.043148 -0.026687 -0.097893 0.003149 0.084943 0.030268 -0.032952
51 -0.102500 -0.133133 -0.032615 -0.082917 0.084271 -0.033060 0.206461 0.005581 0.147785 -0.053922 -0.008170 0.189137 -0.042452 -0.049797 0.017504 -0.094990 -0.094391 -0.030727 -0.116801 0.131166 0.115926 -0.129553 0.131262 0.071591 0.104549 0.028062 -0.159180 0.012374 -0.058403 -0.053681 0.060162 0.072434 -0.182748 -0.046824 0.048305 -0.008525 0.070159 0.034701 -0.063061 -0.197523 -0.119731 0.159537 0.077625 -0.014484 -0.062629 0.203929 0.162748 0.031629 0.039325 0.071351 -0.177924 0.030442 0.070806 -0.157523 -0.084747 -0.118896 0.089348 0.008545 -0.069729 -0.230264 0.041404 -0.056565 0.000065 0.126123 -0.123711 0.018899 -0.011269 0.006893 0.121162 0.022913 -0.003616 0.024830 0.115151 -0.003016 0.115399 -0.045749 0.091332 -0.069020 0.025426 0.049086 0.097571 -0.096843 -0.119097 -0.060728 -0.083888 0.022557 0.187525 0.051743 -0.102936 0.078683 0.048796 0.167175 0.041169 -0.077268 -0.257031 0.152224 -0.061059 -0.069859 0.082260 0.160076 -0.072037 0.076976 -0.055421 0.044544 0.089579 -0.041563 0.301380 0.187576 -0.043516 0.132230 -0.140201 0.065644 -0.061135 0.076895 -0.252188 0.041915 -0.073336 0.030076 -0.101996 -0.012523 -0.064052 -0.051512 -0.034453 -0.128114 0.009254 0.074770 0.031842 -0.031012
65 -0.093526 -0.124695 -0.020917 -0.092450 0.108676 -0.032994 0.201883 0.018487 0.146351 -0.082280 0.006339 0.173854 -0.037601 -0.034236 0.032796 -0.083449 -0.097937 -0.038282 -0.114291 0.143592 0.096720 -0.124521 0.120348 0.083661 0.093362 0.032434 -0.159554 0.024319 -0.050382 -0.066476 0.067214 0.049859 -0.181533 -0.039803 0.031289 -0.020260 0.066798 0.038404 -0.034710 -0.180375 -0.098282 0.150995 0.101274 -0.026862 -0.077209 0.200054 0.143837 0.026853 0.024054 0.086054 -0.170141 0.024534 0.060077 -0.141467 -0.098932 -0.110606 0.083895 0.005824 -0.071178 -0.236850 0.009997 -0.074952 0.002420 0.129420 -0.129405 0.032138 -0.003316 -0.005755 0.135763 0.044367 -0.030633 0.032647 0.124150 -0.008710 0.102877 -0.052748 0.093468 -0.077397 0.025291 0.062271 0.109144 -0.077603 -0.130594 -0.057288 -0.084691 0.026815 0.200057 0.040181 -0.072246 0.072376 0.046858 0.162152 0.017986 -0.090264 -0.227047 0.167065 -0.049605 -0.081199 0.089835 0.153201 -0.075422 0.052260 -0.033934 0.054532 0.091853 -0.031577 0.272803 0.166050 -0.034617 0.121084 -0.139660 0.047375 -0.054018 0.073577 -0.259981 0.030367 -0.065176 0.031797 -0.094737 -0.011530 -0.074706 -0.029662 -0.025260 -0.101418 0.007615 0.085264 0.025940 -0.035943
62 -0.093017 -0.126907 -0.027053 -0.090795 0.091089 -0.031525 0.197600 0.018654 0.147711 -0.073276 -0.000265 0.183693 -0.045085 -0.039709 0.025278 -0.087955 -0.097736 -0.037322 -0.116093 0.138300 0.107439 -0.125755 0.118912 0.078271 0.094982 0.028713 -0.157322 0.014838 -0.060374 -0.068716 0.059330 0.055651 -0.185324 -0.047840 0.042725 -0.009501 0.068629 0.031926 -0.042623 -0.190940 -0.117097 0.150754 0.089312 -0.013131 -0.066020 0.204540 0.152294 0.032602 0.028064 0.077051 -0.174108 0.030655 0.059337 -0.142308 -0.082538 -0.116168 0.080607 0.015981 -0.075431 -0.234911 0.030501 -0.065219 0.003297 0.123930 -0.135315 0.025885 -0.008371 0.000012 0.134356 0.030457 -0.020792 0.029612 0.129441 0.000601 0.116102 -0.044981 0.098036 -0.074463 0.024715 0.058992 0.114244 -0.093191 -0.126348 -0.059682 -0.096253 0.021995 0.207535 0.049605 -0.084925 0.080521 0.061985 0.166339 0.026855 -0.083100 -0.255697 0.174028 -0.049347 -0.076855 0.089447 0.163375 -0.077266 0.070735 -0.049713 0.048682 0.091935 -0.030562 0.295150 0.180185 -0.032990 0.135635 -0.149949 0.064317 -0.055513 0.075569 -0.262463 0.035116 -0.079268 0.024628 -0.101265 -0.020108 -0.078948 -0.044690 -0.032598 -0.118470 0.005347 0.078152 0.034640 -0.036159
46 -0.110434 -0.142781 -0.020554 -0.085326 0.097671 -0.033540 0.221140 0.013888 0.153438 -0.067959 0.001858 0.197612 -0.050482 -0.045003 0.027888 -0.100230 -0.102233 -0.044345 -0.124025 0.141560 0.113868 -0.134069 0.133848 0.086047 0.101883 0.030902 -0.170580 0.016018 -0.061856 -0.066113 0.065087 0.067954 -0.195494 -0.040649 0.051248 -0.018645 0.070102 0.038232 -0.045914 -0.200627 -0.121122 0.156993 0.103041 -0.007490 -0.075406 0.212699 0.162629 0.030746 0.026583 0.078480 -0.180245 0.033087 0.061383 -0.156557 -0.095226 -0.119785 0.090512 0.015153 -0.080949 -0.252188 0.037082 -0.071122 -0.001294 0.130498 -0.136759 0.019108 -0.008057 0.000996 0.134720 0.030174 -0.022771 0.034869 0.119647 -0.000681 0.121433 -0.047176 0.092512 -0.068099 0.021871 0.052419 0.108943 -0.097083 -0.125983 -0.062239 -0.090608 0.022755 0.203407 0.048478 -0.095811 0.086685 0.059472 0.170318 0.033692 -0.084233 -0.253473 0.172325 -0.054327 -0.076104 0.085343 0.162342 -0.078832 0.061774 -0.052946 0.042824 0.091362 -0.040428 0.299991 0.185768 -0.036964 0.133446 -0.147407 0.065833 -0.055200 0.076224 -0.268407 0.035075 -0.075958 0.031283 -0.111061 -0.018214 -0.076406 -0.051866 -0.023845 -0.117753 0.005594 0.078585 0.025481 -0.027631
16 -0.102216 -0.136789 -0.022680 -0.092313 0.084369 -0.035583 0.222033 0.008815 0.149149 -0.053862 -0.015371 0.197235 -0.040837 -0.043392 0.023520 -0.100502 -0.112245 -0.046344 -0.122690 0.131672 0.128631 -0.130897 0.138738 0.077038 0.110092 0.038912 -0.175188 0.011969 -0.062660 -0.060109 0.055892 0.079931 -0.186015 -0.057718 0.051149 -0.015435 0.067925 0.027757 -0.063909 -0.215660 -0.130982 0.164905 0.080491 -0.007458 -0.053198 0.213078 0.156918 0.045010 0.030350 0.078462 -0.175454 0.032375 0.066525 -0.152916 -0.074175 -0.116802 0.082678 0.010484 -0.070198 -0.250856 0.049613 -0.061341 0.009189 0.116516 -0.109778 0.020889 -0.013874 0.013085 0.124967 0.025491 0.002749 0.025561 0.124382 -0.015522 0.123862 -0.044581 0.104238 -0.077463 0.027276 0.058858 0.102707 -0.102085 -0.114561 -0.066669 -0.097958 0.025621 0.190346 0.048952 -0.099599 0.083549 0.047501 0.170935 0.040409 -0.081283 -0.263998 0.169216 -0.049573 -0.061019 0.086735 0.150649 -0.070833 0.082493 -0.048222 0.043304 0.095800 -0.037739 0.300639 0.184144 -0.039715 0.136992 -0.147526 0.068891 -0.070563 0.076187 -0.254229 0.042501 -0.087988 0.042180 -0.107640 -0.013940 -0.067487 -0.049888 -0.039600 -0.136835 0.013657 0.072150 0.037974 -0.026816
20 -0.114179 -0.153330 -0.026545 -0.099905 0.100638 -0.043092 0.241088 0.012676 0.161867 -0.070496 -0.009404 0.207305 -0.041106 -0.048630 0.025339 -0.105953 -0.121056 -0.048493 -0.127527 0.148207 0.136545 -0.145957 0.148269 0.088369 0.115224 0.040597 -0.184874 0.012923 -0.062229 -0.064353 0.060624 0.074591 -0.190892 -0.053915 0.049073 -0.019705 0.073054 0.034074 -0.062414 -0.217721 -0.130425 0.162139 0.084429 -0.010621 -0.059258 0.224055 0.162502 0.040449 0.030292 0.077891 -0.188559 0.031922 0.068090 -0.165000 -0.089525 -0.123265 0.088287 0.006173 -0.077605 -0.254885 0.046040 -0.063027 0.013312 0.133513 -0.106643 0.023074 -0.014732 0.006926 0.124578 0.036298 -0.009841 0.030166 0.116919 -0.015646 0.111188 -0.041233 0.098601 -0.072804 0.028256 0.061573 0.096237 -0.094666 -0.113041 -0.065988 -0.092965 0.025958 0.182922 0.038613 -0.097253 0.078395 0.050578 0.162999 0.036926 -0.082781 -0.249440 0.163011 -0.050177 -0.062392 0.085705 0.152883 -0.076345 0.068436 -0.050799 0.049014 0.091053 -0.029229 0.288424 0.174811 -0.037579 0.130022 -0.141304 0.061631 -0.063858 0.074215 -0.252896 0.035132 -0.076476 0.039556 -0.101641 -0.011487 -0.066449 -0.041130 -0.034867 -0.127659 0.009221 0.074266 0.028416 -0.029218
12 -0.110368 -0.140041 -0.021425 -0.082249 0.087188 -0.039193 0.203636 0.004869 0.151522 -0.061165 0.003202 0.192147 -0.048114 -0.048145 0.026348 -0.093573 -0.103131 -0.041567 -0.113307 0.127220 0.114844 -0.122707 0.132316 0.073598 0.089773 0.032755 -0.153035 0.017651 -0.060839 -0.060510 0.064099 0.068491 -0.191818 -0.040633 0.054584 -0.013340 0.072022 0.043807 -0.052211 -0.197496 -0.116764 0.153259 0.100999 -0.003338 -0.073370 0.205300 0.161326 0.027813 0.030549 0.075110 -0.184723 0.036602 0.061552 -0.158211 -0.091884 -0.120349 0.089009 0.021163 -0.074604 -0.239659 0.038875 -0.063112 -0.003383 0.132576 -0.137717 0.013982 -0.002876 0.005962 0.128647 0.026421 -0.011572 0.035837 0.115076 0.004644 0.118179 -0.047248 0.095799 -0.059539 0.023688 0.056334 0.099009 -0.092865 -0.119826 -0.061714 -0.092263 0.024460 0.195269 0.050398 -0.094998 0.077359 0.056422 0.164182 0.030921 -0.084709 -0.244886 0.159809 -0.055104 -0.081403 0.086665 0.163302 -0.074867 0.062080 -0.053122 0.038174 0.091032 -0.042435 0.297849 0.186897 -0.040988 0.122216 -0.145569 0.062443 -0.055136 0.075500 -0.259109 0.039396 -0.079812 0.034983 -0.110404 -0.025118 -0.072276 -0.055273 -0.023068 -0.122618 -0.000015 0.078877 0.025181 -0.024908
45 -0.094436 -0.129456 -0.027599 -0.084917 0.092041 -0.031860 0.205393 0.016999 0.149375 -0.063819 -0.006494 0.181962 -0.037379 -0.042618 0.027041 -0.090778 -0.094764 -0.035387 -0.116735 0.135786 0.105684 -0.125000 0.125106 0.074802 0.095378 0.033713 -0.159473 0.015609 -0.058160 -0.057198 0.062610 0.062803 -0.180956 -0.041953 0.046013 -0.009940 0.063964 0.036557 -0.046558 -0.191498 -0.112594 0.148468 0.090105 -0.014646 -0.067331 0.192621 0.150172 0.031495 0.031124 0.079973 -0.169028 0.028477 0.058838 -0.144594 -0.084346 -0.115609 0.084688 0.009926 -0.071567 -0.229608 0.029360 -0.065574 0.002610 0.121219 -0.128741 0.021973 -0.009069 0.005080 0.125498 0.034552 -0.013645 0.035213 0.116051 -0.006904 0.115241 -0.043264 0.094952 -0.065054 0.027996 0.058825 0.102397 -0.093598 -0.122263 -0.056268 -0.088871 0.025583 0.195198 0.045917 -0.091336 0.076983 0.051135 0.164248 0.028040 -0.084670 -0.247927 0.167212 -0.050596 -0.075097 0.087456 0.160902 -0.076225 0.063422 -0.050388 0.046872 0.091130 -0.038683 0.289517 0.181329 -0.036096 0.131869 -0.141063 0.060914 -0.057224 0.072365 -0.256510 0.035192 -0.074864 0.028516 -0.103857 -0.012659 -0.067693 -0.046899 -0.028441 -0.115357 0.007874 0.078639 0.031979 -0.028725
21 -0.106179 -0.135359 -0.025960 -0.087237 0.075884 -0.035965 0.211066 0.005215 0.147525 -0.047098 -0.010828 0.189724 -0.037556 -0.053899 0.019853 -0.095237 -0.103924 -0.042284 -0.111488 0.127584 0.127313 -0.128132 0.134430 0.078962 0.102777 0.034750 -0.163626 0.012825 -0.061832 -0.052158 0.058760 0.074523 -0.183993 -0.050450 0.047903 -0.021585 0.065064 0.037906 -0.060220 -0.207888 -0.132768 0.159568 0.080116 -0.004699 -0.062482 0.209961 0.155504 0.039465 0.037567 0.070720 -0.175728 0.037941 0.065874 -0.157394 -0.080009 -0.116092 0.080833 0.011392 -0.071421 -0.233164 0.048303 -0.058051 0.007636 0.122153 -0.107550 0.013593 -0.011677 0.008823 0.116669 0.018646 0.002419 0.025469 0.114157 -0.004902 0.119566 -0.040718 0.092738 -0.069117 0.028048 0.055314 0.090295 -0.096142 -0.110755 -0.065749 -0.096686 0.020155 0.177909 0.042928 -0.096985 0.076239 0.055101 0.163092 0.039892 -0.074690 -0.253674 0.157623 -0.054306 -0.062022 0.087571 0.150028 -0.072085 0.072336 -0.055713 0.040977 0.095504 -0.036290 0.292632 0.180281 -0.044947 0.124374 -0.134991 0.066082 -0.063834 0.071974 -0.247707 0.043366 -0.086559 0.036765 -0.108296 -0.012158 -0.062188 -0.052771 -0.029857 -0.137256 0.009221 0.071020 0.035527 -0.027181
19 -0.102535 -0.146034 -0.024807 -0.098941 0.091424 -0.033367 0.223059 0.007877 0.156041 -0.058813 -0.015950 0.205748 -0.044650 -0.046675 0.016816 -0.099520 -0.109703 -0.046002 -0.118891 0.145719 0.131391 -0.140381 0.138214 0.083863 0.110645 0.034927 -0.179861 0.013185 -0.063685 -0.061046 0.062996 0.078032 -0.192378 -0.059837 0.047643 -0.015905 0.064033 0.035317 -0.058373 -0.213998 -0.128264 0.165431 0.083561 -0.009769 -0.057508 0.220306 0.165509 0.037198 0.034115 0.077634 -0.184544 0.031157 0.064519 -0.158471 -0.081460 -0.118911 0.086996 0.012278 -0.071236 -0.250824 0.041713 -0.060958 0.014488 0.130902 -0.118428 0.018901 -0.008155 0.007905 0.126360 0.024207 -0.004453 0.031648 0.123348 -0.007959 0.118437 -0.047787 0.102230 -0.073682 0.026403 0.056593 0.100115 -0.099357 -0.119763 -0.062840 -0.101803 0.021571 0.200024 0.049626 -0.105818 0.081849 0.054126 0.172431 0.044781 -0.082137 -0.268926 0.168183 -0.054847 -0.065927 0.089875 0.155037 -0.075230 0.081413 -0.057213 0.044215 0.092772 -0.035569 0.301577 0.182978 -0.041552 0.135346 -0.148482 0.065776 -0.063142 0.073357 -0.256236 0.042631 -0.076655 0.037836 -0.108554 -0.009936 -0.071165 -0.051663 -0.036966 -0.136127 0.005086 0.071119 0.032049 -0.033012
25 -0.105606 -0.133994 -0.029067 -0.080499 0.078967 -0.035669 0.199778 0.005054 0.148486 -0.059397 -0.007443 0.183712 -0.044407 -0.044459 0.018190 -0.096252 -0.090800 -0.037299 -0.108651 0.132632 0.116291 -0.125306 0.128285 0.076330 0.096794 0.025723 -0.154426 0.012368 -0.064183 -0.054247 0.060502 0.069375 -0.177652 -0.047179 0.045775 -0.010239 0.061647 0.037832 -0.057679 -0.192541 -0.117531 0.151602 0.082014 -0.008752 -0.060712 0.198404 0.157975 0.034965 0.035871 0.066811 -0.175291 0.033133 0.064731 -0.149364 -0.083387 -0.116549 0.087141 0.011745 -0.071317 -0.222907 0.036267 -0.052948 0.003993 0.119427 -0.127092 0.012206 -0.007835 0.008359 0.116031 0.022766 -0.009251 0.026689 0.114321 0.004025 0.110037 -0.048156 0.083366 -0.062448 0.027712 0.048355 0.096232 -0.097250 -0.113239 -0.059821 -0.084673 0.019467 0.185709 0.045951 -0.099084 0.074708 0.050084 0.156322 0.039897 -0.080070 -0.247425 0.153987 -0.056211 -0.068279 0.081307 0.155947 -0.073645 0.069870 -0.054956 0.039194 0.089836 -0.038259 0.288492 0.178961 -0.039782 0.125394 -0.138325 0.060888 -0.052746 0.067457 -0.250960 0.035335 -0.072557 0.029508 -0.100379 -0.016161 -0.063340 -0.047858 -0.030967 -0.124258 0.002358 0.072840 0.025443 -0.025519
3 -0.104453 -0.131682 -0.019506 -0.078955 0.087648 -0.033326 0.202096 0.009819 0.139795 -0.061898 -0.003250 0.176876 -0.047409 -0.050368 0.021039 -0.093025 -0.087237 -0.038551 -0.111225 0.127293 0.104961 -0.119371 0.122774 0.074118 0.094597 0.028488 -0.149664 0.017564 -0.054473 -0.055422 0.057342 0.062308 -0.181831 -0.038864 0.044429 -0.016046 0.069806 0.037405 -0.048254 -0.185843 -0.111726 0.146746 0.091832 -0.002334 -0.070117 0.194285 0.155263 0.026004 0.029376 0.074426 -0.168948 0.029785 0.059025 -0.145791 -0.085051 -0.112819 0.081839 0.017192 -0.074054 -0.223775 0.026777 -0.059022 0.000626 0.128220 -0.127651 0.010109 0.000207 0.007509 0.122123 0.019463 -0.008861 0.031672 0.107971 0.004898 0.111159 -0.045865 0.089366 -0.063202 0.029406 0.049937 0.096859 -0.089478 -0.116547 -0.056286 -0.083074 0.023371 0.187274 0.052196 -0.090076 0.076774 0.052902 0.157033 0.031007 -0.078889 -0.239738 0.157336 -0.058817 -0.069910 0.084004 0.154342 -0.072504 0.066505 -0.055186 0.038351 0.090096 -0.033871 0.284337 0.177537 -0.038044 0.120886 -0.134922 0.060131 -0.051129 0.069657 -0.250189 0.037651 -0.074931 0.029306 -0.097745 -0.016434 -0.070536 -0.054347 -0.026777 -0.116991 0.003178 0.071940 0.032021 -0.024876
67 -0.099910 -0.125338 -0.019095 -0.080102 0.093143 -0.035522 0.200459 0.008671 0.149117 -0.069153 0.006826 0.174427 -0.045728 -0.045702 0.035430 -0.092233 -0.097138 -0.042191 -0.113148 0.129739 0.101268 -0.125561 0.122536 0.078702 0.092873 0.034712 -0.151384 0.016296 -0.055794 -0.064444 0.058178 0.054852 -0.177930 -0.040925 0.043741 -0.017325 0.066001 0.035979 -0.040674 -0.183366 -0.106774 0.145490 0.099849 -0.006825 -0.068041 0.195273 0.147303 0.031157 0.027412 0.074151 -0.167877 0.032556 0.056804 -0.147356 -0.088940 -0.112144 0.082990 0.017790 -0.074355 -0.225967 0.032591 -0.067744 0.000048 0.125767 -0.133841 0.019536 -0.006930 0.001517 0.130834 0.034929 -0.019780 0.035814 0.122897 -0.000049 0.110968 -0.052219 0.091493 -0.062377 0.024623 0.056443 0.102912 -0.090235 -0.122208 -0.059009 -0.089509 0.024939 0.189073 0.041328 -0.080883 0.073886 0.055380 0.165945 0.027029 -0.084692 -0.239482 0.164989 -0.050727 -0.074766 0.080609 0.150272 -0.070887 0.058939 -0.042243 0.037910 0.087328 -0.037117 0.279092 0.177547 -0.036733 0.120152 -0.139668 0.059073 -0.055306 0.069071 -0.252833 0.035079 -0.077002 0.030211 -0.100501 -0.019617 -0.074161 -0.041515 -0.025888 -0.109699 0.002194 0.084415 0.028375 -0.021082
38 -0.101028 -0.137878 -0.024722 -0.076394 0.081837 -0.035541 0.197231 0.006539 0.151612 -0.066265 -0.001930 0.188800 -0.041711 -0.047829 0.020545 -0.088995 -0.097577 -0.038954 -0.109894 0.129977 0.107894 -0.120463 0.129500 0.075986 0.086066 0.034174 -0.148828 0.012132 -0.062701 -0.059855 0.059546 0.063401 -0.184284 -0.047056 0.050352 -0.019513 0.070281 0.035438 -0.053299 -0.196303 -0.115845 0.146502 0.097478 0.000002 -0.072410 0.197702 0.159031 0.023162 0.031968 0.068014 -0.178839 0.029187 0.055059 -0.155333 -0.087083 -0.122223 0.087680 0.015419 -0.075383 -0.234233 0.031528 -0.063947 -0.000260 0.122341 -0.125742 0.016724 -0.003161 0.008831 0.117309 0.026253 -0.021737 0.031818 0.107176 -0.002053 0.104547 -0.044532 0.092268 -0.054364 0.019860 0.051070 0.097092 -0.094177 -0.109630 -0.055865 -0.088537 0.023144 0.194692 0.044767 -0.093753 0.076757 0.053989 0.149792 0.030269 -0.079161 -0.244620 0.154344 -0.054074 -0.077968 0.077576 0.160372 -0.068094 0.059022 -0.047881 0.029849 0.084185 -0.039802 0.283207 0.176904 -0.046024 0.127084 -0.135645 0.061719 -0.050078 0.065063 -0.252501 0.031995 -0.074439 0.031183 -0.107967 -0.014967 -0.064428 -0.053684 -0.025377 -0.117377 -0.002963 0.077192 0.018768 -0.022158
22 -0.101434 -0.139475 -0.026428 -0.090618 0.088079 -0.038542 0.215152 0.007790 0.145383 -0.060401 -0.010251 0.192298 -0.038348 -0.048254 0.025507 -0.098516 -0.108128 -0.042859 -0.111414 0.139234 0.127120 -0.129498 0.134916 0.081476 0.100474 0.037899 -0.170715 0.010085 -0.058516 -0.052716 0.059541 0.069464 -0.184109 -0.049602 0.045399 -0.021044 0.063795 0.031942 -0.059718 -0.205639 -0.117821 0.153073 0.078311 -0.006350 -0.056175 0.214272 0.148886 0.039993 0.032502 0.070435 -0.177219 0.030397 0.060784 -0.155216 -0.075884 -0.115483 0.086163 0.013483 -0.069256 -0.241495 0.044356 -0.058610 0.010824 0.125527 -0.112117 0.020839 -0.015768 0.009008 0.126189 0.031600 -0.005918 0.029966 0.115339 -0.010014 0.117656 -0.041685 0.089125 -0.068362 0.029253 0.054408 0.091437 -0.094600 -0.109943 -0.065836 -0.091366 0.018611 0.186248 0.039572 -0.092221 0.077911 0.054402 0.159561 0.039001 -0.082732 -0.250286 0.159412 -0.054020 -0.060721 0.088567 0.146859 -0.072708 0.074454 -0.049338 0.045407 0.091507 -0.030326 0.285951 0.178890 -0.040031 0.126758 -0.134367 0.059587 -0.059049 0.071765 -0.248322 0.037663 -0.082039 0.034370 -0.103884 -0.014250 -0.061910 -0.050184 -0.031351 -0.126449 0.009585 0.069926 0.033464 -0.026859
37 -0.107515 -0.130417 -0.022792 -0.069503 0.083671 -0.033877 0.194988 0.008905 0.148328 -0.060093 0.001269 0.183696 -0.041776 -0.051890 0.022762 -0.086610 -0.096581 -0.037517 -0.105282 0.121217 0.102546 -0.116924 0.126752 0.078058 0.089844 0.031665 -0.141476 0.015478 -0.058162 -0.054634 0.061628 0.062114 -0.178386 -0.040293 0.054037 -0.016256 0.072754 0.039422 -0.049765 -0.182589 -0.106535 0.149123 0.096525 -0.006434 -0.075517 0.184468 0.152606 0.028909 0.032680 0.065338 -0.171241 0.030779 0.062610 -0.144588 -0.085640 -0.111839 0.087598 0.013476 -0.071017 -0.223020 0.029905 -0.063067 -0.005055 0.123949 -0.132842 0.011369 -0.003659 0.010486 0.120070 0.026714 -0.013435 0.031047 0.106362 0.005792 0.107165 -0.046805 0.087527 -0.057755 0.019177 0.052112 0.092650 -0.094671 -0.114494 -0.059610 -0.076698 0.022313 0.189869 0.052140 -0.088407 0.075303 0.048774 0.147482 0.027666 -0.074879 -0.233202 0.152941 -0.057092 -0.079029 0.072756 0.157579 -0.064487 0.055021 -0.053454 0.030002 0.090397 -0.037226 0.285194 0.178834 -0.047337 0.125339 -0.128402 0.057481 -0.047963 0.062984 -0.248220 0.034214 -0.070756 0.026870 -0.103295 -0.018573 -0.059862 -0.053972 -0.016910 -0.119365 0.002272 0.074051 0.021045 -0.023429
59 -0.092306 -0.138940 -0.040574 -0.112405 0.088282 -0.012230 0.206906 0.013944 0.131425 -0.036138 -0.044379 0.201744 -0.034997 -0.042335 -0.017041 -0.084722 -0.071041 -0.021327 -0.115196 0.148759 0.131673 -0.130000 0.121120 0.051994 0.116742 0.006562 -0.165717 0.004521 -0.056395 -0.063869 0.051405 0.085713 -0.196562 -0.083121 0.033478 0.005921 0.065502 0.014953 -0.071833 -0.220986 -0.138659 0.179271 0.047536 -0.015431 -0.045777 0.208552 0.163887 0.036516 0.052483 0.071114 -0.170384 0.020363 0.073920 -0.140044 -0.057352 -0.107769 0.091993 0.007456 -0.072856 -0.220031 0.020513 -0.031934 0.023581 0.108835 -0.104309 0.020557 -0.004196 0.007190 0.115338 0.002785 0.027822 0.014184 0.123517 -0.005353 0.119962 -0.028465 0.086888 -0.086200 0.052871 0.059417 0.099403 -0.112229 -0.129638 -0.032390 -0.104858 0.012230 0.203111 0.068775 -0.110738 0.085855 0.051174 0.159387 0.045013 -0.072490 -0.277301 0.137840 -0.059323 -0.063763 0.092147 0.165756 -0.077820 0.109957 -0.067396 0.066579 0.088114 -0.040283 0.320925 0.186728 -0.039662 0.154832 -0.157201 0.071955 -0.056613 0.091993 -0.256630 0.053612 -0.074791 0.011700 -0.088503 -0.010511 -0.075984 -0.063940 -0.050811 -0.133929 0.024147 0.036654 0.059770 -0.050548
53 -0.085978 -0.136113 -0.048564 -0.113485 0.091294 -0.010316 0.200791 0.019528 0.127305 -0.034236 -0.051279 0.204556 -0.041292 -0.045145 -0.019393 -0.083737 -0.065964 -0.013508 -0.118235 0.148932 0.133514 -0.127842 0.117275 0.048113 0.115380 0.001621 -0.159464 0.003432 -0.056388 -0.066497 0.054706 0.083869 -0.198189 -0.085683 0.030966 0.013391 0.065770 0.011159 -0.071014 -0.219313 -0.140277 0.184464 0.041880 -0.017941 -0.051315 0.202973 0.167873 0.045114 0.055724 0.069125 -0.167702 0.017362 0.082807 -0.128651 -0.055328 -0.111026 0.088515 0.002382 -0.074208 -0.211648 0.023179 -0.030648 0.026425 0.105120 -0.116271 0.024177 0.003878 0.009507 0.114035 -0.004221 0.031016 0.019672 0.121315 0.001058 0.133248 -0.024929 0.088577 -0.098246 0.055303 0.056550 0.104991 -0.117393 -0.137872 -0.029467 -0.103070 0.018130 0.209322 0.072333 -0.107899 0.089485 0.055943 0.164825 0.050339 -0.077239 -0.285647 0.142230 -0.057252 -0.066554 0.094593 0.164644 -0.084556 0.112900 -0.073030 0.074640 0.095150 -0.038886 0.328532 0.188229 -0.036859 0.157850 -0.165662 0.077110 -0.062107 0.093768 -0.265889 0.055121 -0.067254 0.005481 -0.089331 -0.006903 -0.078726 -0.064739 -0.055320 -0.143113 0.028984 0.033893 0.065137 -0.056161
47 -0.104984 -0.134903 -0.027363 -0.088174 0.093085 -0.036028 0.204777 0.014891 0.149243 -0.071685 -0.000860 0.188405 -0.042890 -0.046789 0.031994 -0.089653 -0.099022 -0.040547 -0.115474 0.144404 0.111979 -0.126574 0.124648 0.084359 0.099659 0.030852 -0.156884 0.019978 -0.062319 -0.067936 0.062895 0.059899 -0.181475 -0.047824 0.044705 -0.014646 0.070681 0.035546 -0.049770 -0.192399 -0.110918 0.155144 0.093288 -0.014324 -0.067794 0.204604 0.153798 0.029949 0.025000 0.076971 -0.172689 0.033396 0.064087 -0.156968 -0.086598 -0.118477 0.084437 0.013163 -0.075285 -0.241612 0.027641 -0.070488 0.001589 0.129075 -0.137784 0.018983 -0.009011 0.005243 0.131407 0.035981 -0.019775 0.028675 0.127993 -0.000351 0.112414 -0.054171 0.091784 -0.067895 0.025183 0.055704 0.105919 -0.097529 -0.127159 -0.064986 -0.086971 0.024524 0.201900 0.046171 -0.086567 0.077993 0.055149 0.170092 0.030372 -0.085068 -0.253264 0.171785 -0.058882 -0.076938 0.082847 0.164846 -0.076547 0.067780 -0.049569 0.043340 0.093345 -0.031182 0.294599 0.188214 -0.043596 0.136055 -0.140935 0.060440 -0.054244 0.068081 -0.267725 0.037605 -0.079999 0.027599 -0.106050 -0.014588 -0.074614 -0.045911 -0.033545 -0.118791 0.004445 0.081575 0.025795 -0.027443
30 -0.092175 -0.129635 -0.028705 -0.074290 0.075544 -0.028677 0.196093 0.006972 0.137447 -0.054211 -0.010544 0.176029 -0.040418 -0.045970 0.018474 -0.088380 -0.092673 -0.037385 -0.111384 0.127287 0.109983 -0.120749 0.124650 0.069113 0.094457 0.027838 -0.148218 0.013832 -0.060356 -0.052148 0.054673 0.064300 -0.171121 -0.046704 0.042890 -0.012463 0.064521 0.035549 -0.051829 -0.192484 -0.113622 0.147223 0.083895 -0.003680 -0.061916 0.191519 0.146738 0.028994 0.030702 0.069185 -0.167299 0.033834 0.061592 -0.148917 -0.074245 -0.108779 0.075793 0.012563 -0.064258 -0.222275 0.035875 -0.059938 0.007553 0.118325 -0.114813 0.012467 -0.008633 0.008424 0.119484 0.021411 -0.005952 0.030029 0.110750 -0.003064 0.108525 -0.044994 0.089069 -0.061072 0.025144 0.055427 0.091327 -0.094490 -0.114807 -0.057285 -0.085432 0.024160 0.179713 0.049641 -0.094782 0.076449 0.054779 0.152642 0.035678 -0.076124 -0.237763 0.155752 -0.054730 -0.065215 0.081834 0.148554 -0.065410 0.067948 -0.053352 0.034014 0.086755 -0.038224 0.282541 0.176792 -0.043667 0.122486 -0.136711 0.054246 -0.058647 0.064374 -0.239938 0.035264 -0.078324 0.029904 -0.101787 -0.010828 -0.066792 -0.046858 -0.026673 -0.117619 0.009038 0.070949 0.032421 -0.024240
36 -0.092290 -0.127436 -0.021509 -0.081930 0.084162 -0.035468 0.199696 0.013539 0.141742 -0.059599 -0.005569 0.176983 -0.045447 -0.040523 0.025401 -0.086558 -0.095375 -0.040246 -0.113093 0.124257 0.104477 -0.116263 0.121899 0.076557 0.091413 0.027957 -0.148360 0.013767 -0.058130 -0.056925 0.064033 0.059294 -0.174232 -0.040250 0.044974 -0.012760 0.064920 0.035272 -0.048487 -0.188578 -0.106888 0.142872 0.092445 -0.007310 -0.065127 0.186921 0.152526 0.030762 0.030363 0.074548 -0.167016 0.029173 0.059312 -0.144941 -0.078441 -0.106876 0.080592 0.012562 -0.071181 -0.225011 0.030908 -0.063391 0.003098 0.120786 -0.129840 0.019451 -0.007037 0.006702 0.122371 0.024908 -0.018571 0.028556 0.114790 -0.002154 0.106603 -0.047527 0.091403 -0.064100 0.024404 0.049717 0.097206 -0.090478 -0.111859 -0.058322 -0.081957 0.021737 0.192396 0.051570 -0.083965 0.080024 0.051790 0.151960 0.031437 -0.076866 -0.234748 0.159454 -0.051755 -0.067926 0.076774 0.159510 -0.070557 0.063008 -0.044974 0.042646 0.093157 -0.032275 0.282916 0.175829 -0.038932 0.128528 -0.138519 0.058061 -0.057977 0.066849 -0.254693 0.030637 -0.075048 0.031637 -0.099682 -0.012871 -0.069036 -0.047061 -0.023365 -0.111596 0.004463 0.074074 0.026455 -0.025035
13 -0.100334 -0.128277 -0.021977 -0.078992 0.083558 -0.036247 0.197613 0.006246 0.147080 -0.061092 0.000036 0.176747 -0.043947 -0.050895 0.028227 -0.091168 -0.099235 -0.041235 -0.112395 0.122429 0.109461 -0.120778 0.119036 0.074490 0.083788 0.032821 -0.143096 0.019298 -0.057846 -0.057971 0.057270 0.063150 -0.179357 -0.041331 0.051353 -0.017878 0.074344 0.043827 -0.047650 -0.190676 -0.108554 0.145711 0.094341 -0.002061 -0.070078 0.196496 0.153908 0.028713 0.027571 0.073764 -0.175971 0.035427 0.061140 -0.147419 -0.089369 -0.115348 0.081266 0.015308 -0.070413 -0.234330 0.037257 -0.062209 -0.003498 0.123647 -0.127329 0.011130 -0.008084 0.004050 0.124131 0.021632 -0.019319 0.031659 0.111120 0.000367 0.111791 -0.049064 0.089110 -0.061837 0.018080 0.049651 0.098634 -0.092811 -0.114421 -0.058934 -0.088337 0.021125 0.192029 0.047303 -0.090700 0.079857 0.059141 0.155224 0.028126 -0.083329 -0.237193 0.155336 -0.055171 -0.079240 0.077012 0.156712 -0.065729 0.060065 -0.050819 0.035849 0.086657 -0.040293 0.287001 0.176825 -0.043054 0.118511 -0.133573 0.060191 -0.054439 0.071758 -0.255682 0.031962 -0.079476 0.032797 -0.101715 -0.022060 -0.068446 -0.047647 -0.021597 -0.117548 0.000953 0.080782 0.028076 -0.021633
55 -0.101658 -0.140513 -0.029795 -0.092142 0.091326 -0.032177 0.216588 0.009605 0.150770 -0.054108 -0.012820 0.198035 -0.047059 -0.044568 0.011234 -0.094074 -0.094490 -0.031756 -0.117172 0.140531 0.123258 -0.130472 0.128615 0.071574 0.109307 0.026280 -0.170289 0.010771 -0.061900 -0.057203 0.062404 0.071299 -0.183524 -0.055838 0.047177 -0.006435 0.064052 0.030620 -0.062090 -0.205971 -0.119384 0.166928 0.081880 -0.014606 -0.059269 0.209930 0.163040 0.035566 0.039035 0.070917 -0.178618 0.028723 0.072254 -0.149680 -0.083571 -0.116653 0.090273 0.011488 -0.073693 -0.235623 0.035119 -0.055559 0.011391 0.121173 -0.116538 0.022004 -0.004885 0.002673 0.122641 0.019289 -0.003824 0.028320 0.118672 0.000636 0.116608 -0.040491 0.090510 -0.075274 0.029171 0.058221 0.097484 -0.097797 -0.116558 -0.054864 -0.092703 0.021386 0.190518 0.048321 -0.100229 0.079844 0.055859 0.162535 0.040492 -0.081280 -0.256333 0.151011 -0.058202 -0.063598 0.084865 0.156115 -0.070260 0.079572 -0.056690 0.045331 0.090521 -0.031968 0.293402 0.178315 -0.037957 0.134911 -0.144702 0.066229 -0.054673 0.073224 -0.248101 0.037286 -0.070953 0.023621 -0.093189 -0.015751 -0.065946 -0.049984 -0.038090 -0.127381 0.010413 0.063724 0.033550 -0.032049
11 -0.110905 -0.143530 -0.022406 -0.085741 0.096103 -0.038723 0.213121 0.014006 0.157086 -0.069503 -0.002941 0.193187 -0.049204 -0.046374 0.032154 -0.100902 -0.104077 -0.043932 -0.119191 0.133923 0.119298 -0.130602 0.135098 0.081038 0.098148 0.030944 -0.164857 0.017504 -0.064516 -0.064779 0.065729 0.065568 -0.183836 -0.047078 0.050218 -0.013030 0.074001 0.041344 -0.049803 -0.195662 -0.114985 0.158930 0.100216 -0.007553 -0.072252 0.207970 0.159692 0.034088 0.029220 0.080789 -0.178226 0.035207 0.063497 -0.153497 -0.089479 -0.120016 0.086612 0.018284 -0.078746 -0.239640 0.034428 -0.069733 0.006705 0.132917 -0.135970 0.018386 -0.011126 0.004160 0.132782 0.023433 -0.014410 0.033217 0.115746 -0.001794 0.122092 -0.046316 0.096099 -0.071612 0.022187 0.054462 0.104356 -0.091182 -0.122125 -0.062183 -0.094920 0.023549 0.201739 0.048911 -0.089376 0.081468 0.055147 0.164170 0.033741 -0.081761 -0.248500 0.165827 -0.054255 -0.076866 0.086396 0.163389 -0.069087 0.070539 -0.053650 0.043060 0.091760 -0.037078 0.300533 0.183314 -0.039255 0.126095 -0.144485 0.065183 -0.061556 0.071156 -0.260770 0.036456 -0.080641 0.033121 -0.107152 -0.020481 -0.069878 -0.052044 -0.023388 -0.126957 0.004725 0.074775 0.027198 -0.026627
18 -0.099776 -0.139699 -0.029596 -0.091739 0.090607 -0.033608 0.211339 0.011152 0.148339 -0.052106 -0.014477 0.193764 -0.036709 -0.047451 0.019427 -0.099187 -0.103276 -0.038960 -0.118439 0.140879 0.127792 -0.130636 0.137337 0.075774 0.107440 0.035020 -0.168770 0.010452 -0.058153 -0.054338 0.057870 0.075365 -0.181366 -0.050407 0.045577 -0.017989 0.064930 0.032266 -0.058609 -0.200484 -0.124638 0.160516 0.075257 -0.009310 -0.058707 0.211477 0.148301 0.036088 0.034816 0.072272 -0.174759 0.028031 0.067475 -0.146909 -0.078711 -0.111100 0.082430 0.007149 -0.071157 -0.236776 0.041724 -0.060818 0.010625 0.120694 -0.104948 0.017901 -0.009951 0.004164 0.124059 0.027873 -0.003933 0.026709 0.115228 -0.012551 0.115877 -0.037972 0.093674 -0.066546 0.030550 0.053058 0.088400 -0.090837 -0.109148 -0.061088 -0.094748 0.022805 0.183878 0.043320 -0.098375 0.080171 0.051281 0.155033 0.041507 -0.080087 -0.249625 0.156543 -0.055248 -0.059943 0.088989 0.146442 -0.072529 0.078095 -0.052734 0.046347 0.089412 -0.034089 0.286524 0.174689 -0.041204 0.123756 -0.140852 0.058376 -0.063287 0.070504 -0.245433 0.036782 -0.077383 0.029562 -0.098697 -0.013301 -0.065116 -0.052581 -0.033941 -0.126523 0.012542 0.063307 0.032128 -0.032625
14 -0.104170 -0.132368 -0.023764 -0.082475 0.081148 -0.031640 0.194324 0.006587 0.138883 -0.053065 -0.010701 0.184038 -0.043468 -0.046176 0.018732 -0.087043 -0.088812 -0.036865 -0.106033 0.123804 0.112521 -0.116568 0.120984 0.072614 0.091194 0.031349 -0.146622 0.018393 -0.062759 -0.052636 0.060596 0.068686 -0.175836 -0.043538 0.051848 -0.013366 0.064895 0.035246 -0.054709 -0.190607 -0.117603 0.148219 0.083300 -0.002585 -0.062555 0.191690 0.153606 0.033679 0.032453 0.068744 -0.171274 0.029749 0.059309 -0.144778 -0.076921 -0.113276 0.079332 0.019618 -0.072110 -0.224093 0.036153 -0.058042 0.004944 0.115307 -0.122766 0.015666 -0.005155 0.006212 0.113853 0.019324 -0.011331 0.031393 0.104522 0.006430 0.110776 -0.038373 0.085458 -0.061006 0.023514 0.047119 0.090501 -0.091502 -0.104917 -0.049204 -0.085600 0.022573 0.181465 0.046832 -0.088384 0.073766 0.051048 0.149990 0.034227 -0.076181 -0.240681 0.151290 -0.056276 -0.064259 0.080053 0.150681 -0.069099 0.067338 -0.053456 0.038510 0.082957 -0.032505 0.283224 0.176055 -0.045823 0.123909 -0.135557 0.057665 -0.054799 0.068964 -0.237696 0.034955 -0.077420 0.025426 -0.097868 -0.015759 -0.062858 -0.053934 -0.028835 -0.121294 0.005279 0.064201 0.026563 -0.024644
29 -0.104325 -0.136222 -0.024913 -0.086198 0.093540 -0.037760 0.211469 0.006926 0.150980 -0.065317 0.001742 0.191150 -0.046462 -0.047648 0.031805 -0.097829 -0.112224 -0.049395 -0.114597 0.133757 0.117514 -0.127864 0.127099 0.083764 0.094427 0.032369 -0.165158 0.013677 -0.057921 -0.057276 0.064468 0.062428 -0.183944 -0.044015 0.045336 -0.020673 0.073519 0.040529 -0.048248 -0.202696 -0.113254 0.156152 0.092895 -0.012007 -0.066620 0.214008 0.150924 0.032331 0.023926 0.077619 -0.179712 0.035069 0.059772 -0.154452 -0.093485 -0.114365 0.088356 0.016923 -0.072253 -0.245126 0.039191 -0.072784 0.001922 0.130060 -0.129199 0.016545 -0.013333 0.003185 0.136268 0.035452 -0.019603 0.033287 0.115267 -0.004045 0.116010 -0.044197 0.099086 -0.067127 0.024155 0.056138 0.096451 -0.088120 -0.117096 -0.068477 -0.092875 0.024722 0.195867 0.040268 -0.090719 0.075647 0.056502 0.162486 0.032777 -0.082251 -0.244586 0.173180 -0.054990 -0.069427 0.086611 0.152672 -0.076810 0.066905 -0.050576 0.038487 0.093173 -0.036066 0.286818 0.177599 -0.039389 0.124827 -0.139368 0.059889 -0.063057 0.066956 -0.261743 0.032782 -0.082188 0.033398 -0.103876 -0.017760 -0.071872 -0.046663 -0.027748 -0.123449 0.007536 0.081884 0.025376 -0.027537
24 -0.094790 -0.127581 -0.017321 -0.074516 0.085557 -0.034419 0.197967 0.010162 0.142983 -0.058456 0.001512 0.176772 -0.038978 -0.047964 0.026954 -0.092713 -0.100941 -0.042543 -0.110432 0.122806 0.111519 -0.119556 0.126161 0.079416 0.093852 0.034541 -0.155215 0.011799 -0.057817 -0.053137 0.054715 0.064711 -0.179712 -0.041903 0.047801 -0.019116 0.068913 0.034564 -0.049817 -0.192182 -0.112661 0.149302 0.090868 -0.004054 -0.066442 0.199290 0.145443 0.032698 0.029964 0.071918 -0.166611 0.035020 0.055238 -0.143190 -0.079459 -0.108413 0.083601 0.015224 -0.069119 -0.232429 0.037705 -0.062410 0.003631 0.122506 -0.126138 0.013353 -0.008989 0.007816 0.124022 0.029654 -0.010012 0.034281 0.109069 -0.003798 0.113074 -0.046572 0.090305 -0.067047 0.022494 0.055188 0.099027 -0.087098 -0.113945 -0.057889 -0.089896 0.019424 0.183553 0.049116 -0.088789 0.079404 0.051729 0.160580 0.034941 -0.081235 -0.237350 0.166239 -0.049986 -0.069004 0.084758 0.149258 -0.073327 0.067859 -0.046338 0.040278 0.086250 -0.034582 0.283517 0.179288 -0.037534 0.122216 -0.133561 0.056798 -0.057914 0.069486 -0.251786 0.034310 -0.076822 0.032067 -0.102531 -0.013781 -0.066432 -0.049635 -0.023738 -0.121535 0.007075 0.078059 0.030227 -0.021765
27 -0.094139 -0.139290 -0.031130 -0.094522 0.079653 -0.029742 0.213726 0.011998 0.137655 -0.047962 -0.019937 0.191019 -0.038813 -0.040532 0.012746 -0.097545 -0.099983 -0.044394 -0.114061 0.125545 0.133216 -0.126038 0.135113 0.083021 0.105545 0.030406 -0.174544 0.013026 -0.063410 -0.048715 0.055152 0.074840 -0.181465 -0.060140 0.049758 -0.021614 0.061403 0.027083 -0.066886 -0.215904 -0.132911 0.157251 0.072027 -0.002667 -0.048740 0.213975 0.159232 0.041097 0.033446 0.072557 -0.170412 0.033422 0.059955 -0.149731 -0.071879 -0.121496 0.079939 0.009552 -0.065411 -0.236054 0.046688 -0.048817 0.010363 0.116900 -0.098931 0.022152 -0.018831 0.016723 0.115189 0.022116 -0.002007 0.031184 0.119517 -0.019696 0.114897 -0.045385 0.101700 -0.076511 0.024669 0.058703 0.088847 -0.100406 -0.106630 -0.057118 -0.101958 0.023510 0.185850 0.042318 -0.107376 0.080371 0.047183 0.157220 0.047516 -0.076062 -0.264124 0.155750 -0.048782 -0.057615 0.088438 0.143557 -0.075568 0.080151 -0.048430 0.036369 0.092094 -0.030012 0.291058 0.170143 -0.044487 0.134795 -0.134012 0.060882 -0.066474 0.066880 -0.234441 0.035986 -0.080543 0.041625 -0.104383 -0.011223 -0.065059 -0.046684 -0.035385 -0.136613 0.006515 0.066824 0.034708 -0.025316
9 -0.111195 -0.140538 -0.027300 -0.086733 0.093333 -0.038765 0.216004 0.011989 0.160152 -0.069735 0.000154 0.197136 -0.046884 -0.053690 0.028724 -0.099897 -0.108737 -0.041555 -0.121389 0.139964 0.115676 -0.129756 0.138443 0.079057 0.097969 0.037135 -0.167304 0.012155 -0.064407 -0.060096 0.064715 0.071047 -0.193409 -0.046876 0.054988 -0.020427 0.076669 0.040389 -0.058494 -0.203387 -0.123706 0.154767 0.099420 -0.004229 -0.074617 0.213515 0.163265 0.031251 0.029096 0.074460 -0.188428 0.037403 0.061968 -0.161088 -0.087355 -0.122349 0.087277 0.018440 -0.078180 -0.252305 0.039774 -0.068025 -0.000119 0.137504 -0.131498 0.014397 -0.007055 0.004703 0.131975 0.028836 -0.012966 0.036067 0.124500 -0.001595 0.123610 -0.051773 0.094142 -0.065691 0.021689 0.058724 0.106611 -0.097149 -0.125751 -0.068334 -0.093542 0.021990 0.200346 0.049433 -0.097087 0.083836 0.060521 0.169636 0.039441 -0.081226 -0.257544 0.168461 -0.056644 -0.075415 0.089846 0.165223 -0.078643 0.065562 -0.055833 0.041630 0.095697 -0.035231 0.301076 0.193608 -0.046882 0.127771 -0.143558 0.064046 -0.056371 0.072062 -0.268369 0.034184 -0.085575 0.036075 -0.110104 -0.017053 -0.074687 -0.053136 -0.031180 -0.127566 0.002014 0.084309 0.030290 -0.026151
57 -0.104747 -0.142335 -0.036674 -0.096538 0.090417 -0.029693 0.214029 0.008393 0.149756 -0.052975 -0.018198 0.199595 -0.041497 -0.048335 0.007179 -0.098445 -0.095255 -0.033747 -0.118256 0.142599 0.123706 -0.132841 0.135115 0.070319 0.105280 0.028525 -0.167122 0.017051 -0.060580 -0.060863 0.057377 0.079587 -0.186547 -0.055129 0.045780 -0.004671 0.063003 0.029273 -0.064049 -0.202926 -0.123629 0.162999 0.076031 -0.010046 -0.060715 0.207285 0.164365 0.035909 0.042076 0.072628 -0.181845 0.029980 0.067486 -0.153328 -0.078808 -0.118682 0.088614 0.015540 -0.071680 -0.228753 0.032051 -0.046830 0.004667 0.121324 -0.117700 0.014273 -0.006526 0.006471 0.118271 0.017276 0.003633 0.027141 0.117819 -0.003191 0.119388 -0.041120 0.089099 -0.071743 0.037836 0.055730 0.097873 -0.097626 -0.114086 -0.049712 -0.088122 0.020641 0.193394 0.051839 -0.103519 0.083421 0.055346 0.162487 0.036441 -0.076485 -0.262794 0.151796 -0.057205 -0.066004 0.086812 0.157303 -0.071677 0.082891 -0.061639 0.044682 0.090493 -0.033166 0.304723 0.187431 -0.045579 0.138682 -0.142220 0.065295 -0.061168 0.079740 -0.255356 0.041931 -0.073045 0.022937 -0.100105 -0.014633 -0.065268 -0.057087 -0.039089 -0.128223 0.013970 0.059123 0.036580 -0.035099
26 -0.101632 -0.137341 -0.024890 -0.095119 0.097130 -0.036527 0.219502 0.010376 0.148288 -0.067689 -0.007292 0.190953 -0.040877 -0.048349 0.024173 -0.093920 -0.101561 -0.040771 -0.120758 0.143350 0.122966 -0.130701 0.134072 0.083918 0.100912 0.029840 -0.173119 0.013902 -0.062391 -0.058305 0.065684 0.067406 -0.189048 -0.053364 0.041448 -0.019577 0.069370 0.033975 -0.056078 -0.206867 -0.120749 0.158440 0.087222 -0.015173 -0.068389 0.220925 0.156237 0.034828 0.028807 0.081471 -0.177049 0.035204 0.063507 -0.159343 -0.087001 -0.118995 0.088658 0.013669 -0.078645 -0.243166 0.035801 -0.066211 0.007435 0.131693 -0.124981 0.022495 -0.008334 0.000312 0.132098 0.031792 -0.010914 0.031938 0.121524 -0.006031 0.120673 -0.050886 0.092182 -0.073891 0.027674 0.056451 0.100585 -0.092987 -0.122935 -0.060227 -0.091767 0.024514 0.194837 0.046395 -0.095668 0.081618 0.055622 0.171538 0.039991 -0.080704 -0.255886 0.168227 -0.056968 -0.069397 0.093422 0.158621 -0.077078 0.073448 -0.050816 0.048663 0.096804 -0.030950 0.302846 0.186841 -0.036796 0.136854 -0.149182 0.060011 -0.059792 0.075902 -0.263499 0.037252 -0.078934 0.029344 -0.102627 -0.018562 -0.073478 -0.050628 -0.036775 -0.127224 0.009669 0.078764 0.029990 -0.035765
56 -0.103418 -0.130108 -0.029760 -0.078868 0.079431 -0.034384 0.198338 0.006258 0.136753 -0.050520 -0.005512 0.183362 -0.044327 -0.044237 0.014205 -0.091705 -0.093867 -0.036036 -0.106146 0.122984 0.112979 -0.122437 0.124359 0.070803 0.098445 0.031426 -0.154503 0.012119 -0.061415 -0.049176 0.055902 0.072020 -0.172211 -0.046870 0.047383 -0.014701 0.067822 0.036905 -0.058443 -0.188019 -0.118004 0.148935 0.080619 -0.000893 -0.062033 0.195255 0.152315 0.030530 0.034097 0.061379 -0.171164 0.028857 0.062548 -0.146946 -0.075442 -0.113496 0.082301 0.011825 -0.070597 -0.222805 0.043061 -0.049681 0.000749 0.120802 -0.108856 0.014042 -0.008641 0.010236 0.112853 0.016037 -0.003119 0.024709 0.106279 -0.003686 0.100678 -0.039494 0.084955 -0.062475 0.024617 0.049494 0.088754 -0.087797 -0.103249 -0.050120 -0.081683 0.015519 0.177017 0.046908 -0.088913 0.076504 0.053104 0.143653 0.040434 -0.069026 -0.234955 0.137974 -0.051408 -0.063642 0.073339 0.145056 -0.064865 0.070088 -0.054956 0.038423 0.080622 -0.031488 0.273328 0.169898 -0.045440 0.123067 -0.127508 0.062746 -0.051198 0.066495 -0.231595 0.038463 -0.070328 0.030590 -0.092348 -0.015886 -0.057861 -0.050703 -0.029299 -0.114188 0.002543 0.064851 0.029134 -0.021338
48 -0.102757 -0.133110 -0.021125 -0.091350 0.095060 -0.034023 0.206462 0.011067 0.150275 -0.075579 -0.003380 0.188396 -0.041682 -0.038679 0.031915 -0.094650 -0.102817 -0.044020 -0.115842 0.146603 0.110722 -0.127005 0.122540 0.079197 0.098142 0.032500 -0.165648 0.014414 -0.060146 -0.069937 0.065641 0.055509 -0.183003 -0.043780 0.037510 -0.018017 0.071378 0.034009 -0.046779 -0.190725 -0.115697 0.150220 0.096418 -0.014619 -0.066093 0.210205 0.151333 0.028056 0.021784 0.077198 -0.172323 0.033633 0.061598 -0.145831 -0.091309 -0.112476 0.081304 0.016633 -0.077459 -0.240856 0.027854 -0.066715 0.006414 0.129015 -0.131019 0.025304 -0.012228 -0.000065 0.137475 0.034476 -0.022509 0.027618 0.120860 -0.000907 0.117494 -0.045364 0.090509 -0.071891 0.028693 0.059335 0.109050 -0.089715 -0.122976 -0.062394 -0.090188 0.018756 0.201403 0.045797 -0.082936 0.082406 0.053741 0.172095 0.024783 -0.084049 -0.246899 0.169207 -0.051354 -0.076818 0.091022 0.163522 -0.076702 0.063492 -0.046994 0.045366 0.088076 -0.027575 0.288897 0.183865 -0.041962 0.127432 -0.146967 0.058324 -0.053828 0.073956 -0.268060 0.036637 -0.073256 0.030730 -0.102666 -0.020439 -0.074048 -0.044983 -0.029320 -0.110620 0.004748 0.080171 0.031376 -0.032659
68 -0.101918 -0.128263 -0.021447 -0.091499 0.108657 -0.031545 0.210605 0.015326 0.147856 -0.079233 0.000579 0.186343 -0.041514 -0.041968 0.036511 -0.086566 -0.106204 -0.041682 -0.117238 0.147157 0.105027 -0.124722 0.122901 0.088202 0.093848 0.029229 -0.164461 0.020614 -0.053708 -0.065898 0.067140 0.053213 -0.184773 -0.040311 0.040193 -0.018952 0.066209 0.038476 -0.038208 -0.188815 -0.103860 0.154420 0.096836 -0.023728 -0.070097 0.206428 0.150392 0.032091 0.019202 0.087322 -0.172734 0.027344 0.058170 -0.146004 -0.097887 -0.111024 0.085197 0.007675 -0.074906 -0.239642 0.023097 -0.076242 0.008255 0.131269 -0.126279 0.029007 -0.010423 -0.004167 0.138636 0.043161 -0.027791 0.028805 0.118892 -0.009018 0.107877 -0.045678 0.093900 -0.071250 0.023035 0.059218 0.104297 -0.080361 -0.128388 -0.057947 -0.085063 0.024696 0.196988 0.035540 -0.076861 0.079091 0.054694 0.165910 0.022570 -0.083672 -0.237579 0.171875 -0.050521 -0.076391 0.085789 0.153876 -0.078804 0.055721 -0.044394 0.050792 0.087990 -0.029275 0.279830 0.172120 -0.036439 0.126966 -0.138009 0.056976 -0.057683 0.074537 -0.259505 0.032991 -0.066490 0.026876 -0.101458 -0.014009 -0.079194 -0.032441 -0.024370 -0.100684 0.011199 0.083071 0.021390 -0.029702
58 -0.103905 -0.134582 -0.031574 -0.083010 0.078735 -0.033433 0.206805 0.009372 0.146199 -0.055588 -0.006079 0.185432 -0.037786 -0.044798 0.019034 -0.099066 -0.099313 -0.031967 -0.112835 0.128835 0.113126 -0.131778 0.129375 0.070296 0.102550 0.027723 -0.164026 0.012218 -0.059197 -0.049987 0.060370 0.068983 -0.177770 -0.044144 0.050004 -0.010341 0.066157 0.039771 -0.062902 -0.193072 -0.120644 0.152684 0.081261 -0.011919 -0.067661 0.204397 0.160877 0.037860 0.036162 0.063834 -0.177758 0.030674 0.072498 -0.154950 -0.084970 -0.113210 0.085712 0.011028 -0.067692 -0.229967 0.043383 -0.059738 0.002682 0.122600 -0.122534 0.012237 -0.003949 0.004127 0.126482 0.028535 -0.008695 0.023976 0.113219 -0.003640 0.110681 -0.046697 0.082868 -0.067951 0.028300 0.047023 0.093456 -0.095989 -0.115515 -0.058556 -0.080535 0.022526 0.186197 0.046436 -0.100334 0.075848 0.050587 0.156652 0.036914 -0.072118 -0.247446 0.154803 -0.061557 -0.070891 0.085226 0.152502 -0.070014 0.072427 -0.051877 0.043494 0.086460 -0.037027 0.285404 0.182667 -0.043348 0.126343 -0.139592 0.059063 -0.055632 0.066750 -0.254044 0.035063 -0.080774 0.030250 -0.104547 -0.013545 -0.059015 -0.046624 -0.032407 -0.122858 0.008611 0.071779 0.031116 -0.024186
31 -0.093460 -0.131598 -0.023441 -0.083366 0.080853 -0.034680 0.202062 0.006457 0.137592 -0.052092 -0.008450 0.188166 -0.035244 -0.048248 0.018680 -0.093742 -0.099907 -0.036818 -0.108969 0.128161 0.119265 -0.123395 0.123801 0.077852 0.100109 0.030943 -0.156625 0.015509 -0.059067 -0.053929 0.053798 0.073026 -0.177733 -0.047345 0.046140 -0.013167 0.061898 0.028957 -0.052092 -0.197547 -0.118473 0.150896 0.077705 -0.007215 -0.058460 0.196316 0.143545 0.030888 0.030673 0.071329 -0.169610 0.033653 0.060377 -0.145146 -0.073032 -0.113261 0.079580 0.009395 -0.070269 -0.227364 0.041649 -0.056792 0.005122 0.110780 -0.113429 0.016686 -0.013117 0.006638 0.115656 0.022575 -0.004239 0.026648 0.111474 -0.007120 0.113711 -0.040608 0.093749 -0.068287 0.029533 0.054671 0.093324 -0.094649 -0.112657 -0.057849 -0.090743 0.021762 0.177639 0.042830 -0.093089 0.073693 0.047037 0.158346 0.040992 -0.077768 -0.248161 0.153029 -0.051945 -0.063163 0.082561 0.148343 -0.073137 0.071293 -0.050804 0.036611 0.084207 -0.034544 0.279763 0.172983 -0.036634 0.123937 -0.136569 0.054912 -0.059147 0.065484 -0.235237 0.040802 -0.077888 0.036218 -0.102747 -0.010297 -0.065136 -0.049294 -0.031791 -0.124891 0.006245 0.067419 0.028155 -0.025389
23 -0.102974 -0.138134 -0.030047 -0.091022 0.088707 -0.032141 0.217307 0.010973 0.152907 -0.062437 -0.010260 0.197204 -0.040482 -0.048707 0.021012 -0.094009 -0.110120 -0.041978 -0.114229 0.141176 0.125291 -0.131560 0.131494 0.088481 0.104909 0.035184 -0.177270 0.009131 -0.066398 -0.054759 0.057541 0.073804 -0.183167 -0.052306 0.042962 -0.024771 0.067831 0.028260 -0.060796 -0.204915 -0.124224 0.154919 0.086540 -0.003526 -0.054158 0.212123 0.150653 0.041036 0.024914 0.072142 -0.174229 0.030862 0.065146 -0.158201 -0.084003 -0.123728 0.079933 0.008159 -0.072787 -0.244700 0.043218 -0.063296 0.014584 0.124255 -0.101446 0.020664 -0.010860 0.012061 0.122186 0.032831 -0.007750 0.031068 0.120427 -0.013431 0.107729 -0.042829 0.098433 -0.066534 0.027385 0.059259 0.096639 -0.095263 -0.105382 -0.062619 -0.098328 0.026974 0.178529 0.038351 -0.098311 0.074563 0.052303 0.161230 0.034800 -0.080757 -0.254455 0.156250 -0.048236 -0.062868 0.082874 0.150540 -0.073448 0.066718 -0.045873 0.034668 0.087599 -0.036985 0.276115 0.168960 -0.037024 0.125739 -0.137649 0.055283 -0.062228 0.062119 -0.242222 0.035953 -0.079823 0.041363 -0.102161 -0.010898 -0.061780 -0.042523 -0.034369 -0.126027 0.008481 0.066359 0.025727 -0.022866
28 -0.111855 -0.152540 -0.026068 -0.101460 0.095516 -0.029943 0.229876 0.008763 0.153101 -0.059719 -0.015901 0.211253 -0.043921 -0.046878 0.014511 -0.102369 -0.107620 -0.045199 -0.121933 0.149858 0.131233 -0.138399 0.139797 0.082182 0.110579 0.034616 -0.185031 0.015593 -0.060327 -0.062030 0.062064 0.081630 -0.194799 -0.056135 0.047114 -0.019870 0.071165 0.033485 -0.060913 -0.218822 -0.133385 0.167954 0.084128 -0.007468 -0.064056 0.221147 0.159954 0.038857 0.032205 0.075918 -0.188838 0.032702 0.071529 -0.162065 -0.079726 -0.122560 0.086712 0.008292 -0.079338 -0.250305 0.038676 -0.062629 0.015321 0.130963 -0.115882 0.020051 -0.011041 0.011988 0.124277 0.021152 -0.003389 0.032666 0.119351 -0.012139 0.119953 -0.041415 0.097282 -0.073517 0.028741 0.061074 0.099413 -0.105122 -0.118504 -0.059425 -0.100658 0.026079 0.198087 0.051589 -0.103131 0.084247 0.055178 0.170150 0.039610 -0.087306 -0.266394 0.164054 -0.057923 -0.065091 0.092231 0.158797 -0.081097 0.087077 -0.060250 0.045735 0.099140 -0.032390 0.315764 0.193091 -0.043366 0.136458 -0.149510 0.066487 -0.067617 0.075773 -0.263620 0.040665 -0.085303 0.031864 -0.108780 -0.016002 -0.071419 -0.055766 -0.037617 -0.133342 0.009104 0.065425 0.037050 -0.031707
54 -0.108256 -0.138730 -0.025964 -0.081883 0.085512 -0.035258 0.209700 0.007232 0.150505 -0.064106 -0.011537 0.189696 -0.042157 -0.045255 0.017150 -0.092982 -0.101258 -0.038806 -0.115715 0.134567 0.117284 -0.131157 0.133328 0.079184 0.102760 0.027503 -0.166391 0.015028 -0.064145 -0.061545 0.063021 0.074483 -0.190930 -0.052254 0.052928 -0.012128 0.069061 0.038690 -0.055175 -0.206279 -0.122280 0.162187 0.088921 -0.009751 -0.066508 0.210350 0.162285 0.033713 0.036410 0.076077 -0.185851 0.029161 0.071280 -0.157695 -0.085846 -0.123949 0.089995 0.013025 -0.073174 -0.243950 0.035668 -0.059800 0.001849 0.127495 -0.128676 0.015942 -0.007632 0.003995 0.129028 0.031075 -0.007189 0.030023 0.118785 0.001863 0.116023 -0.042969 0.090580 -0.069446 0.027077 0.054238 0.101554 -0.097982 -0.121643 -0.063032 -0.086805 0.020175 0.196570 0.047895 -0.101266 0.082167 0.056525 0.162626 0.033981 -0.082523 -0.252832 0.162385 -0.060410 -0.075227 0.085834 0.160178 -0.072852 0.068038 -0.050671 0.042541 0.092485 -0.040923 0.303985 0.187239 -0.047582 0.138036 -0.147610 0.062379 -0.058716 0.075760 -0.264659 0.034684 -0.075987 0.029027 -0.102510 -0.015243 -0.068939 -0.047841 -0.031821 -0.127748 0.007357 0.074251 0.035188 -0.029967
