143 128
105 0.092858 -0.282748 0.089056 -0.031861 0.136953 -0.072075 0.103974 0.185540 -0.122321 -0.179758 -0.026467 -0.147225 -0.001033 -0.151149 -0.104294 -0.148958 0.194138 -0.000526 0.187523 0.098154 0.113518 0.111368 -0.118068 0.123172 -0.113408 0.145089 0.126785 -0.010879 -0.088656 -0.093520 -0.040417 -0.265215 -0.251975 -0.038513 0.162776 0.099421 -0.101400 -0.166581 0.019490 -0.200443 -0.166363 0.129149 0.006385 0.104245 -0.117877 -0.061088 0.036757 -0.215100 -0.001600 -0.265956 -0.315794 -0.034635 -0.175879 0.120571 -0.093065 -0.309875 -0.115096 0.302627 -0.211401 0.060293 -0.207087 0.022895 -0.231955 0.097126 -0.166504 -0.027000 -0.293237 0.137946 -0.035406 -0.008850 -0.040329 -0.099684 0.061925 0.028897 -0.215280 -0.153389 0.050715 0.054236 0.144770 -0.080034 -0.066370 -0.276918 -0.129083 -0.046388 0.102149 0.063448 0.089667 -0.278058 0.125781 -0.096859 0.125960 0.057187 -0.285868 -0.045026 -0.071497 0.197216 0.146137 -0.044960 0.123160 0.103579 0.016149 -0.063147 0.288140 0.173975 0.013157 0.038884 0.201877 0.065851 0.072685 0.080543 0.147779 0.056543 -0.045261 0.074188 -0.141554 0.267304 -0.199132 0.187665 0.066550 0.053229 0.108739 -0.102796 0.102211 -0.074796 0.004897 0.117281 0.294559 0.158938
22 0.076828 -0.308663 0.100701 -0.105485 0.134505 -0.039424 0.114248 0.171760 -0.114750 -0.157047 -0.031885 -0.096674 0.013395 -0.177536 -0.056045 -0.223753 0.140319 -0.064763 0.174700 0.074064 0.128519 0.097118 -0.077674 0.097758 -0.093104 0.100621 0.054400 0.001520 -0.076198 -0.098310 -0.069873 -0.213628 -0.218808 -0.061015 0.122501 0.077515 -0.066507 -0.129769 0.016700 -0.187875 -0.180182 0.099511 0.016809 0.111208 -0.094950 0.002043 0.015817 -0.192637 -0.015140 -0.195895 -0.282500 -0.025453 -0.157856 0.112920 -0.089526 -0.272128 -0.117948 0.281719 -0.152683 0.036496 -0.137740 -0.019903 -0.179367 0.116933 -0.137451 -0.010795 -0.287059 0.108005 -0.006403 -0.016927 -0.043234 -0.073313 0.100453 -0.013110 -0.145098 -0.166214 0.053487 0.036172 0.095847 -0.075252 -0.064624 -0.242845 -0.125923 -0.046059 0.054373 0.053664 0.085316 -0.265694 0.124644 -0.086852 0.132197 0.051417 -0.263342 -0.048568 -0.098646 0.212219 0.122840 -0.061612 0.141213 0.056553 0.015080 -0.045290 0.240909 0.153368 -0.012634 0.060670 0.180845 0.083322 0.066675 0.042280 0.103860 0.050846 -0.050078 0.063252 -0.120747 0.242400 -0.178205 0.200647 0.021174 0.019812 0.063675 -0.081433 0.090121 -0.083946 -0.027485 0.117576 0.265270 0.179399
107 0.031394 -0.359716 0.145960 -0.171821 0.181129 -0.013675 0.130580 0.206953 -0.118101 -0.206332 -0.052146 -0.111801 -0.010280 -0.237697 -0.050374 -0.259651 0.138693 -0.037218 0.175628 0.072390 0.120544 0.116994 -0.065841 0.086725 -0.134711 0.085032 0.021390 0.014194 -0.095946 -0.172236 -0.064396 -0.219397 -0.181238 -0.096580 0.147811 0.108660 -0.034241 -0.139683 -0.012834 -0.198413 -0.212286 0.093636 -0.024348 0.060885 -0.086000 -0.004849 0.073632 -0.178982 -0.023964 -0.211696 -0.258763 -0.035508 -0.124458 0.113849 -0.105720 -0.283236 -0.120222 0.240841 -0.149831 0.021516 -0.136413 0.017711 -0.184560 0.106329 -0.157752 -0.021308 -0.211297 0.115422 0.020562 -0.029189 -0.042792 -0.044666 0.088099 -0.005236 -0.180179 -0.154392 0.054857 0.049484 0.093595 -0.081300 -0.054016 -0.244059 -0.125526 -0.032622 0.089836 0.048633 0.076477 -0.246103 0.120300 -0.066167 0.147084 0.040308 -0.236715 -0.026702 -0.116989 0.218263 0.110628 -0.043593 0.102879 0.049016 -0.006106 -0.042568 0.222211 0.111783 -0.004085 0.071490 0.161654 0.090736 0.056797 0.041642 0.044444 0.054998 -0.054721 0.036088 -0.117764 0.205796 -0.168708 0.192985 0.012536 0.000160 0.055861 -0.069816 0.079472 -0.076340 -0.021516 0.120671 0.234305 0.152982
109 0.092590 -0.271417 0.071026 -0.032831 0.139721 -0.063911 0.095510 0.161118 -0.126176 -0.163888 -0.022632 -0.134027 -0.000076 -0.134738 -0.093187 -0.153375 0.170642 -0.021604 0.170526 0.086683 0.119857 0.091548 -0.111098 0.106848 -0.104345 0.129910 0.084523 -0.004242 -0.082723 -0.088831 -0.038826 -0.238339 -0.260752 -0.041357 0.154725 0.102797 -0.089146 -0.145758 0.037647 -0.187003 -0.152151 0.137137 0.025849 0.106938 -0.117768 -0.040971 0.019087 -0.213349 0.004592 -0.244869 -0.317814 -0.034675 -0.182272 0.124519 -0.099535 -0.303692 -0.081106 0.327291 -0.203203 0.064589 -0.209570 0.002298 -0.217367 0.104485 -0.161109 -0.009368 -0.300979 0.130759 -0.019695 -0.001564 -0.046165 -0.084689 0.073936 0.003489 -0.182835 -0.157188 0.067131 0.054585 0.135240 -0.052694 -0.043695 -0.252635 -0.125587 -0.047328 0.083583 0.064585 0.075775 -0.263646 0.128538 -0.089048 0.092884 0.064117 -0.289612 -0.046687 -0.074733 0.207904 0.155503 -0.060964 0.124873 0.098032 0.021164 -0.064655 0.261623 0.180464 0.024873 0.053265 0.185256 0.076396 0.071201 0.058943 0.137266 0.051998 -0.040249 0.073059 -0.144670 0.268035 -0.204268 0.209547 0.053224 0.058731 0.102818 -0.087402 0.098015 -0.059945 -0.009133 0.125070 0.303271 0.158239
106 0.043345 -0.340137 0.129433 -0.100408 0.176192 -0.019842 0.107989 0.186134 -0.138204 -0.212965 -0.050298 -0.143589 -0.017219 -0.207098 -0.081391 -0.185659 0.183734 0.004098 0.175436 0.082060 0.125406 0.119928 -0.098620 0.101691 -0.155888 0.135494 0.079786 -0.007351 -0.107564 -0.164916 -0.048360 -0.251109 -0.221755 -0.085698 0.176905 0.137839 -0.076281 -0.175919 -0.000827 -0.211380 -0.189160 0.122100 -0.041819 0.077770 -0.097388 -0.043155 0.053155 -0.204638 -0.015319 -0.273031 -0.309155 -0.046210 -0.162610 0.124521 -0.113087 -0.309440 -0.111236 0.261165 -0.190778 0.040312 -0.187911 0.054000 -0.204663 0.097606 -0.179975 -0.029258 -0.264540 0.158064 -0.007899 0.006490 -0.039383 -0.077404 0.057539 0.027053 -0.234313 -0.137109 0.041227 0.068999 0.132516 -0.078932 -0.061604 -0.274805 -0.128486 -0.044624 0.121052 0.063190 0.071610 -0.260063 0.117137 -0.080396 0.121568 0.048842 -0.268544 -0.048565 -0.084517 0.227489 0.140255 -0.027151 0.098427 0.084749 0.013571 -0.048032 0.262570 0.130625 0.035519 0.050023 0.176450 0.098187 0.087208 0.076764 0.076341 0.055871 -0.062767 0.043604 -0.138806 0.234387 -0.167735 0.173771 0.032140 0.037928 0.092715 -0.080853 0.093695 -0.083999 -0.026665 0.123363 0.293812 0.140652
108 0.057483 -0.355270 0.117681 -0.150643 0.205692 -0.010799 0.118095 0.225126 -0.118810 -0.179407 -0.032133 -0.110115 -0.009363 -0.229720 -0.050284 -0.255436 0.166401 -0.019581 0.203737 0.076024 0.112085 0.127047 -0.086021 0.090334 -0.121803 0.080739 0.056385 -0.006416 -0.098264 -0.123879 -0.068290 -0.253087 -0.207701 -0.053298 0.138955 0.114216 -0.060351 -0.129206 -0.006188 -0.158644 -0.139819 0.095102 -0.000044 0.048807 -0.098999 -0.018261 0.051521 -0.179008 0.001609 -0.219317 -0.270617 -0.052661 -0.142943 0.124881 -0.088448 -0.249365 -0.099295 0.261029 -0.152371 0.039732 -0.170504 0.011664 -0.174561 0.128561 -0.178395 -0.008932 -0.272141 0.097940 0.014110 -0.011376 -0.032871 -0.069465 0.079101 0.027425 -0.163593 -0.126527 0.020772 0.029301 0.128371 -0.067598 -0.065569 -0.209113 -0.135131 -0.017588 0.084294 0.035930 0.089899 -0.239983 0.131080 -0.105889 0.130786 0.014136 -0.253370 -0.051301 -0.057222 0.209622 0.117482 -0.049725 0.105235 0.062400 -0.014190 -0.047095 0.245834 0.139477 -0.002789 0.067249 0.144885 0.065473 0.048552 0.027977 0.093260 0.053885 -0.045799 0.037470 -0.121976 0.203661 -0.173356 0.152790 0.036983 0.008667 0.060797 -0.061594 0.100909 -0.047663 -0.008455 0.098084 0.220594 0.150962
2 -0.051718 -0.234190 0.076794 -0.212512 0.121105 0.040942 0.005883 0.059716 0.050154 0.052485 0.054738 0.157762 0.038363 -0.189506 0.065712 -0.352870 -0.088961 -0.228554 0.070058 -0.034832 0.185056 0.019149 0.036779 0.043306 0.020600 -0.060634 -0.139819 0.131735 0.034615 -0.011588 -0.094059 -0.056667 -0.281671 -0.002041 -0.015146 -0.082609 0.090517 0.125063 0.004768 -0.004707 -0.054832 0.060149 0.180120 0.108811 -0.136094 0.177827 -0.025141 -0.076388 0.025492 0.070381 -0.149831 0.041666 -0.025384 0.095389 -0.181674 -0.094042 0.052163 0.213395 -0.012141 0.016648 0.007359 -0.156879 -0.097269 0.092218 -0.048566 0.080003 -0.168190 -0.097561 0.066038 -0.007789 0.030146 0.011470 0.273877 -0.137591 0.225808 -0.195272 0.164239 -0.076366 -0.039371 0.017976 0.023528 -0.114112 -0.123803 -0.017300 -0.114848 -0.043635 0.199584 -0.175549 0.102708 0.015285 0.006888 -0.001787 -0.142897 -0.014280 -0.271030 0.190513 -0.065804 -0.202469 0.149042 0.075217 -0.067526 -0.047473 -0.003270 0.027074 -0.033624 0.068158 0.129601 0.129311 -0.139030 -0.088553 -0.006069 -0.037890 0.013710 0.026357 -0.130408 0.105225 -0.067425 0.169067 -0.194789 -0.088918 -0.074040 -0.007442 0.039327 -0.108763 -0.145152 0.115389 0.156123 0.093717
0 -0.062871 -0.191609 0.088615 -0.155102 0.031192 0.001914 0.017149 0.020228 0.051265 0.074823 0.024985 0.138438 0.062660 -0.156480 0.027918 -0.261127 -0.086852 -0.225110 0.025687 -0.027394 0.184338 0.019328 0.048454 0.070993 0.029846 -0.027668 -0.067804 0.114816 0.030929 -0.004512 -0.077726 0.004524 -0.255968 -0.053265 -0.016790 -0.145229 0.096218 0.114665 0.023715 -0.081686 -0.161748 0.028374 0.139482 0.195255 -0.125760 0.167902 -0.030307 -0.106894 -0.026379 0.076075 -0.150545 0.065188 -0.029410 0.085221 -0.166008 -0.133960 -0.028016 0.191473 -0.025509 -0.006811 0.044737 -0.142344 -0.112749 0.059092 -0.010569 0.045710 -0.125393 -0.029437 0.006737 -0.038138 0.020171 0.002224 0.231182 -0.119428 0.184533 -0.220243 0.191635 -0.052836 -0.092397 -0.012089 0.004852 -0.202541 -0.077379 -0.052322 -0.130942 -0.021235 0.181003 -0.187058 0.062221 0.038386 0.040606 0.020624 -0.117813 -0.004787 -0.293730 0.178682 -0.057931 -0.192718 0.195576 0.086248 -0.046784 -0.063107 0.025796 0.019201 -0.020781 0.042457 0.210047 0.170089 -0.114650 -0.047450 0.003496 -0.028766 -0.007690 0.024535 -0.146863 0.136006 -0.061053 0.213607 -0.216723 -0.106377 -0.050884 -0.055932 0.001457 -0.189099 -0.193244 0.144484 0.194353 0.100590
11 -0.051482 -0.311204 0.119400 -0.327529 0.228311 0.098536 0.031633 0.098393 0.007343 -0.025752 0.037453 0.141783 0.028496 -0.193883 0.136786 -0.474899 -0.082910 -0.249134 0.104748 -0.055697 0.193982 0.015327 0.040814 0.018465 -0.009633 -0.096293 -0.262806 0.158928 -0.008148 -0.086800 -0.098832 -0.108069 -0.231890 -0.010407 -0.014236 0.024183 0.076999 0.103926 -0.008332 0.056663 0.030864 0.110834 0.192226 -0.021469 -0.084443 0.217698 -0.012249 -0.036010 0.026935 0.095847 -0.116075 0.028080 -0.013195 0.077126 -0.170852 -0.045687 0.110896 0.213134 -0.018718 0.027487 -0.001830 -0.177855 -0.047435 0.130686 -0.085823 0.125064 -0.229866 -0.151165 0.146015 0.041619 0.057863 0.024237 0.318645 -0.167800 0.269465 -0.220605 0.113118 -0.095986 -0.024225 0.051073 0.075677 -0.011237 -0.185379 0.023640 -0.057403 -0.032443 0.208188 -0.170289 0.145765 0.025667 -0.000827 0.016637 -0.204829 -0.026328 -0.259593 0.245926 -0.033848 -0.182582 0.116936 -0.001532 -0.039684 -0.003660 -0.017589 0.057921 -0.043497 0.101969 0.045535 0.086626 -0.090269 -0.104736 -0.042247 -0.010476 -0.025751 0.039087 -0.105225 0.092565 -0.083642 0.149053 -0.151784 -0.066584 -0.095296 0.037268 0.081059 -0.011623 -0.074079 0.098185 0.117272 0.105278
57 -0.042750 -0.274690 0.104104 -0.298217 0.226918 0.104153 0.026001 0.092246 0.001959 -0.025804 0.036829 0.108812 0.018623 -0.177089 0.122953 -0.414847 -0.064453 -0.187225 0.096590 -0.045836 0.152077 0.025182 0.025844 0.015048 -0.030548 -0.078617 -0.229218 0.141067 -0.014158 -0.085899 -0.082630 -0.120760 -0.229201 0.000359 0.005712 0.047608 0.056199 0.079492 -0.016467 0.055970 0.034248 0.121921 0.165179 -0.047261 -0.077088 0.186957 -0.000769 -0.037135 0.044143 0.065493 -0.121924 0.013382 -0.018111 0.074937 -0.161935 -0.051544 0.120975 0.201760 -0.020046 0.036362 -0.026246 -0.131248 -0.066121 0.116829 -0.099983 0.110247 -0.215859 -0.122539 0.132835 0.048209 0.055499 0.018731 0.287890 -0.136529 0.224456 -0.198307 0.086831 -0.082783 0.006519 0.047489 0.067178 0.000769 -0.178007 0.043360 -0.015543 -0.018413 0.190145 -0.162321 0.147884 0.011682 0.013064 0.006603 -0.213345 -0.037105 -0.230255 0.230711 -0.020637 -0.170025 0.100526 0.004100 -0.047906 -0.012918 -0.004064 0.053954 -0.024326 0.099923 0.045599 0.090204 -0.082881 -0.084749 -0.034597 -0.008669 -0.027917 0.034384 -0.113488 0.090492 -0.084074 0.123141 -0.125250 -0.056888 -0.071131 0.043125 0.083258 0.005318 -0.056284 0.105751 0.135791 0.098786
85 -0.202115 -0.117844 0.112345 -0.114478 0.151664 0.062255 -0.094284 -0.043264 0.056939 0.068048 -0.041192 0.098279 0.001960 -0.121040 0.077306 -0.052335 -0.115013 0.004327 -0.094214 -0.071118 0.147110 0.050375 0.075922 0.049927 -0.084032 -0.013124 -0.092262 0.151398 -0.025975 -0.119261 0.050176 -0.089907 -0.370975 -0.084015 0.072853 -0.013810 0.058642 0.112642 -0.018924 0.023986 -0.077690 0.171526 0.122953 0.009784 -0.149821 0.110310 0.039604 -0.050128 0.018883 -0.012066 -0.137614 -0.003262 -0.005925 0.110727 -0.275397 -0.168442 0.181755 0.206627 -0.068444 0.075445 -0.063665 0.019267 -0.165580 -0.030575 -0.155191 0.087420 -0.059721 0.067298 0.070123 0.056506 0.146040 0.027745 0.125375 -0.041763 0.147508 -0.142627 0.192356 -0.054592 -0.019354 0.010928 0.109772 -0.151298 -0.122813 0.022764 0.124759 -0.010984 0.253508 -0.113152 0.112947 0.097534 -0.072562 -0.045762 -0.166873 -0.050777 -0.330794 0.227927 -0.026020 -0.148593 0.028926 0.155974 -0.069866 -0.105699 -0.014591 -0.058545 0.178080 -0.007989 0.113955 0.187955 -0.156498 -0.030777 -0.085203 -0.028041 -0.025776 -0.008514 -0.215246 0.078399 -0.002885 0.056942 -0.197562 -0.082868 0.086238 0.006104 0.033029 -0.118947 -0.141491 0.201354 0.255603 -0.076443
5 -0.041091 -0.228433 0.083843 -0.212011 0.090353 0.025634 0.042151 0.047518 0.031085 0.027123 0.036926 0.140109 0.049637 -0.166041 0.060181 -0.360972 -0.089908 -0.258936 0.067787 -0.023907 0.185563 0.015882 0.036177 0.046293 0.030389 -0.049562 -0.137678 0.124337 0.028325 -0.021344 -0.107013 -0.029976 -0.226020 -0.027816 -0.021705 -0.093453 0.092669 0.105940 0.018909 -0.041085 -0.098430 0.045702 0.162179 0.137954 -0.105644 0.190326 -0.031615 -0.086286 -0.010900 0.089307 -0.142521 0.058133 -0.020943 0.081464 -0.152094 -0.106576 0.002814 0.200321 -0.014278 -0.018079 0.043656 -0.176874 -0.081991 0.100184 -0.014935 0.071065 -0.158508 -0.083229 0.053305 -0.020315 0.012818 0.012980 0.274495 -0.154621 0.218146 -0.230268 0.154053 -0.067921 -0.083713 0.012669 0.010283 -0.132584 -0.109862 -0.036247 -0.139297 -0.029270 0.168657 -0.175780 0.089970 0.030767 0.046430 0.029529 -0.137650 -0.001887 -0.276079 0.184468 -0.053124 -0.196908 0.187675 0.040423 -0.040987 -0.031120 0.002493 0.034202 -0.058759 0.072866 0.160321 0.139390 -0.105468 -0.072517 -0.005687 -0.022259 -0.009502 0.042719 -0.118715 0.140623 -0.077095 0.222397 -0.189732 -0.091011 -0.082179 -0.024952 0.027920 -0.128919 -0.152377 0.119612 0.168380 0.139914
1 -0.075611 -0.179634 0.105407 -0.150025 0.009626 -0.006925 0.029581 -0.003575 0.039646 0.075403 -0.007922 0.126736 0.065306 -0.140314 0.023508 -0.229482 -0.090452 -0.231139 -0.000939 -0.040054 0.194441 0.016425 0.066551 0.067585 0.028367 -0.013631 -0.071571 0.122478 0.023252 -0.019455 -0.073816 0.027296 -0.252530 -0.090412 -0.016704 -0.142859 0.087284 0.101703 0.040821 -0.102528 -0.212467 0.028989 0.128552 0.211671 -0.115301 0.159219 -0.039764 -0.112806 -0.043928 0.085407 -0.156967 0.075217 -0.040381 0.100135 -0.181072 -0.157094 -0.045360 0.200562 -0.029452 -0.006660 0.070839 -0.138725 -0.115172 0.052804 -0.003210 0.046627 -0.108704 0.007914 -0.002726 -0.043451 0.031990 -0.002287 0.206772 -0.131929 0.166635 -0.228067 0.202096 -0.043500 -0.113193 -0.024344 -0.002610 -0.209679 -0.063194 -0.061374 -0.114970 -0.005729 0.151821 -0.178482 0.057397 0.043777 0.038109 0.031143 -0.109311 -0.007196 -0.297795 0.175355 -0.044727 -0.173440 0.193898 0.066274 -0.022155 -0.052003 0.010021 -0.000671 0.000084 0.032286 0.219709 0.182288 -0.102786 -0.038798 -0.020614 -0.031220 -0.029063 0.036812 -0.141323 0.153490 -0.046037 0.238379 -0.228135 -0.109263 -0.035797 -0.052242 -0.001521 -0.203742 -0.214351 0.166445 0.226347 0.106913
59 -0.000419 -0.309206 0.099617 -0.287064 0.229786 0.087394 0.049577 0.107534 -0.029383 -0.066776 0.041089 0.094373 0.021719 -0.171133 0.094656 -0.447726 -0.033852 -0.220600 0.133968 -0.027950 0.182112 0.014692 -0.006404 0.016706 -0.024904 -0.061225 -0.229869 0.127599 -0.012302 -0.093808 -0.104562 -0.139570 -0.224884 0.003302 0.008444 0.062768 0.040448 0.049971 0.005088 0.025776 0.047358 0.115440 0.169793 -0.020453 -0.072480 0.168722 -0.019851 -0.057233 0.039582 0.035505 -0.137985 0.012849 -0.044523 0.073670 -0.133820 -0.055646 0.099565 0.224317 -0.042386 0.032134 -0.050464 -0.156861 -0.060560 0.131434 -0.086115 0.109630 -0.258842 -0.135891 0.128989 0.047852 0.027254 0.007814 0.294368 -0.163957 0.193677 -0.202085 0.090269 -0.063096 0.018741 0.051998 0.056748 -0.026770 -0.178941 0.019483 -0.048768 -0.021559 0.166758 -0.170703 0.140058 0.004161 0.001450 0.042664 -0.227168 -0.023052 -0.203168 0.231031 0.001425 -0.156453 0.115341 -0.006251 -0.017885 0.006485 0.029370 0.103075 -0.064244 0.103740 0.045492 0.061830 -0.048006 -0.076722 0.001367 -0.001508 -0.020239 0.058992 -0.080929 0.121888 -0.113280 0.153245 -0.090532 -0.014992 -0.082182 0.028284 0.086302 0.019826 -0.032944 0.074681 0.133435 0.134498
6 -0.066271 -0.194466 0.095875 -0.177393 0.045830 0.003479 0.038797 0.048893 0.048262 0.054601 0.018709 0.129273 0.047445 -0.173183 0.026066 -0.282136 -0.092399 -0.212596 0.035900 -0.019671 0.161810 0.030212 0.054312 0.058936 0.032410 -0.042310 -0.073978 0.115188 0.038385 -0.001081 -0.077898 0.003911 -0.230985 -0.055461 -0.004679 -0.129353 0.106364 0.102984 0.004790 -0.082835 -0.163268 0.035402 0.140463 0.165505 -0.126005 0.180951 0.003730 -0.104637 -0.024111 0.078687 -0.137429 0.054704 -0.010457 0.087232 -0.170171 -0.143164 -0.032044 0.176939 -0.023310 -0.031402 0.058682 -0.128705 -0.110534 0.062601 -0.017717 0.041659 -0.104131 -0.030361 0.021160 -0.041846 0.027962 0.004253 0.237711 -0.102801 0.179897 -0.220276 0.177954 -0.054829 -0.097538 -0.010751 -0.006045 -0.186951 -0.088912 -0.045259 -0.115257 -0.030734 0.201386 -0.175838 0.058536 0.045360 0.069184 0.011588 -0.111676 0.003042 -0.309008 0.170706 -0.073089 -0.194284 0.181382 0.080150 -0.051545 -0.050824 0.006184 -0.012339 -0.018961 0.044773 0.204427 0.178482 -0.126828 -0.053927 -0.019151 -0.028113 -0.011987 0.018559 -0.157805 0.127825 -0.063786 0.205305 -0.230146 -0.136404 -0.052311 -0.065523 0.008869 -0.195017 -0.194970 0.139544 0.189289 0.089244
4 -0.024355 -0.207099 0.091773 -0.173835 -0.002217 -0.028802 0.067503 0.049793 0.031981 0.057474 0.014653 0.133350 0.083207 -0.163340 0.002781 -0.321410 -0.084321 -0.276248 0.054031 0.001549 0.181373 0.023946 0.048719 0.072772 0.061408 -0.027984 -0.051210 0.109896 0.050475 0.013846 -0.104997 0.027132 -0.229427 -0.072420 -0.029665 -0.166758 0.106824 0.093993 0.036057 -0.127676 -0.216724 0.006322 0.153654 0.237273 -0.118993 0.191912 -0.020527 -0.135029 -0.058443 0.093405 -0.154052 0.078395 -0.024424 0.091865 -0.159553 -0.164116 -0.102040 0.202383 -0.027301 -0.041612 0.084976 -0.178353 -0.106800 0.070922 0.023647 0.036734 -0.121563 -0.032786 -0.003382 -0.069717 0.004095 -0.004540 0.255801 -0.134759 0.184087 -0.259045 0.196556 -0.048545 -0.131193 -0.026143 -0.027138 -0.243709 -0.080038 -0.079135 -0.173524 -0.015738 0.193651 -0.209545 0.045727 0.041202 0.093018 0.043078 -0.117273 0.010607 -0.324134 0.171802 -0.067617 -0.196211 0.228523 0.064769 -0.030088 -0.041161 0.030976 0.017088 -0.070922 0.041384 0.246310 0.180067 -0.104235 -0.044522 0.011392 -0.016986 -0.018445 0.035893 -0.137895 0.167195 -0.078277 0.254815 -0.228064 -0.133937 -0.065666 -0.095297 -0.007432 -0.223534 -0.199002 0.133941 0.183362 0.141947
116 0.046590 -0.340032 0.116710 -0.117148 0.159372 -0.025423 0.123536 0.189782 -0.120934 -0.193726 -0.040268 -0.109907 -0.004484 -0.200248 -0.073432 -0.223306 0.161834 -0.039387 0.183175 0.070411 0.131024 0.108434 -0.092586 0.082822 -0.110531 0.104250 0.056142 0.006683 -0.089208 -0.141805 -0.072976 -0.221632 -0.190450 -0.077735 0.143123 0.101878 -0.054164 -0.139168 0.011632 -0.202442 -0.186789 0.092493 -0.017559 0.094905 -0.094728 -0.028619 0.042183 -0.193138 -0.017370 -0.227441 -0.275857 -0.034846 -0.136864 0.120281 -0.088376 -0.270556 -0.116523 0.255546 -0.168920 0.024528 -0.160537 0.015922 -0.184856 0.111626 -0.156002 -0.018239 -0.251597 0.123194 -0.005582 -0.019466 -0.043590 -0.063067 0.078640 0.007043 -0.178538 -0.138432 0.050744 0.050652 0.110714 -0.064882 -0.058695 -0.257280 -0.118419 -0.049796 0.074840 0.046269 0.062646 -0.241507 0.109915 -0.076649 0.137210 0.050877 -0.242612 -0.034357 -0.075235 0.208497 0.126912 -0.037138 0.110246 0.060967 0.004080 -0.051660 0.238083 0.131791 0.004724 0.068498 0.168513 0.084457 0.066551 0.050495 0.092366 0.057859 -0.053963 0.051064 -0.118229 0.223612 -0.166046 0.187812 0.031447 0.025875 0.066925 -0.082666 0.085616 -0.077392 -0.029542 0.104243 0.237770 0.154472
118 0.097303 -0.339121 0.114805 -0.100900 0.159548 -0.038101 0.129570 0.202177 -0.130967 -0.191715 -0.028640 -0.127810 0.009373 -0.178536 -0.075795 -0.231370 0.184594 -0.045866 0.202107 0.083872 0.119602 0.101338 -0.107781 0.105219 -0.106718 0.113229 0.061848 -0.008299 -0.092381 -0.107573 -0.064875 -0.250492 -0.214184 -0.046168 0.141674 0.115717 -0.084250 -0.155986 0.021223 -0.193768 -0.167997 0.119484 0.003332 0.085781 -0.103098 -0.025540 0.025180 -0.207252 -0.006971 -0.227013 -0.303945 -0.032637 -0.178657 0.118903 -0.083180 -0.284855 -0.110721 0.298003 -0.187750 0.045395 -0.182047 -0.011295 -0.194859 0.123962 -0.157547 -0.013486 -0.308862 0.110096 -0.011491 -0.003096 -0.049364 -0.087271 0.095670 -0.001602 -0.184228 -0.164919 0.043565 0.043563 0.127152 -0.069825 -0.062163 -0.238449 -0.143091 -0.035627 0.078305 0.059943 0.074643 -0.270806 0.130493 -0.097184 0.134585 0.054029 -0.280844 -0.049560 -0.073117 0.219538 0.147153 -0.057720 0.139298 0.067922 0.014964 -0.052156 0.276566 0.179019 -0.007681 0.073262 0.178424 0.064403 0.090138 0.058843 0.120675 0.064874 -0.055634 0.072145 -0.130113 0.251953 -0.204690 0.206769 0.048575 0.042454 0.065431 -0.075632 0.100243 -0.060025 -0.007782 0.112968 0.272468 0.175641
58 -0.020673 -0.307206 0.107482 -0.286639 0.242689 0.100609 0.037247 0.104437 -0.028829 -0.066147 0.034046 0.077554 0.012135 -0.182754 0.119396 -0.422894 -0.025834 -0.190187 0.128323 -0.046727 0.183231 0.019627 -0.006581 0.019557 -0.045480 -0.051432 -0.239784 0.126633 -0.032673 -0.114987 -0.087485 -0.170521 -0.225633 -0.006129 0.024000 0.085980 0.029451 0.057468 -0.014228 0.043566 0.040077 0.129862 0.147070 -0.047697 -0.071784 0.155601 -0.019832 -0.042171 0.045039 0.011733 -0.144321 -0.000930 -0.043664 0.076998 -0.151932 -0.054035 0.125691 0.210534 -0.044353 0.058251 -0.054086 -0.130049 -0.071116 0.131677 -0.113940 0.112474 -0.263244 -0.105554 0.136297 0.064528 0.038043 0.009806 0.257033 -0.148186 0.178110 -0.183782 0.072627 -0.058398 0.036888 0.040585 0.063669 -0.010064 -0.180241 0.036373 0.013568 -0.009156 0.146407 -0.174249 0.154123 -0.005283 -0.009808 0.024042 -0.233856 -0.041695 -0.185798 0.249890 0.006598 -0.142100 0.087186 -0.012540 -0.027124 -0.007805 0.028016 0.101664 -0.033660 0.101843 0.005758 0.062497 -0.040076 -0.074637 -0.011671 -0.004656 -0.024229 0.037936 -0.089528 0.107345 -0.093545 0.129043 -0.084140 -0.001732 -0.059079 0.056892 0.092041 0.035169 -0.028041 0.096452 0.142419 0.117027
7 -0.064317 -0.208351 0.107861 -0.165368 0.086266 0.028220 0.034282 0.036224 -0.001002 -0.004587 -0.022942 0.069415 0.037536 -0.154070 0.040681 -0.224745 -0.044468 -0.150817 0.025224 -0.027939 0.164958 0.034576 0.039130 0.055773 -0.027191 -0.006739 -0.095036 0.099184 -0.019518 -0.090053 -0.045448 -0.054561 -0.241225 -0.094412 0.028689 -0.034765 0.053180 0.046547 0.009551 -0.077960 -0.155721 0.084120 0.098605 0.103762 -0.094301 0.126093 -0.000104 -0.094489 -0.020111 0.012003 -0.156772 0.034998 -0.042377 0.096629 -0.175097 -0.154894 0.006801 0.190206 -0.046747 0.021896 0.006535 -0.073276 -0.111237 0.054531 -0.064812 0.054358 -0.132056 0.026235 0.041678 -0.009379 0.038052 0.004124 0.164426 -0.097490 0.109147 -0.187563 0.149681 -0.025085 -0.048140 -0.017211 0.025407 -0.165016 -0.098585 -0.020949 -0.010685 0.005116 0.150166 -0.166318 0.083243 0.040101 0.029786 0.022944 -0.157279 -0.023118 -0.252864 0.206806 -0.000458 -0.136363 0.117742 0.052487 -0.017547 -0.045050 0.027348 0.014105 0.021706 0.034470 0.142732 0.148190 -0.060292 -0.023922 -0.029171 -0.001344 -0.039405 0.022838 -0.134356 0.134467 -0.053659 0.168986 -0.160653 -0.063937 -0.001306 -0.023364 0.036723 -0.126035 -0.142219 0.151759 0.216497 0.081453
110 0.103230 -0.334464 0.113857 -0.096872 0.145153 -0.060008 0.143386 0.217329 -0.132686 -0.179344 -0.038794 -0.138817 0.015066 -0.185846 -0.082449 -0.236947 0.188033 -0.043592 0.214323 0.093647 0.115477 0.119810 -0.104267 0.122485 -0.101962 0.110103 0.099873 -0.015615 -0.092736 -0.081735 -0.060799 -0.238035 -0.211448 -0.050166 0.147775 0.094464 -0.086886 -0.166755 0.019471 -0.220569 -0.196658 0.106285 -0.003886 0.111571 -0.096971 -0.022384 0.034782 -0.216510 -0.020034 -0.230911 -0.314831 -0.036097 -0.184769 0.120449 -0.069991 -0.292909 -0.156111 0.299115 -0.186096 0.037396 -0.172847 -0.007093 -0.206497 0.129329 -0.149834 -0.029105 -0.303634 0.122759 -0.033967 -0.026438 -0.053015 -0.096468 0.074373 0.026584 -0.196373 -0.164283 0.032145 0.053232 0.114148 -0.092835 -0.081268 -0.257318 -0.131412 -0.048611 0.069211 0.065405 0.079061 -0.276335 0.117100 -0.111890 0.159565 0.053588 -0.276193 -0.049408 -0.066099 0.205655 0.139981 -0.050315 0.156481 0.067250 0.019055 -0.050546 0.291513 0.176934 -0.018539 0.055035 0.207339 0.067383 0.092357 0.059308 0.135080 0.066153 -0.058307 0.066090 -0.131915 0.256676 -0.212328 0.216755 0.047781 0.020192 0.072165 -0.104979 0.092105 -0.086013 -0.008642 0.111002 0.274510 0.189606
61 0.014348 -0.336089 0.082632 -0.330204 0.234223 0.077451 0.057810 0.130077 -0.010466 -0.049665 0.067751 0.124643 0.025877 -0.200170 0.113625 -0.536258 -0.045815 -0.274856 0.174136 -0.024499 0.197328 0.001587 -0.012224 0.011653 0.013784 -0.087143 -0.251063 0.140290 0.005045 -0.061852 -0.132499 -0.139318 -0.218226 0.036895 -0.021536 0.031577 0.056680 0.079806 0.012407 0.044191 0.080053 0.088933 0.214790 -0.000898 -0.084191 0.204067 -0.042789 -0.039029 0.051334 0.072992 -0.127663 0.022847 -0.020583 0.070804 -0.133633 -0.016771 0.091938 0.233629 -0.022625 0.021179 -0.032843 -0.219834 -0.043382 0.172638 -0.076443 0.123935 -0.292448 -0.188746 0.146227 0.043327 0.003814 0.017834 0.351921 -0.181601 0.252410 -0.218813 0.089383 -0.084010 0.013777 0.062969 0.052925 -0.016778 -0.191570 0.005952 -0.106977 -0.038809 0.188172 -0.199982 0.155157 -0.007847 0.015562 0.046904 -0.228705 -0.026869 -0.214567 0.242826 -0.017230 -0.186289 0.136245 -0.018927 -0.038971 0.010797 0.016636 0.118523 -0.103691 0.125452 0.039132 0.056839 -0.073121 -0.105687 0.019160 -0.004938 0.002746 0.050541 -0.079074 0.123274 -0.122653 0.162081 -0.102931 -0.025056 -0.120766 0.038743 0.083088 0.026471 -0.029532 0.060706 0.090536 0.165821
76 0.014850 -0.303258 0.105409 -0.208956 0.189195 0.027419 0.079667 0.138110 -0.056346 -0.094996 0.001987 0.012195 0.017016 -0.190273 0.042242 -0.331267 0.049504 -0.130083 0.148011 0.012806 0.138131 0.055900 -0.031524 0.047216 -0.054273 0.000730 -0.088325 0.066110 -0.048473 -0.094343 -0.076686 -0.163084 -0.199711 -0.020182 0.058687 0.062816 -0.003529 -0.023309 0.004457 -0.055525 -0.058135 0.093313 0.092046 0.023535 -0.078475 0.084021 0.007534 -0.099037 0.014767 -0.053440 -0.173105 -0.008719 -0.070976 0.089512 -0.113516 -0.126710 0.004956 0.220095 -0.073693 0.034042 -0.075413 -0.080682 -0.105487 0.112920 -0.117816 0.052614 -0.247760 -0.025112 0.063162 0.015987 0.010509 -0.030361 0.191949 -0.070313 0.044220 -0.169363 0.060602 -0.026197 0.045648 -0.014311 0.000836 -0.109651 -0.149909 0.003748 0.019489 0.010818 0.138279 -0.204822 0.134178 -0.046235 0.064027 0.026403 -0.221099 -0.042692 -0.149898 0.214493 0.044575 -0.100081 0.109712 0.018400 -0.013132 -0.029412 0.117025 0.099466 -0.025714 0.081068 0.105131 0.073362 -0.002007 -0.025458 0.037486 0.027638 -0.040101 0.049122 -0.094585 0.155896 -0.119007 0.135543 -0.034235 -0.012257 -0.016278 -0.016577 0.087176 -0.020952 -0.030590 0.093114 0.164267 0.129909
13 -0.012293 -0.236797 0.099541 -0.191786 0.003194 -0.021169 0.082173 0.057639 0.026483 0.059401 0.012945 0.124979 0.077746 -0.174071 0.010157 -0.332398 -0.067938 -0.285453 0.065845 -0.006053 0.185675 0.020582 0.037394 0.072849 0.060902 -0.030512 -0.057681 0.101378 0.035024 0.024376 -0.116260 0.026836 -0.206887 -0.065449 -0.033849 -0.162381 0.103178 0.095121 0.036578 -0.119285 -0.209601 -0.009458 0.134968 0.236394 -0.110774 0.181210 -0.032149 -0.128823 -0.053709 0.101738 -0.157217 0.082929 -0.037033 0.093148 -0.140351 -0.143721 -0.114385 0.192343 -0.010169 -0.044157 0.090440 -0.179372 -0.094321 0.085334 0.020563 0.030772 -0.147030 -0.035782 0.003075 -0.076671 -0.014870 -0.009540 0.241066 -0.140293 0.174477 -0.250322 0.178999 -0.047412 -0.122105 -0.034842 -0.037013 -0.219304 -0.073019 -0.073369 -0.183114 -0.017661 0.168734 -0.209519 0.048645 0.019420 0.097916 0.029090 -0.117475 0.000685 -0.291212 0.168083 -0.053083 -0.196101 0.226744 0.054624 -0.028024 -0.044024 0.029842 0.027356 -0.073322 0.053341 0.241143 0.162256 -0.094996 -0.052950 0.015631 -0.020401 -0.029732 0.042364 -0.138857 0.167808 -0.090991 0.269345 -0.214429 -0.127399 -0.070973 -0.075876 0.013090 -0.212028 -0.209130 0.144185 0.198007 0.156943
39 -0.324142 -0.043907 0.141934 -0.083106 0.228102 0.090485 -0.147362 -0.012257 0.083793 0.045065 -0.133993 0.069329 0.019801 -0.144134 0.076379 0.098128 -0.183649 0.217836 -0.207391 -0.043181 0.030259 0.156952 0.190270 0.089793 -0.197194 -0.025082 -0.009687 0.155453 -0.060193 -0.220553 0.160885 -0.108240 -0.453165 -0.180530 0.140930 0.007605 0.069299 0.076039 -0.067834 0.032206 -0.111720 0.263038 0.102479 -0.165576 -0.206952 0.143031 0.188500 -0.026813 0.034081 -0.059904 -0.125970 -0.041823 0.088156 0.104486 -0.349930 -0.292302 0.204780 0.204234 -0.111740 0.108636 -0.135184 0.159103 -0.237552 -0.175287 -0.305628 0.107175 0.122878 0.163669 0.115073 0.111266 0.274073 0.050026 0.047232 0.106806 0.086930 -0.097198 0.196938 -0.079554 -0.003295 -0.060793 0.194846 -0.189035 -0.193128 0.052743 0.283586 0.001492 0.417779 -0.060153 0.153160 0.197780 -0.025989 -0.123789 -0.165711 -0.036407 -0.459430 0.258098 -0.049698 -0.191110 -0.048602 0.273012 -0.157669 -0.115176 0.006649 -0.188152 0.314369 -0.093998 0.118514 0.254529 -0.230773 -0.012663 -0.253920 0.040431 -0.044044 -0.078263 -0.370689 -0.018647 0.024060 -0.069996 -0.290916 -0.189637 0.194016 -0.030447 0.039682 -0.150927 -0.103907 0.285081 0.268042 -0.216477
8 -0.041940 -0.234532 0.104128 -0.198053 0.055985 0.015347 0.057818 0.045678 0.012534 0.040641 0.000962 0.122939 0.059171 -0.161113 0.048221 -0.321865 -0.070936 -0.245645 0.054170 -0.024666 0.186189 0.025841 0.052521 0.056481 0.026057 -0.031268 -0.110899 0.117604 0.011723 -0.028016 -0.089246 -0.011740 -0.227095 -0.070195 -0.017958 -0.102252 0.089530 0.087356 0.028121 -0.074025 -0.162855 0.039435 0.134808 0.163140 -0.099515 0.177378 -0.032957 -0.103319 -0.036539 0.081657 -0.147635 0.058007 -0.030749 0.089625 -0.158243 -0.129975 -0.036512 0.195965 -0.023862 -0.009863 0.051287 -0.153796 -0.088179 0.081310 -0.009355 0.053176 -0.143562 -0.033740 0.027649 -0.039646 0.021769 0.001182 0.221042 -0.136358 0.181389 -0.219294 0.163341 -0.051727 -0.096200 -0.009531 0.007154 -0.170979 -0.092174 -0.040862 -0.109870 -0.004700 0.167790 -0.173272 0.073910 0.026956 0.051953 0.025328 -0.141172 -0.006046 -0.278074 0.187815 -0.037225 -0.180710 0.181258 0.037636 -0.017302 -0.044564 0.012625 0.022748 -0.031841 0.048125 0.183945 0.149819 -0.087407 -0.053615 -0.013408 -0.011604 -0.031711 0.033844 -0.131901 0.154511 -0.069621 0.219977 -0.195922 -0.100338 -0.050316 -0.052817 0.024367 -0.162949 -0.168993 0.139531 0.194912 0.115567
36 -0.256295 -0.070575 0.129013 -0.103770 0.182406 0.061104 -0.113911 -0.022085 0.085666 0.068100 -0.076928 0.095696 0.010098 -0.131794 0.073079 0.026217 -0.161491 0.103587 -0.154910 -0.053797 0.073105 0.103439 0.142221 0.077252 -0.129539 -0.032490 -0.042086 0.147089 -0.027373 -0.167491 0.109545 -0.083100 -0.418423 -0.126124 0.096899 -0.022717 0.077695 0.093121 -0.048574 0.017657 -0.095352 0.211516 0.132333 -0.068155 -0.184299 0.135477 0.134634 -0.033703 0.027877 -0.031671 -0.118233 -0.023459 0.060125 0.098064 -0.314688 -0.229767 0.189068 0.196850 -0.098583 0.086285 -0.087270 0.078631 -0.197445 -0.105251 -0.228843 0.103527 0.043401 0.107143 0.094174 0.076236 0.202327 0.027081 0.112618 0.035849 0.108339 -0.134707 0.206440 -0.076760 -0.019314 -0.028079 0.148149 -0.186765 -0.157256 0.036043 0.188734 -0.015229 0.355260 -0.082448 0.138805 0.159582 -0.035901 -0.095111 -0.158159 -0.025992 -0.413080 0.238726 -0.056689 -0.173846 -0.015755 0.228163 -0.123332 -0.111081 0.008495 -0.128452 0.238458 -0.049805 0.124758 0.218944 -0.202427 -0.007012 -0.177178 0.009174 -0.031318 -0.059077 -0.298712 0.011366 0.011432 -0.009918 -0.245921 -0.139473 0.130099 -0.023554 0.029002 -0.131430 -0.120562 0.223977 0.239361 -0.149999
115 0.071177 -0.352840 0.106531 -0.169138 0.209922 -0.003298 0.113252 0.216254 -0.114147 -0.175259 -0.022414 -0.089166 0.004767 -0.220006 -0.023316 -0.307171 0.138907 -0.052721 0.217941 0.066147 0.106800 0.107948 -0.072103 0.073615 -0.101832 0.053083 0.006275 0.009474 -0.087873 -0.109798 -0.080423 -0.243492 -0.189919 -0.037559 0.116971 0.119866 -0.053404 -0.111782 -0.005752 -0.126690 -0.100516 0.107629 0.033492 0.020557 -0.090404 0.021915 0.039948 -0.157010 0.009259 -0.174718 -0.253883 -0.046671 -0.126370 0.107535 -0.078321 -0.210987 -0.073422 0.264769 -0.136117 0.046599 -0.159341 -0.031359 -0.147139 0.136427 -0.168928 0.016627 -0.293849 0.051042 0.037766 0.004639 -0.029744 -0.059388 0.115643 -0.004035 -0.101059 -0.138971 0.016629 0.015966 0.119081 -0.048615 -0.041709 -0.166371 -0.151646 -0.012626 0.053664 0.029891 0.105107 -0.232733 0.137303 -0.099300 0.114941 0.021442 -0.259912 -0.050795 -0.072980 0.223494 0.109519 -0.071450 0.112620 0.042148 -0.015865 -0.034503 0.227488 0.151993 -0.024418 0.085750 0.119761 0.051173 0.040725 0.004213 0.088014 0.061563 -0.046190 0.039137 -0.116571 0.195065 -0.180345 0.160495 0.029501 0.008218 0.034691 -0.051466 0.101280 -0.025265 0.013068 0.092484 0.196683 0.162683
12 -0.050321 -0.231577 0.088688 -0.208472 0.098512 0.032086 0.025770 0.047943 0.024122 0.031524 0.025924 0.131871 0.044715 -0.167248 0.057348 -0.329200 -0.082156 -0.221861 0.064310 -0.032152 0.184619 0.027563 0.040365 0.044088 0.008256 -0.042239 -0.124374 0.125633 0.018941 -0.036681 -0.086200 -0.045852 -0.241250 -0.035483 -0.006786 -0.065348 0.073829 0.094998 0.010270 -0.039314 -0.093037 0.058639 0.152230 0.116012 -0.104676 0.172183 -0.020288 -0.085480 -0.006945 0.061776 -0.144145 0.046639 -0.030480 0.079261 -0.158748 -0.111493 0.013736 0.194717 -0.023511 0.003961 0.023781 -0.142970 -0.092807 0.084995 -0.038911 0.065810 -0.166733 -0.062944 0.054945 -0.008753 0.029317 0.008715 0.247851 -0.132775 0.190268 -0.208408 0.155380 -0.052088 -0.055840 0.010418 0.015627 -0.137929 -0.118112 -0.030581 -0.099804 -0.016595 0.176899 -0.182784 0.084466 0.019981 0.033770 0.025305 -0.153732 -0.014696 -0.263238 0.194394 -0.036299 -0.178416 0.156512 0.049517 -0.041360 -0.039394 0.016186 0.033204 -0.035949 0.055951 0.144955 0.132671 -0.091919 -0.066130 -0.007174 -0.020796 -0.012210 0.035285 -0.119085 0.133469 -0.071916 0.187072 -0.174869 -0.084180 -0.062077 -0.028088 0.035264 -0.109714 -0.136871 0.117333 0.157917 0.107817
35 -0.251557 -0.083110 0.115342 -0.127348 0.182328 0.087256 -0.110437 -0.033754 0.079844 0.082054 -0.070897 0.125544 0.021486 -0.139321 0.098529 -0.031968 -0.165628 0.060675 -0.143711 -0.063692 0.093805 0.088792 0.144503 0.061602 -0.103411 -0.046592 -0.081095 0.158610 -0.026684 -0.150722 0.078052 -0.072731 -0.415283 -0.123051 0.072150 -0.029706 0.088547 0.119211 -0.034361 0.052216 -0.084106 0.202425 0.158228 -0.069069 -0.178315 0.159408 0.097482 -0.028007 0.027391 0.013870 -0.109154 -0.010744 0.055964 0.102323 -0.312937 -0.203019 0.197701 0.199754 -0.064676 0.083785 -0.061872 0.034770 -0.168069 -0.083827 -0.206244 0.109418 0.014485 0.066479 0.109933 0.079426 0.208383 0.041998 0.135740 0.001909 0.178204 -0.144745 0.199140 -0.089148 -0.038397 -0.008476 0.149244 -0.146885 -0.157724 0.038960 0.159052 -0.018169 0.343889 -0.086155 0.135977 0.150989 -0.049423 -0.091638 -0.159631 -0.035268 -0.411319 0.237259 -0.064030 -0.188679 0.009745 0.192788 -0.111779 -0.101904 -0.035153 -0.127647 0.212421 -0.035844 0.109688 0.220665 -0.208608 -0.039405 -0.172919 -0.003862 -0.031913 -0.042780 -0.278673 0.025472 0.023584 0.000937 -0.262233 -0.151608 0.106356 -0.004103 0.038214 -0.125569 -0.134571 0.231695 0.233579 -0.123966
84 -0.240450 -0.125822 0.137859 -0.117864 0.226141 0.127817 -0.143093 -0.063609 0.062511 0.054928 -0.027854 0.106510 -0.027449 -0.158641 0.120753 -0.022175 -0.110656 0.038220 -0.116677 -0.112570 0.159881 0.059399 0.093402 0.043540 -0.142488 -0.012629 -0.153590 0.163517 -0.052573 -0.189875 0.060041 -0.147018 -0.436333 -0.099947 0.099057 0.049186 0.061939 0.127095 -0.047074 0.071168 -0.044102 0.218596 0.109759 -0.059205 -0.159643 0.099525 0.038984 -0.037390 0.055731 -0.047696 -0.157179 -0.012464 -0.032637 0.118425 -0.325215 -0.173252 0.274883 0.210378 -0.064445 0.119741 -0.102678 0.060155 -0.170449 -0.016358 -0.197323 0.105994 -0.083479 0.074478 0.109974 0.084099 0.180822 0.035568 0.097052 -0.042783 0.139869 -0.106309 0.192006 -0.056459 0.028759 0.029665 0.139291 -0.083740 -0.143248 0.069271 0.199860 -0.010633 0.223152 -0.099276 0.154614 0.083634 -0.129742 -0.080262 -0.186105 -0.065104 -0.306763 0.261385 -0.019502 -0.137804 -0.027059 0.155600 -0.075515 -0.115247 -0.035701 -0.071543 0.216309 -0.005071 0.028883 0.168799 -0.149964 -0.045327 -0.136569 -0.044500 -0.019297 -0.018379 -0.207617 0.050025 0.032112 0.015750 -0.194184 -0.053843 0.090747 0.069884 0.060801 -0.065495 -0.138470 0.221616 0.279341 -0.125884
10 -0.080674 -0.194966 0.091767 -0.197447 0.058241 0.023825 0.015662 0.009007 0.068278 0.086193 0.035664 0.180065 0.055145 -0.158127 0.057308 -0.313718 -0.130997 -0.265574 0.012293 -0.042097 0.211503 0.008497 0.069460 0.060556 0.043075 -0.051842 -0.134575 0.149697 0.047985 -0.012770 -0.086595 0.005470 -0.270713 -0.046386 -0.034672 -0.143819 0.120620 0.141579 0.018347 -0.048165 -0.134396 0.046474 0.182393 0.178543 -0.123218 0.207391 -0.030804 -0.084567 -0.017544 0.108540 -0.130416 0.072347 0.001118 0.086713 -0.193078 -0.113337 0.021405 0.188254 -0.012966 -0.011417 0.069379 -0.163252 -0.102679 0.063570 -0.000090 0.075319 -0.119651 -0.067611 0.035062 -0.036706 0.046734 0.014019 0.275511 -0.161101 0.259887 -0.234239 0.208174 -0.076467 -0.119264 0.012962 0.023241 -0.175663 -0.093476 -0.041023 -0.143449 -0.031978 0.208668 -0.171612 0.069653 0.062860 0.021993 0.022092 -0.118834 0.006410 -0.340693 0.188211 -0.084453 -0.215241 0.179755 0.078703 -0.045086 -0.052663 -0.036877 -0.009217 -0.025489 0.042848 0.191336 0.178258 -0.150504 -0.069614 -0.018714 -0.046268 -0.000624 0.026252 -0.143269 0.132049 -0.044627 0.217793 -0.243540 -0.118485 -0.065913 -0.043449 0.006577 -0.172960 -0.193853 0.141802 0.186775 0.088993
9 -0.073918 -0.183331 0.080864 -0.164138 0.025135 -0.008332 0.018040 0.022369 0.070549 0.088570 0.024610 0.156277 0.062046 -0.169606 0.014394 -0.274770 -0.118267 -0.240623 0.017951 -0.016323 0.180800 0.024048 0.063866 0.064506 0.051948 -0.037896 -0.064243 0.122646 0.053290 0.023550 -0.080285 0.029993 -0.261596 -0.057289 -0.020602 -0.174361 0.118212 0.134242 0.015667 -0.082361 -0.173553 0.020143 0.159173 0.214701 -0.142370 0.188956 -0.017664 -0.107485 -0.029170 0.094966 -0.144984 0.070104 -0.008734 0.092676 -0.177572 -0.143875 -0.031570 0.187363 -0.014867 -0.030090 0.065222 -0.152218 -0.120390 0.052684 -0.000570 0.043545 -0.097735 -0.034501 0.011564 -0.045984 0.026285 0.012706 0.262136 -0.128535 0.213357 -0.242760 0.209239 -0.057133 -0.115897 -0.006095 -0.000963 -0.222378 -0.087306 -0.070233 -0.154841 -0.032922 0.215641 -0.194325 0.052041 0.055355 0.050409 0.015977 -0.103609 0.008436 -0.343633 0.171024 -0.082787 -0.214643 0.198653 0.106028 -0.061590 -0.065352 -0.010398 -0.014416 -0.014797 0.039219 0.226341 0.198045 -0.155279 -0.064806 -0.005677 -0.040524 0.006650 0.019986 -0.161823 0.136032 -0.060274 0.227353 -0.256806 -0.133599 -0.056254 -0.069432 -0.008437 -0.214887 -0.218703 0.153371 0.198849 0.095466
112 0.046071 -0.345685 0.128972 -0.149345 0.204515 -0.004217 0.106609 0.195783 -0.113282 -0.185106 -0.027423 -0.102468 -0.016199 -0.210428 -0.028120 -0.243326 0.145297 -0.026291 0.184320 0.059891 0.118657 0.107135 -0.076191 0.077332 -0.128608 0.078965 0.019828 0.013550 -0.094325 -0.140751 -0.063611 -0.249450 -0.209418 -0.049483 0.141114 0.128101 -0.051440 -0.122590 -0.010361 -0.148341 -0.134678 0.109852 0.003726 0.037915 -0.088426 -0.013018 0.047679 -0.159267 0.007266 -0.212722 -0.266284 -0.042165 -0.135009 0.117726 -0.098970 -0.241172 -0.067364 0.258779 -0.150267 0.045614 -0.163766 0.006742 -0.173882 0.124627 -0.174362 -0.002932 -0.273677 0.092268 0.029438 0.000393 -0.025462 -0.064723 0.093144 0.005469 -0.152418 -0.134811 0.029439 0.029686 0.130609 -0.059181 -0.043583 -0.198238 -0.141114 -0.011720 0.100204 0.045866 0.085206 -0.235700 0.142763 -0.093993 0.112184 0.029468 -0.262878 -0.051101 -0.078185 0.223969 0.118058 -0.045310 0.098062 0.056224 -0.010679 -0.046410 0.231719 0.141527 0.007415 0.071281 0.136271 0.062754 0.051643 0.027684 0.077234 0.048250 -0.047282 0.043210 -0.116093 0.203510 -0.165915 0.163545 0.030443 0.017034 0.055643 -0.052823 0.107978 -0.039121 -0.007037 0.109171 0.235470 0.150055
38 -0.306079 -0.053942 0.157822 -0.078977 0.199497 0.075169 -0.136778 -0.012570 0.084669 0.038862 -0.147203 0.060507 0.038914 -0.154355 0.056720 0.112140 -0.164971 0.224022 -0.206850 -0.036627 0.004427 0.170354 0.199180 0.097116 -0.202976 -0.022587 0.023803 0.118655 -0.066484 -0.225293 0.157528 -0.101183 -0.437107 -0.207064 0.126876 -0.000529 0.052998 0.057754 -0.071090 0.011464 -0.159604 0.253088 0.089579 -0.157098 -0.209993 0.133450 0.208469 -0.049914 0.017287 -0.067534 -0.130618 -0.039525 0.071370 0.106090 -0.348128 -0.319725 0.174763 0.188030 -0.123489 0.112287 -0.118365 0.160792 -0.224744 -0.188111 -0.300275 0.100611 0.139690 0.182439 0.095133 0.100517 0.267492 0.036649 0.019618 0.116210 0.048316 -0.100500 0.196392 -0.075030 -0.013923 -0.084722 0.181433 -0.199450 -0.187442 0.063590 0.289484 0.009649 0.413168 -0.075776 0.147026 0.184265 -0.003031 -0.138292 -0.171036 -0.043003 -0.460974 0.258287 -0.044806 -0.191391 -0.040593 0.272978 -0.154006 -0.113143 0.035684 -0.198892 0.306347 -0.104233 0.130376 0.246407 -0.217981 0.004100 -0.267452 0.052237 -0.058939 -0.083062 -0.373851 -0.031938 0.034446 -0.068289 -0.290104 -0.196346 0.211627 -0.040810 0.029357 -0.166322 -0.123187 0.304925 0.261301 -0.212847
3 -0.054034 -0.197014 0.087368 -0.177547 0.029973 -0.007682 0.046143 0.039754 0.032816 0.068243 0.015322 0.134767 0.057717 -0.165485 0.021665 -0.307117 -0.083723 -0.251957 0.046634 -0.012003 0.187588 0.025048 0.050080 0.072283 0.053665 -0.031519 -0.067949 0.123520 0.043017 0.012318 -0.087517 0.008128 -0.254697 -0.054277 -0.022419 -0.147326 0.098376 0.105517 0.030870 -0.089247 -0.163594 0.024230 0.159065 0.205280 -0.125108 0.185158 -0.021178 -0.112130 -0.039710 0.087836 -0.143721 0.061031 -0.026054 0.089019 -0.165241 -0.146132 -0.048331 0.197710 -0.026546 -0.020769 0.050431 -0.149220 -0.106646 0.075486 -0.004192 0.043591 -0.130005 -0.028078 0.015254 -0.048568 0.026183 0.000415 0.241618 -0.119973 0.195684 -0.233972 0.188519 -0.055214 -0.102461 -0.013016 -0.007534 -0.209868 -0.086393 -0.068981 -0.142024 -0.020223 0.200925 -0.185815 0.049134 0.038193 0.065847 0.027192 -0.127727 0.001783 -0.312366 0.177518 -0.068072 -0.190060 0.200226 0.076607 -0.038773 -0.047504 0.004310 0.003267 -0.031982 0.044713 0.220943 0.175031 -0.116589 -0.052582 0.008592 -0.025351 -0.009686 0.024209 -0.146617 0.154778 -0.070838 0.219003 -0.216334 -0.122526 -0.056513 -0.077724 0.000614 -0.195623 -0.191029 0.128713 0.188329 0.113659
37 -0.278796 -0.071902 0.144618 -0.084980 0.194250 0.070646 -0.118688 -0.016250 0.070567 0.044102 -0.097025 0.073763 0.009918 -0.147563 0.063838 0.062190 -0.134794 0.152539 -0.150317 -0.056488 0.056386 0.123636 0.144625 0.084071 -0.157385 -0.010121 -0.010853 0.134530 -0.046480 -0.185881 0.120779 -0.101638 -0.417778 -0.148652 0.130642 0.003229 0.060220 0.059552 -0.050179 0.012314 -0.122575 0.230841 0.098073 -0.088585 -0.187862 0.108507 0.142868 -0.042728 0.019349 -0.073771 -0.142930 -0.040345 0.040587 0.118502 -0.325058 -0.260274 0.182120 0.203093 -0.112133 0.097504 -0.114602 0.120924 -0.220500 -0.105438 -0.259985 0.094079 0.039565 0.154008 0.084442 0.086394 0.222207 0.024544 0.062814 0.076117 0.067265 -0.115495 0.186441 -0.065221 -0.003908 -0.041055 0.141772 -0.194968 -0.166297 0.040008 0.247721 0.001186 0.341219 -0.083231 0.140673 0.142367 -0.030617 -0.104153 -0.176241 -0.042439 -0.388600 0.243709 -0.034578 -0.158826 -0.030908 0.224324 -0.117261 -0.125376 0.019831 -0.142222 0.269417 -0.058911 0.132353 0.229003 -0.193596 0.006673 -0.174860 0.021852 -0.034972 -0.060761 -0.300560 0.017121 0.018461 -0.029139 -0.235244 -0.145407 0.165334 -0.029238 0.039858 -0.140265 -0.114689 0.244513 0.258326 -0.160309
16 -0.043745 -0.216623 0.153229 -0.170191 -0.098297 -0.029012 0.151925 -0.026501 -0.055159 0.036002 -0.124513 0.093715 0.129287 -0.100077 0.031358 -0.261616 -0.077905 -0.310784 -0.028527 -0.033741 0.197825 0.028455 0.125607 0.076868 0.044243 0.009543 -0.071591 0.086755 -0.021625 -0.089122 -0.077012 0.109931 -0.196281 -0.253922 -0.038469 -0.149805 0.085298 0.033237 0.074013 -0.231031 -0.426279 0.021606 0.088879 0.282097 -0.051091 0.194958 -0.054717 -0.166539 -0.172192 0.135967 -0.162649 0.122865 -0.067919 0.104188 -0.154248 -0.239674 -0.210505 0.214328 -0.037697 -0.037107 0.169080 -0.159565 -0.074858 0.038132 0.077981 0.027117 -0.087300 0.093697 -0.048446 -0.108035 0.047159 -0.015267 0.134353 -0.176475 0.145754 -0.289572 0.225151 -0.006093 -0.244937 -0.082575 -0.012960 -0.296484 -0.016470 -0.111885 -0.096504 0.062877 0.108289 -0.167854 0.007549 0.083201 0.112435 0.098735 -0.126840 0.007327 -0.339617 0.226340 0.014719 -0.130929 0.252829 -0.044089 0.092895 -0.031396 0.021454 -0.015697 -0.046685 0.007100 0.285263 0.231622 -0.001682 0.011482 -0.059348 0.055026 -0.141578 0.050464 -0.117017 0.240233 -0.022835 0.326663 -0.247493 -0.136198 -0.009098 -0.126007 -0.018408 -0.307568 -0.257446 0.239879 0.282905 0.161848
111 0.077352 -0.353512 0.124555 -0.140049 0.170210 -0.024602 0.132860 0.224517 -0.123044 -0.189564 -0.032951 -0.117118 0.004367 -0.222432 -0.066891 -0.264532 0.168985 -0.046807 0.206013 0.079956 0.098107 0.126504 -0.087293 0.099985 -0.109303 0.082476 0.073814 -0.018222 -0.091426 -0.106665 -0.076918 -0.236570 -0.182455 -0.062631 0.135396 0.094083 -0.057239 -0.144589 0.002508 -0.199781 -0.191035 0.087759 -0.008196 0.080187 -0.096778 -0.010189 0.050125 -0.202775 -0.013431 -0.207346 -0.289325 -0.034572 -0.159110 0.121324 -0.077178 -0.281177 -0.147731 0.274865 -0.156946 0.022877 -0.145941 -0.006130 -0.186461 0.130649 -0.157917 -0.020237 -0.271164 0.107277 0.002100 -0.024310 -0.050461 -0.077249 0.087319 0.021902 -0.177175 -0.158426 0.029656 0.036144 0.110733 -0.086535 -0.080725 -0.230764 -0.137474 -0.034506 0.058947 0.048782 0.082716 -0.266402 0.126051 -0.106979 0.160447 0.030057 -0.254347 -0.048548 -0.076970 0.211442 0.125397 -0.063499 0.137512 0.058886 -0.007982 -0.048095 0.263848 0.146055 -0.021753 0.074796 0.179758 0.072234 0.066371 0.038129 0.091829 0.062709 -0.056955 0.050428 -0.128100 0.223958 -0.193042 0.195644 0.029858 0.000196 0.056997 -0.077485 0.096948 -0.080932 -0.025132 0.114905 0.242430 0.185423
24 -0.049631 -0.250400 0.100018 -0.244980 0.154145 0.057392 0.017532 0.069485 0.031751 0.015329 0.040722 0.140862 0.045093 -0.185388 0.087075 -0.381991 -0.095134 -0.230205 0.071492 -0.034863 0.182137 0.020224 0.043033 0.039109 0.006293 -0.066231 -0.180546 0.135149 0.013867 -0.050323 -0.092681 -0.068050 -0.242808 -0.019549 -0.016824 -0.047932 0.089364 0.111574 0.000568 0.011603 -0.026011 0.080864 0.175606 0.052335 -0.104751 0.195371 -0.016988 -0.049418 0.017327 0.082499 -0.110318 0.039643 -0.002029 0.077800 -0.164432 -0.069425 0.075808 0.188265 -0.015306 0.012733 0.017493 -0.159682 -0.068444 0.082529 -0.065904 0.095834 -0.165607 -0.102963 0.096793 0.020429 0.045900 0.023462 0.277477 -0.141526 0.235342 -0.209340 0.138884 -0.083108 -0.045578 0.030437 0.057652 -0.084737 -0.146976 -0.000720 -0.084050 -0.034562 0.204040 -0.164872 0.115960 0.042776 0.008064 0.011393 -0.162004 -0.016191 -0.279303 0.213842 -0.053822 -0.193730 0.128018 0.044878 -0.059430 -0.019169 -0.005782 0.031064 -0.036964 0.073536 0.095379 0.118888 -0.112328 -0.084071 -0.032687 -0.023004 -0.006162 0.028288 -0.125913 0.089298 -0.067049 0.147949 -0.178128 -0.077025 -0.073827 0.004593 0.042704 -0.072582 -0.105827 0.113461 0.131648 0.090229
60 -0.064814 -0.250243 0.100041 -0.270596 0.220335 0.100223 0.000360 0.075354 0.017733 -0.008311 0.033290 0.121057 0.014011 -0.172665 0.123074 -0.371990 -0.082225 -0.178064 0.070250 -0.062562 0.177420 0.021490 0.028896 0.023123 -0.038131 -0.066835 -0.222004 0.154517 -0.006824 -0.087686 -0.071248 -0.127911 -0.261978 -0.001040 0.011980 0.029892 0.061218 0.098687 -0.011938 0.063768 0.037266 0.136270 0.181519 -0.027325 -0.097421 0.186862 -0.009201 -0.038640 0.048795 0.053980 -0.125274 0.004761 -0.014526 0.079075 -0.186662 -0.058296 0.153752 0.205937 -0.034111 0.045931 -0.029316 -0.128637 -0.080778 0.100000 -0.111625 0.122568 -0.208392 -0.102222 0.125575 0.062323 0.069321 0.023369 0.279616 -0.130531 0.242732 -0.189728 0.108045 -0.084453 0.001520 0.054186 0.089345 -0.019741 -0.178769 0.035560 -0.003411 -0.024530 0.204932 -0.154855 0.147434 0.031638 -0.012658 -0.001448 -0.217752 -0.047199 -0.255834 0.240337 -0.026803 -0.182321 0.090405 0.037426 -0.051970 -0.027903 -0.007803 0.047780 0.006997 0.075071 0.039299 0.101893 -0.100200 -0.090544 -0.037425 -0.026028 -0.016678 0.027274 -0.133259 0.085964 -0.073417 0.115531 -0.146167 -0.056929 -0.058188 0.049234 0.078450 -0.006932 -0.068142 0.114398 0.152986 0.075237
117 0.078314 -0.305378 0.107635 -0.087130 0.125758 -0.057895 0.120861 0.177517 -0.121139 -0.171002 -0.045667 -0.120051 0.009203 -0.175630 -0.075147 -0.197325 0.155918 -0.040064 0.177466 0.076202 0.118976 0.108622 -0.086112 0.105374 -0.098568 0.112529 0.083780 -0.004233 -0.087729 -0.105468 -0.054664 -0.207273 -0.207360 -0.077779 0.134654 0.081294 -0.075189 -0.144408 0.024754 -0.209905 -0.209138 0.099557 -0.005209 0.118116 -0.096298 -0.014601 0.029448 -0.206674 -0.028228 -0.217686 -0.295042 -0.025369 -0.154717 0.123640 -0.087170 -0.294456 -0.143143 0.286211 -0.181637 0.032666 -0.156267 0.001388 -0.201569 0.108564 -0.144279 -0.017424 -0.270000 0.135457 -0.025928 -0.024585 -0.042679 -0.079881 0.066628 0.008853 -0.176587 -0.159027 0.049874 0.047054 0.094740 -0.086002 -0.064786 -0.265832 -0.122970 -0.052182 0.072370 0.063741 0.079607 -0.260257 0.113628 -0.086988 0.148877 0.055886 -0.259867 -0.046516 -0.094468 0.206359 0.132760 -0.055018 0.142576 0.066212 0.017292 -0.052002 0.257116 0.143266 0.000756 0.050945 0.203352 0.089427 0.075038 0.059616 0.110053 0.068000 -0.052510 0.059741 -0.136431 0.253064 -0.185189 0.214292 0.024167 0.017130 0.080998 -0.101854 0.080196 -0.098166 -0.032044 0.131352 0.273765 0.170161
20 0.052027 -0.298520 0.108342 -0.102111 0.046607 -0.054880 0.155036 0.138908 -0.126998 -0.141217 -0.063803 -0.088123 0.037004 -0.165489 -0.064882 -0.242159 0.127847 -0.121224 0.159930 0.053107 0.161118 0.073869 -0.055832 0.090406 -0.060054 0.110614 0.045543 0.013504 -0.071857 -0.118501 -0.080606 -0.137374 -0.166575 -0.117712 0.107797 0.047793 -0.039148 -0.125601 0.030596 -0.242341 -0.270677 0.060280 -0.016697 0.172066 -0.061481 0.008509 -0.000724 -0.197199 -0.070546 -0.160832 -0.274302 0.003983 -0.146900 0.103236 -0.077904 -0.267974 -0.184092 0.228644 -0.147254 0.005242 -0.071439 -0.021685 -0.149711 0.111007 -0.076224 -0.031217 -0.241185 0.134923 -0.046851 -0.043259 -0.052627 -0.057500 0.059870 -0.043555 -0.139566 -0.170359 0.077792 0.061131 0.021196 -0.080584 -0.076128 -0.289376 -0.077404 -0.087445 0.023273 0.068137 0.028623 -0.235422 0.058922 -0.061512 0.149868 0.083059 -0.223278 -0.030999 -0.100253 0.202977 0.121142 -0.043516 0.170155 0.022474 0.048479 -0.043676 0.205963 0.133979 -0.033091 0.059566 0.221189 0.117884 0.093261 0.062157 0.087012 0.059224 -0.080902 0.059601 -0.109548 0.266368 -0.146603 0.266128 -0.011675 0.008438 0.049659 -0.109091 0.061655 -0.150814 -0.080672 0.140174 0.275388 0.196861
119 0.036107 -0.264611 0.097270 -0.087496 0.163166 -0.012856 0.066478 0.132602 -0.094536 -0.140416 -0.028595 -0.094332 -0.013102 -0.163416 -0.039963 -0.171948 0.113063 -0.023062 0.133162 0.046283 0.120677 0.093645 -0.073670 0.088335 -0.110519 0.091615 0.033710 0.012221 -0.076831 -0.104837 -0.043539 -0.219950 -0.246644 -0.052337 0.134132 0.101895 -0.059262 -0.102978 0.003067 -0.142872 -0.136819 0.120147 0.018157 0.067507 -0.100417 -0.000869 0.018203 -0.169882 -0.000819 -0.194388 -0.273593 -0.028852 -0.147635 0.114854 -0.118255 -0.256066 -0.057119 0.270310 -0.153513 0.058395 -0.161760 0.009649 -0.185755 0.105051 -0.149300 -0.006349 -0.260847 0.105717 0.004914 0.011838 -0.012251 -0.067903 0.075434 -0.001459 -0.133619 -0.135877 0.048092 0.026528 0.112091 -0.048030 -0.035417 -0.196529 -0.127272 -0.021237 0.087984 0.050058 0.072444 -0.221933 0.128805 -0.076224 0.078327 0.032882 -0.246635 -0.049663 -0.085292 0.197261 0.111069 -0.060256 0.102131 0.072967 -0.002942 -0.057552 0.200441 0.127647 0.029427 0.046314 0.134988 0.074380 0.040724 0.028146 0.078763 0.039240 -0.039473 0.049047 -0.132591 0.203845 -0.148191 0.167987 0.005608 0.026307 0.076947 -0.047799 0.094946 -0.057996 -0.024482 0.122106 0.266717 0.127755
62 -0.004016 -0.294278 0.092005 -0.264192 0.219797 0.068687 0.034844 0.123653 -0.017165 -0.063149 0.039909 0.069934 0.009551 -0.189458 0.083749 -0.387118 -0.022044 -0.167741 0.135684 -0.012046 0.149355 0.033217 -0.011815 0.025362 -0.030467 -0.049380 -0.175680 0.114618 -0.019447 -0.077171 -0.095741 -0.155661 -0.221137 0.015743 0.027740 0.056110 0.034134 0.043070 -0.004708 0.028158 0.023242 0.102812 0.148129 -0.012155 -0.088965 0.138457 -0.004916 -0.052799 0.046207 0.003030 -0.150327 -0.001234 -0.035591 0.087247 -0.138458 -0.074651 0.075557 0.221668 -0.042390 0.037869 -0.057948 -0.135351 -0.077479 0.133799 -0.118596 0.093086 -0.245631 -0.102068 0.118200 0.037215 0.014858 0.000800 0.271040 -0.109769 0.151777 -0.179467 0.077138 -0.068933 0.037064 0.037141 0.042888 -0.045771 -0.172723 0.020168 -0.030672 -0.019098 0.169848 -0.178174 0.158846 -0.019695 0.027009 0.006075 -0.219974 -0.032900 -0.197284 0.226520 -0.000801 -0.145670 0.096767 0.019276 -0.051382 -0.013459 0.038024 0.084798 -0.034287 0.102618 0.051416 0.063703 -0.062224 -0.074129 -0.001820 -0.005148 -0.009881 0.038669 -0.093026 0.107458 -0.108451 0.121517 -0.080616 -0.034942 -0.066076 0.030337 0.084171 0.009322 -0.035784 0.077851 0.129573 0.109642
114 0.084287 -0.350558 0.113135 -0.111171 0.165207 -0.023866 0.122992 0.209874 -0.133076 -0.173220 -0.033324 -0.118677 0.001422 -0.190231 -0.047191 -0.237602 0.202243 -0.026775 0.213911 0.070507 0.107854 0.118517 -0.103875 0.107732 -0.105327 0.102603 0.071747 -0.025436 -0.112560 -0.106503 -0.066483 -0.258851 -0.210436 -0.051254 0.136549 0.112170 -0.087406 -0.153206 0.014677 -0.180804 -0.164055 0.098675 -0.001250 0.074658 -0.090179 -0.028836 0.012909 -0.204043 -0.014262 -0.227605 -0.303870 -0.034366 -0.189006 0.124594 -0.071943 -0.258584 -0.126659 0.285055 -0.169159 0.053173 -0.173244 0.001282 -0.174590 0.144653 -0.175404 -0.009708 -0.333409 0.123658 -0.008204 -0.009378 -0.044002 -0.096814 0.055506 0.027517 -0.182021 -0.138171 0.021545 0.044909 0.129782 -0.082536 -0.071385 -0.219421 -0.132363 -0.032895 0.089001 0.053403 0.072449 -0.261229 0.123775 -0.125747 0.137473 0.023222 -0.282981 -0.064057 -0.028541 0.223389 0.151723 -0.041871 0.134565 0.048376 0.006301 -0.056756 0.274276 0.174721 -0.005054 0.069768 0.164633 0.060828 0.090504 0.052622 0.123924 0.065711 -0.075354 0.051080 -0.125794 0.243701 -0.191800 0.182684 0.061009 0.028085 0.077254 -0.076905 0.122969 -0.066484 -0.018222 0.124220 0.270967 0.180380
122 0.109717 -0.319548 0.092221 -0.072619 0.119048 -0.069973 0.141650 0.206257 -0.144198 -0.188223 -0.044684 -0.145605 0.021451 -0.177585 -0.094269 -0.229842 0.194552 -0.047398 0.217147 0.105988 0.112857 0.109941 -0.110563 0.114007 -0.096740 0.131712 0.113218 -0.027416 -0.092521 -0.097645 -0.071589 -0.233656 -0.216731 -0.067061 0.142720 0.092484 -0.091398 -0.176036 0.029833 -0.228241 -0.215348 0.104599 0.004316 0.129554 -0.103020 -0.024940 0.014546 -0.227243 -0.032116 -0.233292 -0.316979 -0.029339 -0.178973 0.121371 -0.069617 -0.309702 -0.176779 0.307274 -0.192073 0.037956 -0.169094 -0.013464 -0.200022 0.128236 -0.147347 -0.026214 -0.306882 0.130940 -0.035001 -0.024723 -0.055438 -0.093326 0.076994 0.010108 -0.194560 -0.168476 0.041917 0.057681 0.105145 -0.091406 -0.077166 -0.283232 -0.123518 -0.061601 0.054262 0.066492 0.077488 -0.282809 0.109753 -0.102548 0.166797 0.064457 -0.283602 -0.047885 -0.069913 0.210617 0.149568 -0.052898 0.167671 0.059079 0.029646 -0.047709 0.290634 0.182681 -0.030610 0.058933 0.216191 0.083220 0.099018 0.066355 0.138854 0.075801 -0.065041 0.069716 -0.135472 0.281561 -0.211047 0.227689 0.046296 0.026159 0.081647 -0.117834 0.091861 -0.103521 -0.013572 0.120348 0.291221 0.206339
77 0.010850 -0.301288 0.095602 -0.224922 0.220465 0.062545 0.039112 0.138866 -0.042570 -0.089805 0.034958 0.030036 -0.007344 -0.190171 0.060725 -0.357768 0.029281 -0.134258 0.151360 -0.000801 0.146493 0.047802 -0.037466 0.037688 -0.055040 -0.014495 -0.138903 0.089605 -0.037026 -0.093336 -0.086703 -0.191170 -0.230638 0.013111 0.054040 0.074950 0.014457 0.011375 -0.013224 -0.011514 0.006697 0.122016 0.123363 -0.007641 -0.092137 0.101264 -0.000070 -0.079531 0.047292 -0.052312 -0.186622 -0.012012 -0.073734 0.085615 -0.135384 -0.113589 0.072634 0.233016 -0.076037 0.047427 -0.100006 -0.100244 -0.103334 0.138476 -0.130664 0.073224 -0.269278 -0.056554 0.095741 0.040952 0.000809 -0.010606 0.233511 -0.087001 0.089094 -0.168720 0.058522 -0.045671 0.071506 0.026397 0.028933 -0.065393 -0.175775 0.018653 0.012460 -0.008495 0.135029 -0.195479 0.152909 -0.032518 0.030460 0.017556 -0.232806 -0.042700 -0.145866 0.225483 0.036142 -0.121694 0.090337 0.024462 -0.039836 -0.028951 0.087318 0.112399 -0.020289 0.103561 0.051223 0.061824 -0.034928 -0.054384 0.030461 0.001237 -0.015466 0.047160 -0.098128 0.131583 -0.124394 0.129691 -0.047736 -0.006453 -0.039808 0.025777 0.095428 0.019388 -0.023257 0.083146 0.153317 0.123236
63 -0.078495 -0.271223 0.126651 -0.289288 0.234699 0.107165 0.004607 0.077064 0.020395 -0.007353 0.039330 0.123191 0.014885 -0.194118 0.123385 -0.385776 -0.078170 -0.180225 0.069623 -0.056494 0.178881 0.035396 0.029305 0.032468 -0.044053 -0.071534 -0.218954 0.152193 -0.009824 -0.096647 -0.066903 -0.134842 -0.260251 -0.006180 0.010543 0.026998 0.074544 0.103866 -0.019827 0.057311 0.027827 0.128240 0.163709 -0.033206 -0.093172 0.184249 0.004453 -0.038669 0.047089 0.054103 -0.120417 0.011503 -0.008175 0.082910 -0.185329 -0.057730 0.150573 0.189991 -0.027319 0.041421 -0.025772 -0.118984 -0.086763 0.092247 -0.116673 0.120546 -0.201436 -0.100830 0.129107 0.059207 0.072359 0.023193 0.282719 -0.129882 0.229603 -0.197109 0.116805 -0.076920 -0.000573 0.046392 0.071450 -0.033670 -0.174905 0.035104 -0.006453 -0.028676 0.212083 -0.163461 0.148567 0.027749 -0.010213 -0.006220 -0.198176 -0.040586 -0.266432 0.239012 -0.042064 -0.175015 0.082532 0.045768 -0.067657 -0.027767 -0.007889 0.036153 0.003920 0.085389 0.046603 0.099385 -0.103547 -0.079569 -0.046481 -0.022007 -0.013322 0.019341 -0.124184 0.076587 -0.067106 0.109147 -0.146854 -0.064066 -0.065954 0.039603 0.071072 -0.011043 -0.076986 0.109861 0.142630 0.063328
17 -0.008003 -0.244881 0.103926 -0.177598 -0.058497 -0.045500 0.127931 0.037669 0.003778 0.067763 -0.018373 0.129041 0.105476 -0.157662 -0.001899 -0.342927 -0.059996 -0.345938 0.061138 -0.000738 0.218097 0.011106 0.060385 0.073013 0.082981 -0.010262 -0.061376 0.097228 0.029668 0.015562 -0.125033 0.061967 -0.196224 -0.120346 -0.048239 -0.188779 0.097262 0.079518 0.062204 -0.182771 -0.309683 -0.035483 0.122228 0.312067 -0.099459 0.183541 -0.062039 -0.160059 -0.100942 0.117680 -0.180443 0.102155 -0.067963 0.095848 -0.126362 -0.181347 -0.191554 0.218746 -0.009138 -0.055724 0.128242 -0.199989 -0.089620 0.094061 0.073731 0.020828 -0.144797 -0.003630 -0.032730 -0.105136 -0.025064 -0.011729 0.213570 -0.177039 0.164633 -0.266678 0.203948 -0.024262 -0.170067 -0.058008 -0.060376 -0.271869 -0.025320 -0.104430 -0.209706 0.001068 0.131313 -0.215800 0.022980 0.016736 0.105953 0.066990 -0.105890 0.019474 -0.294411 0.173404 -0.027804 -0.178465 0.280313 0.024020 0.015256 -0.042882 0.035279 0.036833 -0.091133 0.050645 0.289282 0.189948 -0.066518 -0.032127 0.023321 -0.003926 -0.052946 0.053828 -0.118393 0.223617 -0.083324 0.335361 -0.232185 -0.134834 -0.061927 -0.109796 -0.002310 -0.266396 -0.250914 0.165774 0.235897 0.197462
113 0.062281 -0.324231 0.122537 -0.117987 0.141366 -0.014178 0.127303 0.189005 -0.117437 -0.162537 -0.045303 -0.103576 0.007914 -0.200531 -0.050166 -0.229607 0.152242 -0.045186 0.173995 0.067865 0.098516 0.115585 -0.068939 0.100058 -0.106521 0.075089 0.061585 -0.016828 -0.098326 -0.104122 -0.068000 -0.212564 -0.204582 -0.079917 0.124282 0.094062 -0.058806 -0.133692 0.003970 -0.189737 -0.189568 0.088258 -0.005267 0.070364 -0.095115 0.004896 0.043130 -0.191615 -0.026923 -0.198769 -0.277143 -0.022577 -0.157855 0.116709 -0.087392 -0.269446 -0.137577 0.262015 -0.149185 0.039261 -0.141215 -0.001320 -0.169384 0.123823 -0.152906 -0.015658 -0.260973 0.117395 0.002088 -0.021372 -0.023834 -0.077898 0.065830 0.014969 -0.165203 -0.145834 0.036460 0.037352 0.098864 -0.081839 -0.066420 -0.222671 -0.125764 -0.035695 0.070913 0.049639 0.080275 -0.244113 0.115287 -0.100619 0.138211 0.024188 -0.245763 -0.048467 -0.071867 0.212737 0.122490 -0.054771 0.127997 0.059022 -0.002894 -0.045821 0.248530 0.135044 -0.006867 0.062102 0.167715 0.071903 0.069698 0.033685 0.081747 0.068368 -0.067977 0.046704 -0.124511 0.210344 -0.167215 0.182149 0.018108 0.001027 0.067718 -0.076723 0.093201 -0.076780 -0.029832 0.121744 0.236045 0.162003
90 -0.197036 -0.210429 0.133471 -0.232260 0.310695 0.171149 -0.099082 -0.012776 0.034189 -0.004232 -0.022711 0.095626 -0.032835 -0.183301 0.172705 -0.179086 -0.096938 -0.027461 -0.044913 -0.120039 0.174645 0.040347 0.071411 0.003063 -0.134959 -0.046556 -0.250934 0.178368 -0.074837 -0.195939 0.007637 -0.197362 -0.387790 -0.066967 0.074409 0.113253 0.059051 0.131506 -0.053925 0.142278 0.045678 0.219431 0.153167 -0.127944 -0.125614 0.142070 0.023893 -0.002173 0.085351 0.004271 -0.146212 -0.020586 -0.016926 0.115736 -0.303841 -0.094297 0.291023 0.224833 -0.037057 0.125743 -0.099621 -0.018739 -0.121426 0.050002 -0.209067 0.131652 -0.170871 -0.025337 0.173671 0.117740 0.169230 0.050145 0.181231 -0.090084 0.201206 -0.135611 0.138658 -0.088230 0.057850 0.063565 0.148290 0.016377 -0.189693 0.096982 0.182521 -0.024767 0.200133 -0.117386 0.213831 0.051722 -0.127129 -0.063079 -0.220534 -0.085393 -0.264132 0.301270 -0.012518 -0.133037 -0.032904 0.073694 -0.083763 -0.069921 -0.055073 -0.021344 0.169317 0.059274 -0.044789 0.121460 -0.141648 -0.103864 -0.132404 -0.045259 -0.031132 0.011090 -0.174732 0.036245 0.006682 0.016915 -0.160638 -0.043884 0.032604 0.116521 0.110514 0.030271 -0.088110 0.192976 0.221216 -0.061408
15 -0.056186 -0.211263 0.151698 -0.155468 -0.063547 -0.015619 0.142432 -0.026876 -0.068263 0.011280 -0.131169 0.055853 0.117911 -0.102002 0.020245 -0.217843 -0.055203 -0.247926 -0.034625 -0.027540 0.195709 0.041403 0.108284 0.082149 0.006512 0.018176 -0.064822 0.082319 -0.038541 -0.112759 -0.050534 0.076274 -0.191354 -0.248247 -0.012374 -0.102627 0.055037 0.010041 0.075493 -0.216730 -0.395646 0.040203 0.052908 0.232365 -0.047822 0.169609 -0.043477 -0.167087 -0.154884 0.081590 -0.165376 0.102012 -0.074792 0.102893 -0.163076 -0.255174 -0.189964 0.196543 -0.059411 -0.014095 0.127499 -0.098703 -0.080672 0.024234 0.050123 0.024159 -0.082070 0.109543 -0.037734 -0.079219 0.050636 -0.018986 0.090054 -0.145575 0.079899 -0.257600 0.195579 0.008713 -0.208771 -0.086258 -0.019094 -0.279839 -0.021873 -0.102966 -0.047677 0.060060 0.089244 -0.165882 0.007087 0.071836 0.108377 0.092265 -0.123710 0.000459 -0.303534 0.220556 0.033891 -0.097408 0.218344 -0.018298 0.093678 -0.035332 0.030466 -0.007087 -0.009454 -0.002578 0.265286 0.214813 0.022002 0.021524 -0.054312 0.054515 -0.138045 0.038526 -0.126697 0.234341 -0.019393 0.290616 -0.209814 -0.103719 0.026482 -0.129416 0.001561 -0.271126 -0.232371 0.226349 0.286210 0.129060
18 -0.012704 -0.251471 0.097917 -0.206334 0.020818 -0.012353 0.089574 0.052529 0.004110 0.048459 -0.006783 0.126491 0.083993 -0.171759 0.027607 -0.360449 -0.061225 -0.296203 0.069211 -0.006889 0.208459 0.022299 0.051764 0.068571 0.059132 -0.027185 -0.083378 0.103790 0.022271 -0.001929 -0.113917 0.015816 -0.222326 -0.081887 -0.035246 -0.139357 0.085261 0.087251 0.045766 -0.118362 -0.218166 0.018719 0.146866 0.226189 -0.106410 0.194263 -0.049389 -0.134921 -0.056461 0.100271 -0.163564 0.078346 -0.048770 0.101878 -0.147788 -0.146422 -0.097767 0.216134 -0.025259 -0.026043 0.084173 -0.192165 -0.088630 0.097985 0.023957 0.049075 -0.171693 -0.032211 0.008164 -0.065516 0.005689 -0.010287 0.245504 -0.158988 0.192021 -0.260142 0.190302 -0.040413 -0.123485 -0.028459 -0.032415 -0.215456 -0.075297 -0.076341 -0.160203 -0.006417 0.169571 -0.214211 0.057446 0.019147 0.084221 0.043357 -0.139982 -0.007162 -0.304380 0.208313 -0.036460 -0.174864 0.233967 0.027095 -0.004399 -0.035397 0.029117 0.039903 -0.071442 0.055722 0.225742 0.161404 -0.078021 -0.053049 0.017451 -0.007206 -0.048020 0.040132 -0.117651 0.188088 -0.077574 0.259877 -0.196891 -0.110812 -0.063648 -0.084768 0.014133 -0.205029 -0.194293 0.141129 0.198559 0.157250
123 0.114225 -0.331309 0.108578 -0.073590 0.114854 -0.064683 0.140859 0.194486 -0.139814 -0.199187 -0.033008 -0.143253 0.010377 -0.191169 -0.109431 -0.231887 0.181881 -0.069827 0.210968 0.096371 0.140425 0.117490 -0.106764 0.114283 -0.105437 0.143005 0.122547 -0.026016 -0.080091 -0.096514 -0.080165 -0.234127 -0.215702 -0.074338 0.151544 0.089620 -0.089467 -0.178215 0.019146 -0.257922 -0.240094 0.081082 -0.008445 0.163342 -0.099284 -0.034297 0.017768 -0.239375 -0.034064 -0.248312 -0.338248 -0.020475 -0.196479 0.132468 -0.080149 -0.335729 -0.198279 0.302527 -0.189271 0.028512 -0.159766 -0.006876 -0.213047 0.139668 -0.121801 -0.053656 -0.310925 0.132047 -0.044592 -0.036711 -0.069483 -0.104748 0.074699 -0.002597 -0.218558 -0.171689 0.045595 0.052097 0.110700 -0.082234 -0.102621 -0.307301 -0.124369 -0.074492 0.048255 0.070808 0.052022 -0.292490 0.112377 -0.113170 0.170081 0.080135 -0.273529 -0.041740 -0.063505 0.207178 0.147246 -0.053530 0.172814 0.068167 0.029556 -0.046164 0.298735 0.169678 -0.031490 0.058970 0.232418 0.087635 0.099416 0.065137 0.144224 0.058709 -0.048392 0.080005 -0.125674 0.298434 -0.200686 0.251258 0.030795 0.034480 0.071673 -0.107652 0.092132 -0.114575 -0.036780 0.120803 0.303042 0.218066
26 -0.006664 -0.264876 0.171297 -0.182145 -0.102710 -0.048759 0.201721 0.006120 -0.100471 0.003757 -0.147598 0.044687 0.145646 -0.131701 0.004557 -0.287944 -0.024244 -0.320219 0.009273 -0.011051 0.221879 0.044086 0.107896 0.099432 0.033208 0.022363 -0.053462 0.069279 -0.044776 -0.086232 -0.081819 0.094432 -0.165331 -0.274794 -0.031404 -0.137197 0.059860 -0.007219 0.088341 -0.277084 -0.475718 0.005252 0.045561 0.306023 -0.044370 0.185194 -0.063345 -0.211898 -0.195186 0.104738 -0.189050 0.123345 -0.109601 0.108839 -0.141656 -0.276972 -0.276147 0.227871 -0.065631 -0.035909 0.165261 -0.149312 -0.077439 0.066846 0.087003 0.003366 -0.119816 0.117787 -0.067148 -0.121052 0.017573 -0.029981 0.099799 -0.162853 0.077623 -0.305866 0.195515 0.021961 -0.242731 -0.109926 -0.061233 -0.323514 -0.008730 -0.125668 -0.093102 0.079208 0.069891 -0.204293 -0.006643 0.044394 0.157305 0.111687 -0.135788 0.005357 -0.304455 0.230364 0.047250 -0.103913 0.286234 -0.054728 0.118856 -0.031642 0.069378 0.026219 -0.057543 0.016138 0.324774 0.226317 0.056529 0.033038 -0.028470 0.065575 -0.163589 0.060665 -0.118310 0.285989 -0.051216 0.358613 -0.208452 -0.127970 0.004066 -0.163071 -0.006531 -0.328289 -0.258553 0.245022 0.309755 0.186298
14 -0.019909 -0.250662 0.115886 -0.208338 0.010659 -0.006458 0.089692 0.034642 -0.004617 0.044154 -0.013022 0.126492 0.078136 -0.152195 0.028996 -0.345802 -0.063404 -0.302880 0.060032 -0.024630 0.209871 0.013742 0.049897 0.065188 0.050841 -0.023280 -0.095575 0.118135 0.014335 -0.012016 -0.107490 0.025799 -0.211845 -0.086112 -0.032676 -0.132532 0.087756 0.084440 0.049601 -0.124390 -0.227191 0.014399 0.139396 0.228466 -0.092864 0.188235 -0.048829 -0.125307 -0.066708 0.113554 -0.160367 0.085880 -0.051977 0.098213 -0.148185 -0.147284 -0.101495 0.217697 -0.027264 -0.029918 0.090901 -0.189305 -0.084514 0.088685 0.022358 0.049347 -0.153906 -0.031474 0.004734 -0.066836 0.001547 -0.001120 0.236421 -0.162967 0.190316 -0.259616 0.193740 -0.037167 -0.133921 -0.031394 -0.021756 -0.210933 -0.068821 -0.068169 -0.155995 0.006174 0.145943 -0.204451 0.056509 0.030143 0.075318 0.058941 -0.133912 -0.001809 -0.295976 0.199415 -0.036632 -0.169256 0.229766 0.020241 0.001738 -0.035564 0.022041 0.037769 -0.069507 0.058920 0.231102 0.173371 -0.071058 -0.042830 -0.001475 -0.008979 -0.054363 0.053500 -0.114217 0.185158 -0.078742 0.275643 -0.210664 -0.099672 -0.067339 -0.075431 0.010942 -0.207576 -0.197840 0.153058 0.212369 0.161068
120 0.037085 -0.313076 0.114553 -0.111623 0.104503 -0.032744 0.137296 0.166000 -0.118501 -0.158094 -0.065003 -0.104802 0.021841 -0.192177 -0.051995 -0.232030 0.142220 -0.064897 0.167707 0.066790 0.127868 0.096549 -0.060352 0.087181 -0.100982 0.099453 0.044175 0.011109 -0.090070 -0.137906 -0.057739 -0.184553 -0.178028 -0.107939 0.122455 0.083029 -0.051002 -0.127022 0.008235 -0.205792 -0.240100 0.087692 -0.020033 0.106689 -0.075911 -0.001590 0.028968 -0.184116 -0.048799 -0.177197 -0.269733 -0.013482 -0.144844 0.106431 -0.093465 -0.278133 -0.144038 0.236971 -0.152896 0.021814 -0.110076 0.009748 -0.165820 0.098906 -0.116603 -0.023720 -0.223694 0.131688 -0.017847 -0.026682 -0.032544 -0.049194 0.050460 -0.014403 -0.153000 -0.150531 0.054595 0.057367 0.054992 -0.082708 -0.062808 -0.251227 -0.098294 -0.050215 0.064327 0.054847 0.050030 -0.224414 0.087301 -0.065845 0.142172 0.050888 -0.234305 -0.036897 -0.106474 0.213729 0.115212 -0.048145 0.140971 0.035247 0.014495 -0.042852 0.215012 0.120642 -0.003961 0.056788 0.189093 0.110107 0.074679 0.048772 0.064451 0.056696 -0.075985 0.045106 -0.123132 0.228926 -0.153333 0.218223 -0.001784 0.001846 0.061917 -0.096206 0.074025 -0.116867 -0.052818 0.140324 0.264900 0.158559
132 0.092869 -0.310857 0.102074 -0.073695 0.143614 -0.045044 0.112580 0.183894 -0.140654 -0.202815 -0.039511 -0.146892 0.003934 -0.184502 -0.083408 -0.212940 0.166931 -0.035940 0.194996 0.091590 0.124476 0.124546 -0.112790 0.120801 -0.124711 0.150108 0.110545 -0.023624 -0.084610 -0.112831 -0.058398 -0.260642 -0.255289 -0.066548 0.174439 0.127859 -0.101700 -0.183591 0.007026 -0.232913 -0.208538 0.125587 -0.001120 0.113577 -0.108896 -0.025087 0.022428 -0.222298 -0.017844 -0.274368 -0.354140 -0.032528 -0.194037 0.136846 -0.101051 -0.349819 -0.150566 0.313105 -0.213631 0.049899 -0.192380 0.013869 -0.234365 0.136226 -0.164679 -0.039339 -0.317665 0.140339 -0.021147 0.003416 -0.044936 -0.107492 0.068809 0.011656 -0.218990 -0.167130 0.032338 0.043551 0.129588 -0.080243 -0.075954 -0.288833 -0.151150 -0.053101 0.096834 0.082820 0.070919 -0.294681 0.133513 -0.107404 0.157049 0.064273 -0.293139 -0.055554 -0.068314 0.223442 0.152382 -0.054305 0.150218 0.074535 0.014727 -0.048777 0.292404 0.162209 -0.005162 0.046655 0.205052 0.090674 0.094302 0.069468 0.119388 0.059567 -0.048637 0.075872 -0.139445 0.282125 -0.197663 0.222307 0.030965 0.037424 0.083834 -0.086356 0.110526 -0.081930 -0.016708 0.125668 0.307033 0.196794
40 -0.216293 -0.110097 0.105991 -0.123430 0.177640 0.078541 -0.099776 -0.013855 0.068564 0.054171 -0.052809 0.105150 0.022626 -0.151783 0.075526 -0.061283 -0.138043 0.028655 -0.111594 -0.054437 0.104140 0.080602 0.120875 0.052679 -0.099371 -0.032232 -0.083691 0.138027 -0.026507 -0.153550 0.050718 -0.087081 -0.383485 -0.107314 0.067536 -0.020465 0.066871 0.108350 -0.031173 0.032583 -0.082929 0.180878 0.139414 -0.043398 -0.170338 0.130764 0.081376 -0.042744 0.036318 -0.003930 -0.121327 -0.004860 0.029967 0.098623 -0.277368 -0.196482 0.168331 0.191929 -0.056950 0.076317 -0.063518 0.026779 -0.159814 -0.064553 -0.185521 0.095287 -0.015918 0.055576 0.101780 0.070199 0.164508 0.038795 0.133768 -0.020701 0.145689 -0.141255 0.187519 -0.074477 -0.019937 -0.010982 0.126677 -0.148136 -0.147849 0.025356 0.130611 -0.015949 0.299425 -0.109919 0.127156 0.123050 -0.044892 -0.072249 -0.161791 -0.030064 -0.364050 0.235801 -0.041022 -0.182471 0.020761 0.172526 -0.099821 -0.091048 -0.006714 -0.091310 0.171319 -0.016307 0.104416 0.191681 -0.181706 -0.041144 -0.145649 -0.007497 -0.026197 -0.026520 -0.240133 0.039121 0.011811 0.015710 -0.223224 -0.124377 0.091913 0.001443 0.033962 -0.114930 -0.127113 0.210425 0.218545 -0.097438
136 -0.033714 -0.328643 0.221180 -0.172152 0.312841 0.071817 0.077210 0.308613 -0.076086 -0.183720 -0.078668 -0.135226 -0.013066 -0.284309 0.016625 -0.122385 0.168713 0.221943 0.115191 0.059842 -0.114254 0.246592 0.013615 0.108938 -0.219809 -0.015273 0.132704 -0.080210 -0.170799 -0.135472 0.012600 -0.301933 -0.179624 -0.077972 0.190061 0.169338 -0.043593 -0.157873 -0.115567 -0.066841 -0.183335 0.161547 -0.082142 -0.219407 -0.122243 -0.016842 0.241430 -0.160380 0.034647 -0.205983 -0.213487 -0.094325 -0.106605 0.134172 -0.141702 -0.286815 -0.063547 0.203138 -0.130193 0.076729 -0.168681 0.147180 -0.186219 0.040436 -0.353534 -0.007097 -0.150989 0.148572 0.086392 0.013490 0.083346 -0.089657 0.009003 0.228375 -0.226045 -0.090489 -0.067717 -0.039033 0.185256 -0.144137 -0.029570 -0.074922 -0.239144 0.127383 0.295555 0.040456 0.224957 -0.229424 0.229438 -0.125314 0.196198 -0.174301 -0.246081 -0.108642 -0.102266 0.246310 0.103154 -0.082287 0.014904 0.132951 -0.154870 -0.088335 0.313461 0.042448 0.113045 0.037747 0.106313 0.047918 0.002209 0.028227 -0.080653 0.103990 -0.101495 -0.018291 -0.233952 0.054549 -0.154592 -0.013745 0.020790 -0.128192 0.133681 -0.002569 0.163140 -0.035707 0.022627 0.187928 0.196424 0.025992
121 0.104196 -0.362638 0.117502 -0.123762 0.187278 -0.021801 0.142091 0.232110 -0.142846 -0.214092 -0.032176 -0.145550 -0.003513 -0.221120 -0.063947 -0.269801 0.198650 -0.027398 0.233356 0.082855 0.102711 0.130896 -0.106508 0.103379 -0.124752 0.099497 0.078115 -0.032884 -0.106068 -0.121464 -0.075153 -0.269445 -0.208806 -0.056555 0.160814 0.139092 -0.089451 -0.182198 -0.005268 -0.202998 -0.173111 0.116138 -0.013303 0.060369 -0.095588 -0.023573 0.041365 -0.213601 -0.005416 -0.251222 -0.319169 -0.043899 -0.190361 0.129022 -0.073011 -0.287254 -0.145318 0.296203 -0.185504 0.049682 -0.188792 0.006759 -0.193634 0.156197 -0.179578 -0.025133 -0.334291 0.108328 0.005587 -0.004621 -0.052439 -0.098253 0.082253 0.024706 -0.212798 -0.154079 -0.001907 0.040891 0.150632 -0.079738 -0.078400 -0.220730 -0.161420 -0.022517 0.093529 0.063944 0.069969 -0.283762 0.140917 -0.133616 0.160718 0.034744 -0.296789 -0.063421 -0.029200 0.233394 0.156712 -0.048048 0.138556 0.046951 0.003300 -0.047090 0.298934 0.189959 -0.022271 0.074632 0.167339 0.058622 0.105679 0.050146 0.121891 0.070533 -0.061861 0.058231 -0.128372 0.243679 -0.209510 0.194330 0.060753 0.026943 0.061514 -0.069758 0.127929 -0.050336 0.001608 0.116638 0.266402 0.202808
93 -0.194700 -0.154193 0.126039 -0.127122 0.250067 0.119657 -0.119009 -0.011576 0.032595 0.015356 -0.016169 0.063072 -0.045293 -0.156238 0.111789 -0.056346 -0.056265 0.050984 -0.060104 -0.090843 0.156093 0.055801 0.045051 0.037506 -0.144294 0.004027 -0.136645 0.144375 -0.061151 -0.177982 0.045452 -0.205997 -0.395424 -0.054398 0.114969 0.089783 0.030201 0.079512 -0.044935 0.070956 0.002895 0.221223 0.096864 -0.076144 -0.138153 0.058230 0.031371 -0.040098 0.074647 -0.090680 -0.168849 -0.039341 -0.048378 0.120389 -0.283746 -0.157411 0.261391 0.219965 -0.076697 0.117715 -0.139679 0.064490 -0.165283 0.004609 -0.220714 0.099884 -0.145641 0.067957 0.108446 0.095319 0.146608 0.016385 0.097658 -0.031425 0.096786 -0.093248 0.143619 -0.050040 0.085353 0.024983 0.117091 -0.068996 -0.151604 0.072496 0.205288 -0.004824 0.201934 -0.117067 0.173043 0.044853 -0.109522 -0.072981 -0.215547 -0.075340 -0.234853 0.247238 0.018378 -0.114393 -0.032178 0.136441 -0.072761 -0.106736 0.008385 -0.022018 0.195127 0.019116 0.017995 0.131677 -0.121069 -0.034759 -0.083700 -0.039623 -0.024072 -0.003842 -0.196254 0.067157 -0.007538 0.016392 -0.116813 -0.017331 0.097172 0.072841 0.086136 -0.016376 -0.086648 0.191878 0.273058 -0.084368
129 0.076063 -0.310359 0.108346 -0.088707 0.148467 -0.045124 0.111150 0.190485 -0.116152 -0.169818 -0.026718 -0.118221 0.005817 -0.176229 -0.067289 -0.214704 0.168030 -0.035986 0.189706 0.078057 0.110343 0.114436 -0.099455 0.107767 -0.101527 0.107505 0.087173 -0.014860 -0.088058 -0.096156 -0.053177 -0.237939 -0.218403 -0.045434 0.140399 0.091620 -0.075200 -0.146263 0.011771 -0.191886 -0.171607 0.106611 0.004200 0.092517 -0.098061 -0.024868 0.031746 -0.200046 -0.012143 -0.219222 -0.299535 -0.023951 -0.165546 0.122715 -0.082712 -0.279943 -0.124026 0.285896 -0.183846 0.037350 -0.168274 0.000192 -0.195239 0.119426 -0.151613 -0.020881 -0.285404 0.108323 -0.018651 -0.013895 -0.046126 -0.093232 0.072872 0.021151 -0.181830 -0.156801 0.035703 0.043541 0.118724 -0.078621 -0.068843 -0.242072 -0.129122 -0.036817 0.072081 0.059427 0.078638 -0.267880 0.118021 -0.098217 0.135398 0.047046 -0.264935 -0.048706 -0.067612 0.203160 0.128979 -0.045202 0.132107 0.069570 0.010978 -0.050520 0.269202 0.161255 -0.009941 0.051722 0.183999 0.064334 0.075774 0.058583 0.119991 0.061012 -0.054411 0.065928 -0.124917 0.242457 -0.181874 0.191121 0.046985 0.026574 0.075947 -0.083840 0.100725 -0.069146 -0.008470 0.113265 0.258511 0.168684
125 0.089422 -0.324706 0.106546 -0.094220 0.146789 -0.039055 0.130522 0.196250 -0.137138 -0.178527 -0.037745 -0.132108 0.007569 -0.185682 -0.065586 -0.223369 0.188408 -0.041505 0.202900 0.075799 0.114719 0.109530 -0.088559 0.103087 -0.107600 0.111035 0.075444 -0.022703 -0.105047 -0.110184 -0.064747 -0.235914 -0.212281 -0.071900 0.140390 0.104304 -0.076604 -0.155502 0.017178 -0.200625 -0.194345 0.101296 0.000907 0.094026 -0.093853 -0.025251 0.020868 -0.208559 -0.023180 -0.222144 -0.309276 -0.027717 -0.178081 0.124426 -0.086755 -0.288748 -0.139944 0.291912 -0.175719 0.046441 -0.166356 -0.006866 -0.189437 0.136923 -0.151571 -0.024019 -0.308919 0.121224 -0.014393 -0.018369 -0.045780 -0.084616 0.062475 0.015240 -0.179261 -0.156685 0.028135 0.048211 0.117667 -0.075849 -0.073762 -0.241138 -0.125202 -0.038139 0.081632 0.061803 0.064684 -0.261308 0.127168 -0.109984 0.143303 0.043353 -0.274710 -0.050564 -0.057522 0.217532 0.147882 -0.050461 0.147210 0.050708 0.011189 -0.054628 0.276374 0.167689 -0.014732 0.063305 0.187974 0.078850 0.086173 0.052976 0.115299 0.062558 -0.068044 0.060373 -0.130133 0.253096 -0.186706 0.207612 0.044750 0.019089 0.074672 -0.086417 0.110583 -0.079491 -0.025679 0.136832 0.279069 0.187068
51 -0.097955 -0.182119 0.114634 -0.137991 0.079147 0.025139 0.017892 0.021662 0.004938 0.017584 -0.051017 0.073016 0.043324 -0.152202 0.036064 -0.170428 -0.063271 -0.104810 -0.017332 -0.029604 0.137918 0.059173 0.078080 0.064860 -0.040531 -0.004278 -0.054001 0.094713 -0.019784 -0.099232 -0.021325 -0.039733 -0.271055 -0.124819 0.033750 -0.053346 0.064845 0.052301 0.003091 -0.076759 -0.184054 0.093164 0.093472 0.089712 -0.115475 0.134961 0.026352 -0.101834 -0.033446 0.015548 -0.151285 0.030687 -0.024388 0.091048 -0.198790 -0.196281 -0.003962 0.186856 -0.055871 0.024884 0.005182 -0.050422 -0.125274 0.018247 -0.079844 0.050696 -0.079773 0.054445 0.031882 -0.009253 0.080176 0.004361 0.125834 -0.064523 0.099903 -0.175938 0.166044 -0.033919 -0.070451 -0.041790 0.036377 -0.192178 -0.091292 -0.032238 0.018389 0.007734 0.181654 -0.141316 0.073564 0.060776 0.033079 0.001730 -0.136557 -0.012816 -0.287124 0.201686 -0.017615 -0.136010 0.107462 0.083698 -0.027373 -0.056380 0.033104 -0.024818 0.053409 0.005023 0.165304 0.174546 -0.084020 -0.019208 -0.066273 0.012557 -0.055436 0.008163 -0.166185 0.123159 -0.030908 0.143378 -0.189898 -0.097979 0.031695 -0.053304 0.022257 -0.165595 -0.150031 0.182807 0.218670 0.029257
25 -0.075931 -0.197513 0.096707 -0.177553 0.025838 0.004950 0.030790 0.010035 0.044224 0.068219 0.002989 0.141167 0.061531 -0.151523 0.035696 -0.279677 -0.101155 -0.236919 0.019379 -0.025236 0.186126 0.021517 0.070719 0.066351 0.038240 -0.037635 -0.083272 0.125321 0.031629 -0.020567 -0.069843 0.018416 -0.252132 -0.082497 -0.020997 -0.129621 0.099590 0.110752 0.020590 -0.092846 -0.183846 0.042682 0.142544 0.178184 -0.115482 0.189527 -0.016678 -0.102078 -0.037814 0.085528 -0.149546 0.073289 -0.013834 0.090901 -0.184581 -0.149941 -0.028595 0.185612 -0.029483 -0.011403 0.056566 -0.137254 -0.104759 0.055344 -0.015785 0.051368 -0.111871 -0.018908 0.015231 -0.045208 0.040392 0.003831 0.232509 -0.127539 0.194263 -0.236767 0.202772 -0.047664 -0.109830 -0.015696 0.005443 -0.216502 -0.087672 -0.065761 -0.115429 -0.016183 0.196467 -0.185141 0.050754 0.048936 0.048015 0.026593 -0.120391 -0.001900 -0.330832 0.198222 -0.063575 -0.180501 0.178926 0.074460 -0.037361 -0.052023 -0.005765 -0.010016 -0.017886 0.035770 0.208565 0.185159 -0.112059 -0.048416 -0.022152 -0.019294 -0.021867 0.018397 -0.146584 0.142611 -0.046384 0.210946 -0.228311 -0.118115 -0.044536 -0.068443 0.000726 -0.198716 -0.192718 0.154125 0.186296 0.086640
41 -0.278111 -0.101952 0.137302 -0.147883 0.216775 0.109767 -0.133015 -0.062443 0.095124 0.075260 -0.043452 0.140720 -0.007098 -0.141851 0.127347 -0.033117 -0.178093 0.037055 -0.143202 -0.098358 0.123457 0.057673 0.134039 0.051307 -0.113074 -0.043120 -0.148784 0.188006 -0.020892 -0.178069 0.076263 -0.079237 -0.441673 -0.109239 0.070042 -0.001770 0.097426 0.144764 -0.049296 0.081272 -0.034980 0.217149 0.153370 -0.087350 -0.171893 0.172115 0.083090 -0.001631 0.040616 0.008208 -0.118033 -0.009245 0.043473 0.094425 -0.336659 -0.174456 0.260357 0.198232 -0.069030 0.093817 -0.067792 0.040884 -0.168539 -0.057218 -0.205176 0.128185 -0.010707 0.053482 0.130648 0.099447 0.217968 0.042475 0.144647 -0.024519 0.189214 -0.139585 0.219111 -0.086875 -0.021390 0.022597 0.175149 -0.115929 -0.169543 0.051024 0.180541 -0.033003 0.308459 -0.069313 0.148847 0.148188 -0.100110 -0.085800 -0.159497 -0.040607 -0.402912 0.262545 -0.075449 -0.171231 -0.023905 0.189151 -0.122912 -0.108845 -0.055859 -0.128712 0.232644 -0.023031 0.060871 0.202976 -0.214779 -0.044458 -0.181669 -0.021802 -0.024679 -0.049514 -0.265119 -0.001489 0.028017 -0.002081 -0.260857 -0.114663 0.081843 0.025322 0.042738 -0.086246 -0.140463 0.225450 0.238711 -0.154797
19 -0.000856 -0.252283 0.131535 -0.153904 -0.030341 -0.029519 0.138807 0.035085 -0.072583 -0.021661 -0.088887 0.033225 0.081458 -0.119852 -0.005088 -0.251494 0.001938 -0.238876 0.051688 0.005726 0.184080 0.034608 0.042035 0.080827 0.012725 0.040585 -0.036324 0.061922 -0.035705 -0.082976 -0.075780 0.010042 -0.174091 -0.180120 0.008197 -0.075160 0.032680 -0.012520 0.060746 -0.213791 -0.332528 0.020088 0.050898 0.234008 -0.049381 0.118970 -0.041164 -0.171512 -0.120781 0.026333 -0.192773 0.075519 -0.097182 0.100032 -0.113323 -0.221822 -0.193707 0.210606 -0.062304 -0.023827 0.073044 -0.108875 -0.091121 0.076801 0.021263 0.001256 -0.147965 0.089318 -0.042911 -0.089103 -0.001589 -0.031969 0.103512 -0.122308 0.033313 -0.236132 0.163151 0.022937 -0.134269 -0.081434 -0.050942 -0.276195 -0.032807 -0.098797 -0.059763 0.049550 0.076704 -0.191508 0.021277 0.013544 0.118006 0.087436 -0.147208 -0.002154 -0.226996 0.202721 0.046802 -0.085591 0.211596 -0.019980 0.072341 -0.035222 0.080457 0.042245 -0.045856 0.031591 0.242215 0.171769 0.029508 0.021899 0.011447 0.040889 -0.106947 0.048626 -0.098043 0.244630 -0.067093 0.287380 -0.141906 -0.066444 0.009601 -0.116836 0.019675 -0.233000 -0.187568 0.180759 0.263372 0.162654
124 0.101609 -0.347180 0.101466 -0.118779 0.160970 -0.038110 0.142158 0.213456 -0.132183 -0.208087 -0.021246 -0.130399 0.001197 -0.203063 -0.078350 -0.260129 0.186950 -0.057293 0.224093 0.087831 0.119612 0.108544 -0.114877 0.090368 -0.111272 0.108094 0.057957 -0.020095 -0.087731 -0.111858 -0.086203 -0.244089 -0.179441 -0.051320 0.140662 0.110761 -0.074023 -0.165284 0.008764 -0.205033 -0.174921 0.093598 -0.005589 0.092394 -0.090320 -0.022147 0.030358 -0.206038 -0.013880 -0.234366 -0.297683 -0.039769 -0.165307 0.116854 -0.067115 -0.271253 -0.138219 0.280037 -0.166120 0.031861 -0.167132 -0.010974 -0.185179 0.145025 -0.153747 -0.021454 -0.312749 0.105968 -0.004358 -0.018257 -0.073142 -0.080804 0.099999 -0.002311 -0.195753 -0.158187 0.025819 0.052744 0.129416 -0.071300 -0.081605 -0.241372 -0.136878 -0.039909 0.058515 0.057530 0.064048 -0.279764 0.128208 -0.110898 0.152227 0.058728 -0.280037 -0.045987 -0.054508 0.213331 0.142658 -0.052411 0.142514 0.049354 0.010190 -0.039285 0.272366 0.181014 -0.028573 0.078358 0.178512 0.067429 0.087902 0.047260 0.121963 0.056992 -0.047204 0.061811 -0.114722 0.249434 -0.206737 0.210782 0.056667 0.035631 0.058960 -0.079872 0.102388 -0.057218 -0.011273 0.104080 0.255204 0.205784
86 -0.237651 -0.143802 0.134662 -0.149592 0.268335 0.146021 -0.150683 -0.048283 0.069448 0.046656 -0.019392 0.110135 -0.036418 -0.167198 0.150984 -0.050934 -0.114939 0.051625 -0.107147 -0.114001 0.150097 0.054537 0.084428 0.020319 -0.150148 -0.027560 -0.186061 0.170324 -0.058193 -0.191092 0.056093 -0.178230 -0.424592 -0.070858 0.097951 0.071781 0.072354 0.132565 -0.058091 0.119475 0.014450 0.221394 0.125775 -0.102606 -0.155554 0.104740 0.048324 -0.015060 0.083835 -0.045781 -0.139409 -0.029121 -0.009019 0.116433 -0.325861 -0.135911 0.315472 0.208473 -0.049356 0.119471 -0.112674 0.051245 -0.159591 -0.007870 -0.227192 0.120391 -0.094680 0.039879 0.140739 0.110031 0.179659 0.048818 0.127534 -0.045334 0.156716 -0.103305 0.166002 -0.073883 0.058248 0.045211 0.146880 -0.039239 -0.155516 0.094035 0.208308 -0.026428 0.235889 -0.094515 0.184499 0.076330 -0.136814 -0.094409 -0.185348 -0.067437 -0.298115 0.264957 -0.020240 -0.134158 -0.049360 0.143152 -0.100977 -0.110072 -0.042180 -0.061026 0.218641 0.018300 -0.010138 0.152022 -0.165941 -0.066002 -0.148771 -0.051311 -0.015343 -0.019666 -0.200803 0.020266 0.026044 -0.015366 -0.176616 -0.055652 0.082693 0.094619 0.072510 -0.018212 -0.107599 0.200975 0.247956 -0.133205
70 -0.064478 -0.245287 0.095044 -0.249552 0.210306 0.087484 -0.006643 0.066099 0.015336 -0.004625 0.019263 0.120687 0.024359 -0.166644 0.115130 -0.355518 -0.082288 -0.173239 0.064951 -0.045902 0.164601 0.031079 0.039171 0.024035 -0.034380 -0.068117 -0.207785 0.141238 -0.010162 -0.089371 -0.058891 -0.113325 -0.276945 -0.021041 0.008155 0.021210 0.063413 0.099995 -0.009731 0.058127 0.023859 0.127690 0.173074 -0.028625 -0.107013 0.182514 -0.006877 -0.036896 0.036733 0.055664 -0.120928 0.019223 -0.009439 0.079818 -0.183961 -0.073718 0.137483 0.214488 -0.036036 0.051572 -0.034409 -0.125301 -0.084735 0.081151 -0.109821 0.118860 -0.182260 -0.102141 0.129658 0.057935 0.074579 0.027402 0.263565 -0.133265 0.224046 -0.184321 0.121301 -0.079425 -0.005784 0.037522 0.091418 -0.036354 -0.174328 0.027016 -0.006505 -0.024706 0.210231 -0.148829 0.142181 0.040676 -0.018674 0.002100 -0.198722 -0.027407 -0.258790 0.232920 -0.028977 -0.179390 0.089984 0.034555 -0.057241 -0.020227 -0.010023 0.038642 0.001288 0.071789 0.042528 0.098660 -0.102915 -0.087851 -0.055208 -0.009977 -0.018295 0.028267 -0.124657 0.078220 -0.065227 0.110770 -0.156268 -0.054471 -0.046720 0.031268 0.072851 -0.017738 -0.073736 0.118079 0.140674 0.061777
141 0.013784 -0.349567 0.210826 -0.182894 0.307282 0.058736 0.101337 0.323724 -0.100363 -0.217649 -0.056500 -0.160273 -0.013641 -0.277037 0.004624 -0.172995 0.193148 0.192043 0.153769 0.082745 -0.108537 0.231836 -0.027610 0.113960 -0.221522 -0.005162 0.129061 -0.104385 -0.167996 -0.118518 -0.007721 -0.306348 -0.140605 -0.049468 0.185391 0.182776 -0.061384 -0.166009 -0.104861 -0.084818 -0.168718 0.144000 -0.076499 -0.198184 -0.091086 -0.007956 0.212521 -0.165704 0.028744 -0.211387 -0.234851 -0.095122 -0.119069 0.134622 -0.102560 -0.262629 -0.081218 0.206490 -0.135943 0.069025 -0.171476 0.114298 -0.177142 0.078207 -0.339368 0.001006 -0.202046 0.130203 0.077551 0.018286 0.048134 -0.098609 0.026150 0.202270 -0.230391 -0.103562 -0.082766 -0.024295 0.197304 -0.135800 -0.048537 -0.068980 -0.241057 0.123329 0.267015 0.052129 0.186221 -0.254466 0.240646 -0.144911 0.204421 -0.148133 -0.270762 -0.116371 -0.063251 0.245878 0.128802 -0.074600 0.041894 0.093222 -0.138297 -0.060803 0.313642 0.085797 0.098983 0.050572 0.090841 0.018551 0.039191 0.017820 -0.047854 0.103259 -0.110305 -0.004573 -0.201744 0.063178 -0.179165 0.021163 0.053251 -0.103459 0.125098 -0.003845 0.172951 -0.006168 0.048896 0.156484 0.192083 0.072341
128 0.069061 -0.398728 0.123164 -0.141672 0.175570 -0.027227 0.177508 0.238972 -0.161092 -0.135854 -0.079621 -0.110967 0.018342 -0.225470 -0.021399 -0.276160 0.259671 -0.015386 0.263318 0.060517 0.117415 0.133007 -0.090633 0.116492 -0.096614 0.102332 0.097571 -0.048179 -0.158734 -0.106785 -0.076083 -0.277130 -0.231121 -0.095458 0.114707 0.102249 -0.096040 -0.142259 0.021982 -0.179475 -0.210402 0.091397 0.010260 0.078206 -0.086778 -0.015668 0.002997 -0.220529 -0.051773 -0.209095 -0.324354 -0.052583 -0.229569 0.136568 -0.068255 -0.244897 -0.164138 0.317461 -0.160880 0.078414 -0.169157 0.006841 -0.156229 0.182776 -0.194438 0.004846 -0.396003 0.164176 -0.016114 -0.039570 0.005354 -0.104369 -0.017022 0.051183 -0.156126 -0.123728 0.015639 0.065125 0.117738 -0.121015 -0.092051 -0.217879 -0.105661 -0.030409 0.112707 0.049351 0.075363 -0.253619 0.110208 -0.165820 0.139671 -0.022445 -0.303756 -0.099312 0.005901 0.273022 0.177987 -0.027979 0.175719 0.028811 0.012469 -0.077844 0.312436 0.209480 0.003972 0.071660 0.187885 0.063898 0.082953 0.049861 0.165721 0.102293 -0.125149 0.022838 -0.149955 0.277104 -0.187488 0.187399 0.085255 0.010495 0.112155 -0.096999 0.135776 -0.096681 -0.024457 0.161469 0.279223 0.198040
27 -0.030621 -0.213548 0.100863 -0.149689 -0.028974 -0.027583 0.084955 0.020144 -0.001333 0.048881 -0.034425 0.101857 0.085679 -0.138214 -0.001979 -0.263546 -0.064995 -0.269381 0.021034 -0.013835 0.197179 0.025526 0.066805 0.075985 0.040383 -0.001708 -0.054945 0.103647 0.015551 -0.024652 -0.086846 0.036253 -0.230951 -0.130847 -0.012845 -0.149807 0.080816 0.065172 0.049504 -0.165403 -0.287547 0.010410 0.110312 0.257308 -0.105162 0.160845 -0.035726 -0.150596 -0.080767 0.077521 -0.172447 0.089949 -0.059530 0.104406 -0.158880 -0.205758 -0.134706 0.214562 -0.031471 -0.027111 0.084000 -0.143544 -0.113904 0.054130 0.035443 0.019986 -0.111298 0.026388 -0.025548 -0.079495 0.000723 -0.004413 0.184943 -0.148288 0.126968 -0.247896 0.206085 -0.022864 -0.144312 -0.047931 -0.033786 -0.263848 -0.041444 -0.084858 -0.139516 0.010391 0.141919 -0.194601 0.030331 0.040737 0.080661 0.054990 -0.113175 0.014769 -0.303053 0.177459 -0.019926 -0.167361 0.228954 0.042482 0.007554 -0.049533 0.040518 0.007501 -0.039444 0.035491 0.262970 0.192017 -0.069548 -0.019798 -0.005762 -0.003503 -0.055472 0.045821 -0.133598 0.200103 -0.066143 0.281955 -0.226439 -0.117007 -0.030424 -0.097718 0.001101 -0.249182 -0.228188 0.179713 0.252105 0.138320
29 -0.056891 -0.219939 0.095598 -0.217229 0.060875 0.020845 0.037085 0.025095 0.047260 0.080886 0.036135 0.170721 0.062014 -0.169946 0.059604 -0.358344 -0.109129 -0.293510 0.050005 -0.041623 0.209004 0.006186 0.054314 0.059221 0.048768 -0.061802 -0.134433 0.134230 0.040507 0.006887 -0.097558 0.005692 -0.254640 -0.045850 -0.044166 -0.140263 0.118874 0.143378 0.026146 -0.055110 -0.130292 0.034360 0.175119 0.176948 -0.110988 0.217469 -0.042472 -0.091662 -0.026239 0.130267 -0.139699 0.073400 -0.025045 0.090557 -0.176926 -0.094641 -0.000254 0.203697 -0.000766 -0.013849 0.076709 -0.191913 -0.090968 0.088200 -0.004677 0.071756 -0.160337 -0.076573 0.044067 -0.029854 0.025857 0.009463 0.281843 -0.162483 0.254237 -0.249559 0.199820 -0.068664 -0.109596 0.006627 0.008317 -0.159384 -0.095003 -0.043025 -0.154179 -0.028985 0.199768 -0.193206 0.076293 0.035393 0.030694 0.021093 -0.134810 -0.005029 -0.312428 0.202815 -0.074980 -0.211909 0.203454 0.053560 -0.047842 -0.043888 -0.010835 0.023391 -0.040507 0.063331 0.188587 0.165299 -0.127146 -0.073487 -0.005885 -0.035234 -0.018573 0.032002 -0.139659 0.133352 -0.069518 0.231084 -0.234336 -0.116916 -0.080864 -0.037575 0.015320 -0.173565 -0.194246 0.146483 0.191136 0.122917
130 0.090048 -0.364171 0.119776 -0.121418 0.126091 -0.050257 0.161432 0.202407 -0.140134 -0.199324 -0.041417 -0.128460 0.009527 -0.206239 -0.089417 -0.254578 0.177941 -0.082807 0.212846 0.090531 0.130595 0.106689 -0.104009 0.095747 -0.097170 0.117361 0.072244 -0.012197 -0.086172 -0.119976 -0.095689 -0.213968 -0.170854 -0.085536 0.138719 0.085273 -0.062588 -0.162481 0.017259 -0.244358 -0.241013 0.065296 -0.022735 0.147450 -0.083540 -0.022883 0.022050 -0.222484 -0.043805 -0.222127 -0.298568 -0.020852 -0.167425 0.125806 -0.068050 -0.292980 -0.195543 0.269938 -0.165994 0.008597 -0.131047 -0.013516 -0.179416 0.133232 -0.123107 -0.045448 -0.273080 0.121365 -0.026837 -0.048703 -0.080946 -0.075590 0.083231 -0.014460 -0.200019 -0.169846 0.045471 0.065438 0.089207 -0.091264 -0.097567 -0.287745 -0.101156 -0.063579 0.031187 0.060178 0.038502 -0.275043 0.101772 -0.105534 0.169278 0.074862 -0.249011 -0.033384 -0.069354 0.204056 0.136225 -0.041966 0.159916 0.042066 0.021578 -0.044919 0.264354 0.157886 -0.043737 0.080567 0.209152 0.090639 0.095469 0.055304 0.113732 0.058929 -0.063493 0.065931 -0.108111 0.263123 -0.188888 0.243417 0.028605 0.020287 0.051840 -0.106310 0.082873 -0.111837 -0.042380 0.115483 0.263706 0.210412
64 -0.033684 -0.278824 0.100772 -0.254526 0.247510 0.081123 0.026459 0.122386 -0.009006 -0.061367 0.039037 0.072891 0.006793 -0.192145 0.101568 -0.373388 -0.022846 -0.144511 0.120394 -0.024514 0.153733 0.045811 -0.004288 0.030582 -0.052046 -0.052310 -0.175483 0.113912 -0.029422 -0.090077 -0.074315 -0.172188 -0.228204 0.011576 0.028295 0.054800 0.031912 0.056050 -0.014176 0.046006 0.049530 0.128617 0.148823 -0.052895 -0.092485 0.146488 0.011104 -0.046161 0.051469 0.008449 -0.137124 -0.008989 -0.033577 0.081770 -0.146359 -0.068940 0.117797 0.208684 -0.047916 0.049925 -0.072320 -0.106455 -0.090542 0.113114 -0.137789 0.106908 -0.234221 -0.096008 0.128232 0.059763 0.049652 0.009760 0.254461 -0.096575 0.164452 -0.171293 0.071699 -0.063847 0.054118 0.031464 0.058946 -0.023204 -0.183127 0.036058 0.012699 -0.017148 0.181220 -0.174664 0.162018 -0.004949 0.004402 0.001013 -0.217034 -0.042563 -0.192203 0.231176 -0.000395 -0.152568 0.074576 0.032759 -0.061616 -0.019095 0.039595 0.075061 -0.003122 0.090717 0.039927 0.070420 -0.071415 -0.074733 -0.007439 -0.002623 -0.006191 0.033345 -0.115470 0.090647 -0.100722 0.102186 -0.084690 -0.028457 -0.046660 0.045688 0.084175 0.027150 -0.026032 0.086373 0.128349 0.094869
49 -0.137590 -0.163540 0.108682 -0.160776 0.157550 0.063842 -0.052751 0.005114 0.051096 0.039379 -0.003620 0.118114 0.016432 -0.151892 0.080514 -0.181819 -0.111527 -0.080392 -0.027610 -0.049791 0.144082 0.043532 0.075843 0.049457 -0.049639 -0.033439 -0.120249 0.133600 -0.006108 -0.098032 -0.007311 -0.078946 -0.328209 -0.064856 0.039519 -0.023071 0.074924 0.102847 -0.018252 0.014296 -0.063417 0.140046 0.143696 0.014627 -0.136480 0.159420 0.023165 -0.055913 0.018398 0.023997 -0.139911 0.014637 0.004736 0.095276 -0.238633 -0.141201 0.129215 0.198591 -0.054045 0.049360 -0.040677 -0.046996 -0.129110 0.015838 -0.129535 0.087863 -0.094963 -0.003962 0.086607 0.040646 0.108456 0.018861 0.185838 -0.072172 0.173140 -0.166023 0.170611 -0.069731 -0.021982 0.008240 0.081248 -0.118439 -0.141937 0.009458 0.039380 -0.021779 0.231449 -0.132742 0.113438 0.076140 -0.022994 -0.028680 -0.163892 -0.029638 -0.306790 0.216832 -0.050011 -0.167971 0.071327 0.116609 -0.070490 -0.068544 -0.008792 -0.033992 0.088146 0.024625 0.099804 0.162906 -0.139628 -0.051848 -0.080058 -0.015923 -0.012024 -0.002006 -0.182235 0.070343 -0.024898 0.091201 -0.201348 -0.087745 0.016407 0.002102 0.035658 -0.103785 -0.122115 0.165279 0.202026 -0.015046
67 -0.145781 -0.220953 0.108360 -0.236285 0.317330 0.141012 -0.072666 0.044783 0.044727 -0.013010 0.039680 0.099647 -0.030747 -0.201872 0.157837 -0.258639 -0.073654 -0.054163 0.024336 -0.081792 0.143075 0.043057 0.036579 0.006418 -0.098487 -0.058727 -0.210730 0.153570 -0.033811 -0.152974 -0.034181 -0.204072 -0.345880 -0.000886 0.059528 0.092653 0.044551 0.111807 -0.040982 0.142261 0.097346 0.200480 0.180637 -0.126310 -0.139121 0.142362 0.039256 -0.000057 0.107811 -0.008444 -0.137955 -0.029803 -0.008276 0.097134 -0.257000 -0.077291 0.266010 0.218465 -0.044431 0.106747 -0.103086 -0.047400 -0.115190 0.079531 -0.212818 0.131966 -0.193964 -0.074597 0.179469 0.107667 0.136727 0.040870 0.233902 -0.068151 0.198969 -0.137630 0.099477 -0.092147 0.093453 0.061667 0.121356 0.019357 -0.210774 0.092537 0.110302 -0.036879 0.214472 -0.138625 0.215483 0.020731 -0.076135 -0.059948 -0.223310 -0.069045 -0.247186 0.259531 -0.023794 -0.159166 -0.011838 0.080717 -0.104536 -0.054422 -0.014379 0.014616 0.100320 0.063012 -0.017980 0.093773 -0.140202 -0.101584 -0.087836 -0.026249 -0.002321 0.016314 -0.162809 0.041560 -0.040800 0.006283 -0.123270 -0.046596 -0.006257 0.101687 0.105725 0.060552 -0.039565 0.132749 0.166536 -0.007943
34 -0.054901 -0.227921 0.110690 -0.207116 0.068010 0.016823 0.059041 0.046583 0.015548 0.035083 -0.002885 0.124127 0.061873 -0.167415 0.047571 -0.328076 -0.078984 -0.236768 0.051148 -0.023993 0.181172 0.025596 0.060346 0.051583 0.020684 -0.047344 -0.110052 0.119676 0.015812 -0.029125 -0.081157 -0.007990 -0.227786 -0.065902 -0.012947 -0.090180 0.090282 0.091147 0.017169 -0.066042 -0.154411 0.050916 0.143818 0.144106 -0.101972 0.183469 -0.009746 -0.098785 -0.032461 0.089436 -0.137100 0.055851 -0.022619 0.092743 -0.169633 -0.131176 -0.024584 0.190852 -0.024483 -0.010482 0.056368 -0.142451 -0.091155 0.074550 -0.022242 0.060556 -0.138067 -0.044928 0.042141 -0.028429 0.034126 0.004987 0.235213 -0.127540 0.193079 -0.227979 0.163019 -0.051541 -0.095314 -0.008406 0.007582 -0.167275 -0.100740 -0.039746 -0.099300 -0.009212 0.185901 -0.176007 0.071451 0.039538 0.048611 0.025724 -0.142154 -0.012900 -0.300401 0.201009 -0.048623 -0.174766 0.172552 0.045068 -0.029311 -0.032967 0.008226 0.010521 -0.032302 0.051118 0.185311 0.157780 -0.095373 -0.053231 -0.023035 -0.010996 -0.032535 0.033781 -0.135282 0.135078 -0.062442 0.210158 -0.204765 -0.107006 -0.056207 -0.048825 0.022017 -0.158789 -0.168952 0.141451 0.183733 0.109812
